,0,1,2,3,4,5,6,7,8,9,10,11,12,13,14
0,0.0,0.0,0.0,0.0,0.0,0.0,0.0,0.0,0.0,0.0,0.0,0.0,0.0,0.0,0.0
1,-0.006643515591567013,0.22670447262616053,-0.100595932945795,-0.010683427119151693,0.016997167946855917,-0.008909899066939082,-0.00256614095617982,0.03490857044284778,0.00035995963512182056,0.0012026306371343974,0.0005681295497586842,-0.0006341994437906101,0.001014758451876275,6.428016199107714e-05,0.0
2,-0.00784437536291749,0.23231467261832012,-0.10823604376915573,-0.008126905658334797,0.014219691381273738,-0.004600483194803679,-0.0024332972600346185,0.029146017271086854,-0.000279882982298849,0.0011774083199136464,9.843123710032492e-05,-0.0007935331647931493,0.0005237424744243234,0.00013255149844959845,0.0
3,-0.005705660424904839,0.22615001458349018,-0.108956229509299,-0.009360473049066276,0.016211630283126045,-0.009409743201236416,-0.0005842309569365323,0.029298449097538766,0.0004619463034580613,-0.00018913866996522215,-0.001217906295820572,-0.0007123044156171929,0.0014045135398058114,-0.0005261022917577428,0.0
4,-0.006877198301562311,0.2326719505124651,-0.10388348468667352,-0.007265662743571658,0.0161494003803643,-0.006914176611545225,-0.002412720244888277,0.030542094475005947,-0.0006556374013185113,0.0004797276164687855,0.00011497220725100775,-0.00020077292188610892,-0.00016982889216260542,-0.0005184700456610806,0.0
5,-0.007967956142502765,0.23534497305879562,-0.10214097926606727,-0.008424222149386346,0.015139835016665869,-0.00878806926047037,-0.003396970822923979,0.026867742244042387,0.0010028532218269819,-0.00045317896299938633,0.00011733433962961053,5.01110894538046e-05,0.0001935440257039591,-0.000189573558365852,0.0
6,-0.00790824923490736,0.23462065822391706,-0.10235568976842602,-0.008593235134808898,0.014694214006982889,-0.0059535396795463305,-0.004667320920308083,0.0290858646423871,0.000574737973672264,0.001504048214099369,-0.00011318639955246537,-0.000565804840305945,0.0014930020876983442,0.0007823810601821559,0.0
7,-0.006698320288556504,0.23270516146267226,-0.10618729091490263,-0.008100247488133868,0.0156877616025052,-0.009068036550857451,-0.0008976050034778814,0.026257168736487025,-0.0006489587198034961,0.0012201011815749698,-0.0002586104428495971,0.00044533765942593196,-0.00034958777832712107,-0.001652766320392787,0.0
8,-0.007149381486156898,0.23040933935017127,-0.10812394230104515,-0.0060695157172504415,0.0158872787679772,-0.010863454402076275,-0.0002214080987685556,0.028624948798578145,0.0005660362811926483,-0.0009206590619951683,0.000810822596311873,8.292352418696207e-05,-0.00011005226683050638,-0.00017815683070219373,0.0
9,-0.006169968662741232,0.2246227023861089,-0.10897629627541879,-0.008295295811285632,0.015803324594456106,-0.010019652673829411,-0.0008756707975596208,0.03101134549201772,-0.0008075156122780454,0.0006330161389979375,0.0005669000127100813,-0.000718681139296982,-8.667126798286741e-05,-0.0008893508731442236,0.0
10,-0.007941719231066763,0.2337521340637889,-0.09764450006915273,-0.009660023386215503,0.015783783252350733,-0.00851688263028525,-0.00546138850250981,0.029881801758883095,-0.0018950225533664621,0.0005512698636783801,-0.0003025462336332131,-0.0005887632135223126,-0.0007319529814947291,-0.0009386280377247341,0.0
11,0.03429408220782897,0.0542460338305219,-0.1459048064389532,-0.04150304075744262,-0.0018999189188426088,0.03209995152799661,0.03037875689932994,0.03696076036919432,0.0006922017397050555,0.0004584328012882447,0.001842105000407784,-0.00048094707588608145,0.0007297156897099021,-0.0004206041308167831,1.0
12,0.037443916828374835,0.053172076083824925,-0.151399345480545,-0.040018063344574445,-0.0031971739639513074,0.029187256916449293,0.029321133184031862,0.043189386470448364,-0.0006290065443305546,-0.0018726342285522958,-0.0023060139465641036,0.0002635398773977653,0.0016570624200964708,0.00030223002335125627,1.0
13,0.037399780133978267,0.05271658515480596,-0.14268903390854254,-0.04434242133538332,-0.004043057621573088,0.032418948378958874,0.029900427060715336,0.039720837404831455,-0.0019100489242558222,-0.003372453058947525,-0.00024071468073773045,-0.002110130535305955,-0.0003765067280806109,-0.0011038695322127918,1.0
14,0.037455897085363475,0.05518458987917018,-0.1486168981763468,-0.04049022415122796,-0.0033277326534459717,0.032158039847185925,0.03177938310115573,0.0408222785279427,0.0013042928575562579,-1.0062786040636173e-05,0.00047725509148009113,0.0011790574714165645,-7.993049156481153e-06,0.0018480223559127118,1.0
15,0.03707302690023401,0.055976865786399294,-0.14866117655883568,-0.03936901986858249,-0.00429484681732196,0.03390366313537314,0.03038019923533085,0.03988781806402185,0.0012362808505127641,-0.0011191673238725856,0.0011300045341653313,0.0005106049440095991,7.985192253223016e-05,0.0018812663702665517,1.0
16,0.03680908908709837,0.05267648413374369,-0.14850818747237646,-0.03929980831798512,-0.002057563033317743,0.02982068367731305,0.033573590936177636,0.04078022315637669,-0.00032453524447935737,-0.001025228035274415,-0.0003398874826074176,-0.00013615369738474074,-0.0011270552897119364,0.0005915936188683768,1.0
17,0.03604850489681212,0.05483102389841577,-0.1480366822179496,-0.04129405665686353,-0.0026576983153141697,0.031008989117967175,0.028864141629992287,0.037935152118727625,0.003020759042176564,-0.004586007287700712,-0.00023157004267566807,0.0007091240963992268,0.00043013148933021165,0.0004969541676392715,1.0
18,0.037287698028289885,0.05334511760339491,-0.15527935384190708,-0.03772999517956741,-0.003594057536461749,0.03229132095591286,0.031082951782075798,0.040705902431898484,0.0013614382542330764,-0.0012481935882285486,0.002302041641849863,0.0012181874932310362,2.6795705001822746e-05,-0.001962459694492895,1.0
19,0.03843685584065229,0.05351002099633862,-0.14749481726174538,-0.038996620525176724,-0.003584979174826365,0.030497943302071367,0.029991767990848857,0.0371185461532833,2.1655093502557532e-06,-0.0019631243489442807,0.0001598182133701749,-0.001405103780800268,-0.0008530890692434145,-0.0014547387653480503,1.0
20,0.03815440243048912,0.05440288743257866,-0.1432883774044492,-0.03549942572058405,-0.0014186642318506995,0.033068273062114434,0.03541733261569104,0.03759535210492786,0.0006010279307066417,-0.0006134836131876516,0.0004561778853947359,-0.0013596318882709646,-5.8165726952853555e-05,-0.0010773341858591522,1.0
21,0.0057880735858838505,0.028263293162680492,-0.22138461738244924,-0.07778357310808266,0.02199425012632184,-0.0019947082362822294,0.004461516985308838,0.024863110026941353,-0.0009037868553981432,-0.0022753321723846566,-1.3577927910937224e-05,-0.000751465890591995,-0.0007179090217749515,0.0006977388068227024,2.0
22,0.004586848621947598,0.02667461847486408,-0.2172621556705325,-0.07854094747363503,0.021762565336859926,-0.004874186652933615,0.0021193158405039213,0.03157885216460986,0.0004890334334446916,-0.00042703391991112303,-7.318473947049347e-05,0.000564761324698349,0.00013109047245794993,-0.00022065243527480998,2.0
23,0.00441153841012715,0.02270308034665494,-0.23044580004785936,-0.07560142663943221,0.02111411999940055,-0.0006719402707732349,0.0031314556417711293,0.026101783058224977,-0.0005965142537821974,0.00018603080823479854,0.000395731044135038,-0.0014185160144886853,-0.0011695206925721637,-0.00010335698876663239,2.0
24,0.006741844978766793,0.027245699536046507,-0.22148090960940028,-0.06952697432174398,0.02312856373406439,-0.0004139121704389072,0.0018885370429322355,0.03337774911877193,-0.00017563694974508177,1.8964996387472492e-05,8.568597108171854e-05,-0.0014539763875185319,-0.0005947090847984271,-0.0006108734163393837,2.0
25,0.005102002313206103,0.03256196157744875,-0.23279412946619438,-0.06662563487804005,0.02202965321703373,-0.0022607750682283588,0.0023459490028237277,0.023472516851392497,0.0005367767226374723,0.0002511370442165994,0.00038997058363668917,-0.000620487564523484,0.00026936012622098934,0.0004753537857079462,2.0
26,0.007325571164077297,0.02990267937156134,-0.21454149326743152,-0.07907831996207361,0.021993894978104552,-0.003074773623430598,0.003468352238061656,0.02645961911371005,-0.00025005281248804517,-0.0012477378202969491,0.003376890260650733,-0.0004132214757534416,0.0011772773795523856,0.0020818222469684514,2.0
27,0.006316381290370286,0.030863953559322102,-0.21926066084446086,-0.07771334846692574,0.021569103899073693,-0.001918116200363624,0.003531624848461664,0.02776682075096525,0.000864346175756242,0.0010575592332255333,-0.001465054823770984,0.0009053968819594476,0.0002764928165659399,0.0005633828169665271,2.0
28,0.004014749068859605,0.027871029515107306,-0.24209810805422774,-0.05543698418352637,0.020389899844122775,-0.002564942885842596,0.0020653004835328686,0.032389024794523616,6.419053197154609e-05,-0.00021287037829774582,0.0007156498206488972,0.001497411519479631,-0.0007218525556940541,0.00048572051675516685,2.0
29,0.005754123597316837,0.024798378347765316,-0.2356521911950592,-0.06621319073787973,0.021678355158768904,-0.00413990267902472,0.003355038239351873,0.028295896812329333,0.0012075076465624857,0.0005002707199499964,0.00030698089374854684,-0.0008804580074334964,2.4541424300648606e-05,-7.166360541119552e-06,2.0
30,0.007307344138982701,0.02584364244343522,-0.23164609942035733,-0.06299457757197273,0.022443194555063918,-0.004198925816340352,0.0019513633156916835,0.03570412876935509,0.0013253158470447463,-0.00010879473301056724,2.386252047833478e-06,-0.00045425220014955284,6.0291909330105005e-05,-0.0005329320275712458,2.0
31,-0.0017745481116243024,-0.028623683044112586,0.006988768918908227,0.04006827501020943,-0.007531299078285944,0.005699598911393443,0.2721112651056327,-0.053688858181366934,-0.00014214350537925988,0.001757723090025125,3.1074774336860285e-05,0.0002394641771883902,0.0011903158780817243,-0.0010597076539412566,3.0
32,-0.0019743100510143424,-0.037214841705774424,0.009139471086349606,0.04530715026833142,-0.007028081362664246,0.0040558275290964625,0.2574437882888468,-0.055848402882678394,-3.839406019154318e-05,-0.00097926170647577,-0.0011786525025868134,-0.00154668978192976,0.0012950506391190952,0.00016590789125976935,3.0
33,-0.0016016673479279566,-0.03498705714579829,0.00891243855728744,0.03928926476446341,-0.007554533875666829,0.0055953945818060374,0.2687009266642944,-0.05153252349208374,-0.0002854369083495848,0.0016349770014413988,0.0010211733878621352,0.0002027203404632401,0.00010323237862750275,-0.0005964355237845868,3.0
34,0.0007150937619034058,-0.034308414258840486,0.006365488127318058,0.03316482111705668,-0.008442905317086444,0.0034334889581735337,0.2715796493842768,-0.054649513416987185,-0.0006531510090525507,0.0031879238774192523,0.00032851804186513525,-0.001983870376606087,-0.0015920878553685612,-0.0009385462799889188,3.0
35,-2.6676970366825002e-05,-0.03283952752124778,0.007157321169242964,0.029766161327475067,-0.0063294804023988965,0.00643098946922188,0.2793646130284727,-0.051442103009949565,-0.0017220875633894837,-0.0010140814339713161,0.002612144390912953,0.0001549493138041345,-0.0006123337279439378,-7.842243811618344e-05,3.0
36,-0.0008312128877280976,-0.03126381466770815,0.006038820919425736,0.039042231097989565,-0.008247010313622063,0.005905185988953942,0.2680629558336,-0.054463301497751304,-0.0012849723798079484,0.00044621829883717106,0.000755279275746048,0.003081737740233406,-0.0010927191301138453,-0.0010158996672475398,3.0
37,-0.0005594457587269109,-0.03434169375703759,0.006495139881538138,0.03963990580659208,-0.006192821681622024,0.002996266443939365,0.27022360203373985,-0.05242736915866322,-0.00028062581288444455,-0.0005390591048405999,2.0236819043906162e-06,0.0016750373150702157,0.0011009826536245084,0.0009452879240352174,3.0
38,0.0005721833034945933,-0.03510519686192767,0.005185869381445141,0.0334397936848133,-0.005191101953078478,0.0033045944684594224,0.27392748439524883,-0.052416674447868135,-0.0016291829390666704,0.0027950316411136443,-9.65110241507041e-05,0.001054439723088841,0.002167481107348615,0.001407187013257537,3.0
39,0.0009359444235505087,-0.03176973055608523,0.007833424066562216,0.04242594652625454,-0.008216421493456695,0.0022823348429872434,0.26884694673172355,-0.05453587792120992,-0.00019127599453374556,0.002647499086714371,0.004137239250679835,0.0010654197419722089,-0.0011807059386854113,0.0012625052331840198,3.0
40,0.0002898875571005127,-0.039041716375426964,0.007939145262249155,0.03599890411413442,-0.0064512367805717695,0.005109673731436835,0.2621485280684429,-0.05710970803552659,-0.0012220712156107377,-0.00011316125922032486,0.0013101649947116544,-0.0015135545994845695,-0.0026767691646350997,-0.0027060268479500472,3.0
41,-0.004232695543945663,-0.06434200234068717,0.1860971775564466,0.02346403850990534,-0.009129857487431923,-0.050357899869633564,-0.017642437589933554,-0.052555322828919726,-0.0003128048266538392,0.0019671756004877874,0.0002744302967490669,-0.0003720088758576863,0.0016548062241900044,-0.0037233210994249777,4.0
42,-0.0037432456989528523,-0.06600208160044416,0.1833828401426245,0.025935383640830874,-0.009147970851357337,-0.054736786266750596,-0.01778314859197086,-0.04851605620340791,-0.002378843951479873,-0.002759798954485299,0.0022134293409596674,-0.0020320023440984574,0.00123406078173294,0.0011455827879729254,4.0
43,-0.0023943725612663247,-0.06422707431903424,0.18481616850364868,0.023123764902405215,-0.008188166764703308,-0.05302105994651994,-0.02237771731585125,-0.046543724681046325,0.002978455562219885,-0.002600913517244883,0.0014521949733845006,9.017659525786761e-05,0.0009864601150941406,0.0017269008311774628,4.0
44,-0.004864444494130691,-0.06628599973319681,0.18367540714650019,0.023451196594445275,-0.007703747247734248,-0.05043594536025357,-0.02412427917593953,-0.047269227797048424,-0.0008063703879841335,0.00033590735894508035,0.0009935654641072555,5.0966753434425166e-05,0.0008888287743319196,0.00509251143936456,4.0
45,-0.0018022938712057288,-0.06574560454283296,0.18138222254653363,0.025673608983229294,-0.00839877497561473,-0.053451537433643656,-0.016334065945365864,-0.05025250938506611,-0.0011704766548782507,0.0013540357897795306,0.0004512747609162189,0.0007143999319627686,-0.0018225795215598465,-0.002767334907896428,4.0
46,-0.004805652552598554,-0.06314785335746032,0.18680509513228763,0.023703879905046788,-0.007133285244682551,-0.04893575281112373,-0.02185026056655248,-0.05160732025039416,-0.0014874391522442744,-0.0019762048243795534,8.954814532365947e-05,-0.0013510827694245275,-2.1712098010765494e-05,0.00274693279194724,4.0
47,-0.0030950759903479405,-0.06358616231678599,0.18915327672437807,0.03138217183926458,-0.00874323532167102,-0.051270351408000514,-0.014946152625008088,-0.04872172411193302,-0.001727107453435298,0.0025965505613268977,0.002411173148815628,-0.002634167334161367,-0.003235757678459771,-0.0038643754335306703,4.0
48,-0.003354203500724924,-0.06523657941386454,0.18322260071750232,0.027904433472903164,-0.008251996432896105,-0.0519702857470224,-0.01831564827107599,-0.0495966146679653,0.0005045668506863995,-0.0006777463024693203,0.001821004747690904,-3.418472940004964e-05,-0.0040143170733931595,-0.00043856010568630823,4.0
49,-0.005998389176700624,-0.06499192791475307,0.18849908864208223,0.025315050057066694,-0.0071665574177613295,-0.046141290990571175,-0.015112359004263512,-0.0510124022787559,-0.0021978467198537906,-0.0015263995618651056,0.0027031651615181938,-7.758985200621352e-05,-0.0006692491692558354,0.0002845193012298595,4.0
50,-0.002833416051693167,-0.06261826432722795,0.18782916306844993,0.02372439928478018,-0.012340717473658799,-0.05196750006127948,-0.01765259743736195,-0.04894448129999629,-0.0007962803056707548,8.809085569292249e-05,0.002800697094560175,-0.0025231652716931055,-0.00015961441742026242,0.002132381798015062,4.0
51,0.00811287521191221,0.06345277903003813,-0.08942756612174414,-0.009464136192324574,0.00978267937445382,0.009830299388432294,0.18391382473730059,0.057838515026082664,0.0013944219417105688,0.00034715378662614844,-0.00047870292868662593,0.00029213368059810877,-0.001126160149934121,0.0006552912424852269,5.0
52,0.009370205427125744,0.06636988470879682,-0.08993416558070301,-0.0131465980021884,0.010236905827894981,0.008197891468468173,0.18186080997692683,0.052306779750989144,0.0003727952806477081,-0.00042787804994268397,0.0007041769779628143,0.0006489752748659847,0.000444565231204979,-0.0005117137983499797,5.0
53,0.007073032496137181,0.06129678228791349,-0.08596583527766655,-0.012379888500234918,0.007746692630592738,0.00793477723130679,0.18576818383364838,0.054529967633052165,-0.0004169801792466299,-0.00026286176038792263,0.0008436541396513073,0.0004956903012367133,0.0012871203508285898,-0.0003758547169032621,5.0
54,0.00668421835972048,0.06389044407760182,-0.09500627617951028,-0.01680548905420613,0.010224049077755697,0.006752753728776085,0.17589387269019444,0.05053256992040815,-0.0003464297564039324,-0.00100566588883901,-0.0017684225560558441,-0.0004568966705745514,0.0009771769282977344,8.32661763311935e-05,5.0
55,0.00803130456769224,0.062394251417305015,-0.08834368168049712,-0.026561303223462125,0.009511294617122362,0.005354888092055649,0.16282336384382884,0.05616530300706181,-0.0002989180181630404,-0.00020732291056806373,0.0003919546616831644,3.3004584765755446e-06,-0.000692469226650423,4.5099433754333344e-05,5.0
56,0.006077698666526395,0.06578576733911586,-0.07891626659412944,-0.027219158798836386,0.01050358357794825,0.016166061500550614,0.1844931669475891,0.05334826402042952,-0.00016566973268532725,-0.001569015111973104,0.0017488746917113842,-0.0007569277458041247,0.0008521470386204537,7.616558999685436e-05,5.0
57,0.007463468322641342,0.06445320133514208,-0.09485420630378069,-0.020089484024240236,0.010867853513862373,0.008971834889342948,0.1713893578384783,0.054419505314903444,-0.0010366256851509158,0.00054661158741413,0.0009700001285626735,0.0007418349760045208,-0.00014154867321626756,-0.000231633604032731,5.0
58,0.00828443658283615,0.06626772763189562,-0.08605704890817892,-0.020619831898521096,0.010314458382135105,0.003939288673116834,0.16361346900250145,0.060125396856864875,0.0010904628363749768,0.0001464673408419757,-9.322466344406173e-05,-0.0009744138258986968,0.0005297482096369155,0.0008828279148526731,5.0
59,0.0081087998214011,0.0636602869863748,-0.08808043681020983,-0.011169640554764527,0.007938223959512419,0.008466091559953003,0.17778648921065643,0.058650741024754684,0.0014615908844310143,0.00014655706627900476,-1.044406281150013e-06,-0.0004800887859972516,-0.0008708689944384465,-0.00031374548592422706,5.0
60,0.006323036161328148,0.06897883450086383,-0.08665811783019813,-0.013197471979180187,0.009359531528166086,0.009584920817517262,0.1780391962532074,0.0555213302427396,-0.0009688249014612778,0.0009732039906776426,-0.0002379626673267029,-0.00045114601823413857,0.00065466772905017,0.0012856067497683005,5.0
61,0.00748192631593861,-0.18337908507790066,0.09184346102126618,0.00260122262221157,-0.03702597562917567,-0.004687932737515429,-0.010635636071440564,0.0004083840772756459,-0.0011549030381551879,-0.00029419532555060907,0.0013043125991477253,0.0002493347919320431,0.0020248350433492235,0.001228251058993868,6.0
62,0.008994369851349117,-0.1908274475608861,0.0934474311968599,0.0024559276735367018,-0.03366333201608953,-0.003666996615230453,-0.0007535395580439937,-9.963279729609066e-05,0.0012332761376461741,-0.00030534446791253113,-0.00018558322317330337,-0.0002524570465740039,-0.00010717178756832164,-0.0006054357053801345,6.0
63,0.006836835819842509,-0.18008137873776828,0.09656997174138195,-0.002248381169136815,-0.03333587606134274,-0.0038749993105546437,-0.006647704802584443,-0.00013773546095211024,0.00011900089226342232,-0.0007338474948292667,0.0015095177753656232,-0.001335270124592169,0.0009125012603407927,-0.0007031468385857221,6.0
64,0.00788314531828277,-0.18152305589247197,0.0943513319323095,0.0004005936861993192,-0.03554038992650684,-0.005485653479766948,-0.00933723154578597,0.002525584757702504,-0.0020812822232068166,-0.0010721420685645502,0.0003679498928103122,0.00027833375752361157,0.001877910094109421,-9.94208161057843e-06,6.0
65,0.005836759801876123,-0.18729047288237255,0.08600003324759242,0.0002793799274948036,-0.03494957810841189,-0.002919765391578475,-0.01066233260332131,-0.00044718749796918123,0.00011801992505097488,-0.00036865979858348593,-0.002026985459115505,-0.00014433790631599716,-0.0016481361405209386,-0.0011320897169588627,6.0
66,0.010423498633913654,-0.16954412816439324,0.10951186290500933,-0.0004984674703075381,-0.03257312952228713,-0.003429488057973672,-0.004986850035091613,0.001724461721806852,0.00043437592460212704,0.00017693903266394596,-0.00023390290582268398,0.0001856987431653557,-0.0006081313755105084,-0.0006610916361120825,6.0
67,0.009601684728853883,-0.17957197975712189,0.09655034567082749,-4.532346659226099e-05,-0.03382141533902056,-0.004518562901492935,-0.00691708669819569,0.0007687673395642616,-0.0008927224427195363,-0.00021254406992363,0.0010150296097824177,-0.00014714980526345483,0.0023375790740085725,-0.0011595206995976372,6.0
68,0.01050465970268318,-0.19251943942588773,0.08633914281660315,-0.002718670939952764,-0.035274793403311244,-0.006924076169425595,-0.006489373793063061,0.0006511243618498294,0.0019085493380351717,-0.0005956609669308161,-0.0014688948304731465,0.000888825321323996,-0.0013123774482361233,-0.0008011637166759235,6.0
69,0.009061199806234693,-0.18861875889103472,0.08593320777162589,-0.0017293419341103198,-0.035720373930546334,-0.004978879642486771,-0.009159483050004339,-0.0017416346463439425,0.0004362595997365499,-0.0013545283376484763,0.0008842049140771698,0.0012738960305755894,-0.0004860887296452358,-0.0007151686734063676,6.0
70,0.009577110935891248,-0.18855975292531638,0.09230235944944201,0.002150089733332225,-0.03509887259425262,-0.003880509673490776,-0.004265816571266012,0.0002782023402947794,0.00023371682086426374,0.0013779049154667138,0.0008672811955781595,-0.0021336705850155775,-0.00033126358532091006,-0.002177267528925714,6.0
71,-0.0036469176072937955,-0.18261230169069145,0.07204404887520574,0.031318920730779895,-0.014096965329828667,-0.022066286636252912,-0.0687440826631466,-0.0026294239779392483,-0.0008690754349056853,0.0004664072015730383,-0.0007512034796796324,-0.00041813173713626037,0.0016429597779184892,-0.002392289301814333,7.0
72,-0.002451422422623811,-0.18322030712456436,0.07103045033615543,0.03436816098640987,-0.013293447772980324,-0.02445581035597278,-0.061716682589828806,-0.007753210842525375,-0.00048300270304835543,0.000156147721947843,0.0001748342872078342,0.0009246663940815581,1.5247374525754434e-05,0.0010690331491304392,7.0
73,-0.006103626518707705,-0.17292641087609126,0.07172359468807679,0.041169588167587555,-0.013676028603359081,-0.01795487045367591,-0.07206408029427977,-0.004779396845631675,-0.00010948184244009843,-0.001648830038630484,0.0003154697688472596,-0.001059960225441434,0.0014564551044612213,-0.0006224101754174324,7.0
74,-0.004663504643025858,-0.1802202897194963,0.06597357468639496,0.04085792248783791,-0.013897372648236794,-0.019329315338336487,-0.06766946744121921,-0.0056339206814608155,0.00022103359249382734,0.0007927185074997825,-3.6579004318972294e-05,-0.0013516202068051073,0.0006560651903607727,0.0011799533372874836,7.0
75,-0.002672936735513945,-0.18121446546533437,0.07268898173274257,0.035367902325531164,-0.013907332630768592,-0.023287579912170817,-0.06649646478945562,-0.0012730605080014893,-8.787631268693676e-05,0.0005961806548966384,0.0001401307942245087,0.0010399464587050055,-0.0005926831601552398,0.001080786438912736,7.0
76,-0.005380731263004973,-0.1787585686047878,0.06939596512559917,0.03214131710057095,-0.014216558945560929,-0.02109404131088777,-0.07504748616901348,-0.004809982141946048,-8.896854670399678e-05,-0.000335845382516713,0.000751440926100978,0.00027581082817622934,-0.0017007756611557483,0.001931077783506912,7.0
77,-0.006063777335442224,-0.17897250990283245,0.07294816476054604,0.024440462211180125,-0.011710753870999452,-0.02042252230948534,-0.07955656012170406,-0.005209953222012082,0.0011547934932065477,0.00011871205416466022,0.0006655862864860889,-0.0013460113480933678,-0.00044548937217382873,-0.0004709604650026424,7.0
78,-0.003174881601604131,-0.1859959101950684,0.06340989436643876,0.03132989999669194,-0.016657178199557705,-0.02392905647732899,-0.07091306973065982,-0.004866556716310818,0.000979562789143359,-0.001353050409796637,0.0005388691407189739,0.0011905783567330854,0.0007682399822194953,2.3033929529731924e-05,7.0
79,-0.0055815936690851815,-0.17720455969810203,0.078499949255386,0.03326761141439228,-0.014716735524303368,-0.01905962580208217,-0.06436046758587984,-0.008547692084053789,2.609566054570685e-05,-0.0018567185316383519,0.0003311374612898076,0.0016728270010299567,0.0008045874874756342,0.0008161034073991176,7.0
80,-0.004608632687918814,-0.17819434933875775,0.07483647961229628,0.03152736500456382,-0.013172677341818382,-0.02078080699424154,-0.07239502603289792,-0.003499434407423574,-0.001524455909721537,-0.0007072331878058361,0.0005044584984325794,-0.0004024241470543556,0.0001041882422571421,-0.0002471823955851152,7.0
81,0.009253781433760815,0.2056444742491166,-0.00446924066625985,-0.06169465675590374,-0.005216682644138134,-0.001036672168359096,0.12102141351026142,-0.004677600527339855,0.0006115065504786908,0.00021742228886794236,-0.0009680545723177263,0.00013711452452429466,-0.0008377830183437133,0.0010287919016649966,8.0
82,0.008435693010619189,0.20616348990340566,-0.0018166173525124268,-0.057218036648440045,-0.005878318028161578,-0.005596224662670423,0.11911736327986495,-0.005201187679253249,0.0009335343821679008,-0.0003904971825285271,0.00070560562864336,0.000627512053618642,-0.0006324771839955793,0.0002773024970762532,8.0
83,0.008230340109648909,0.2108831533293965,-0.004135238018676764,-0.060747733752323604,-0.005062226323589922,1.0742531247758529e-05,0.11374434632538939,-0.006775279458767004,0.0021954790599496288,0.001346208571480005,0.0003743865474668997,-0.0015617359683251033,-0.001618278624300025,0.002411888349425861,8.0
84,0.009749578996414005,0.21652956813108407,-0.0001093356722403848,-0.053249168994773215,-0.006489820053018413,-0.0017610648346709945,0.11928139481765414,-0.0036685007805332447,-0.0007220062943355425,0.0018763730207777068,0.00010113712869284973,-0.0006532152180061739,0.001619192314202194,-0.0003158821401084703,8.0
85,0.010200553376697489,0.2057194589925325,-0.006352259304988702,-0.0562534673988662,-0.0041733568843412795,-0.002234079529918303,0.12041396866239601,-0.0032464150773909256,-0.000318649213648743,0.0006322251819689327,-0.0005262708229043388,0.00037889162142384014,0.001218028449179655,0.0007645202025979101,8.0
86,0.009801014380269419,0.20846882574057898,-0.0044443246099232486,-0.056522168109394914,-0.005941800666405743,-0.005376883377706827,0.1189527032893042,-0.00515338549409039,0.0012499510348373106,0.00019761972779135643,0.001857813468836757,0.0005827819061217501,-2.236144921767191e-05,-0.0012955350783554647,8.0
87,0.009902510623824964,0.20953570245873313,-0.003508742027144558,-0.056084814825475726,-0.00606652260992774,-0.001477265575538538,0.11861211520702607,-0.0022875212427977292,-0.00017337257176425926,6.494453267955756e-05,0.0005065156418517667,-0.0014619104511416796,-0.0020193786459242677,-0.0013752251756232797,8.0
88,0.00856332720704428,0.20513751885589626,-0.003936626052801508,-0.05714375078532412,-0.00711007062727727,-0.003458946738237268,0.11782822665795681,-0.006366127329542702,0.0011441945548883732,0.00013424635097847757,0.0007529130528468463,-0.0011852677958094661,0.0015022294980249354,4.92257006890887e-06,8.0
89,0.007514862973673616,0.21498304987695704,-0.004613288147225449,-0.056283462764099644,-0.005949646774674649,-0.0030711727728941645,0.11489107685875107,-0.007648356979305475,0.0007375967877910718,0.0009583079631660181,0.001051277777655074,-0.0004263182744104515,0.0006013462794716984,0.0005645600888376629,8.0
90,0.007284455691645224,0.20599152808580212,-0.0056496702280322865,-0.05804901678191686,-0.005785156791695251,-0.003334632083965622,0.12052289330510217,-0.004936366858328393,5.979343526982375e-05,-0.001345107627515737,-0.0002884598280603282,-0.0011954244887421848,8.775436589709775e-05,-0.0014655633385109222,8.0
91,-0.006293793291544377,0.17639010937638547,-0.04429189025742592,0.07505822935832714,0.010364454045981195,0.012561050738105015,0.05687553487743302,0.01923053504970353,3.0411169194389673e-06,-4.763499998311012e-05,0.00027604351318077225,0.0011203323749259268,-0.00042625816183690363,-0.0007278379340969341,9.0
92,-0.009545004734330795,0.17746208295325894,-0.05057842673444158,0.07578565370693846,0.005008729822208621,0.015120757053886264,0.049686056062781175,0.013945724694972602,0.003305268261934744,-0.00041922871942818,-0.0001047352290474247,-0.0008591817467654318,0.003158024389142883,-0.0023299359705559143,9.0
93,-0.008368547171485543,0.17771618265958278,-0.0523010395633232,0.07706465365672553,0.006627681800457403,0.012446591183556977,0.046570422480489065,0.014951150967336842,-0.0009864273219286194,-0.0015588840643149108,0.0001610228547752734,0.002424307945336578,-0.0009218794728852058,-0.002279832395846148,9.0
94,-0.004639109966128051,0.18140443481757335,-0.04950309263182463,0.07129302519651126,0.00903512162743751,0.012408847398136798,0.05055687666809791,0.01601803397785346,0.002714914760966302,-0.0020251269980861354,0.00031654377781775744,-0.000668358041855327,0.0031176113494141835,3.881919276547994e-05,9.0
95,-0.008300830405985685,0.18271977300847925,-0.055818599135614336,0.06999442494045544,0.009323840511866925,0.007824736977733391,0.04801194761608379,0.01431971931003844,-7.648166499161919e-05,0.0013403383257897736,-0.0015429056639157137,5.516415291574789e-05,-0.0007060823752558402,0.0004972638629451344,9.0
96,-0.007833307279476127,0.17641122942171508,-0.051716941925888035,0.08262793061850386,0.007834120938490103,0.01312954757169869,0.043852844022388,0.0162406782315335,-0.0010611349075623575,6.503753427811885e-05,0.0012298203481081696,-0.00022087150197231406,0.000592757941403894,0.0015137234883276863,9.0
97,-0.008355595151697745,0.17860292654037943,-0.0542794241929914,0.07584657323046022,0.008982532919786875,0.014775659977587008,0.04416338545849178,0.016089379785034344,-0.00036490331966069925,-0.0002902215826594283,0.0014168198186615597,-0.002179212081953007,0.0014528778888731684,-0.0008592096206367455,9.0
98,-0.00638222990225383,0.17801074718526708,-0.05460641196806481,0.06801601177356142,0.005982040660563956,0.01488915045066165,0.05190235758108405,0.016846852194678623,0.0003624431294474872,0.0001913007651108974,-0.0007048232399054257,-0.0007859211892439683,-0.0014147718569501506,9.416362145150824e-05,9.0
99,-0.00828427905563266,0.1754605567227455,-0.052849596454302226,0.07969831719556147,0.00798375632622186,0.012656256110655977,0.049650158160564825,0.017077993669845238,-0.0003074462929451375,-0.0008369164961835647,0.0007573891198637203,0.0010139399355887327,-0.0016298501381460926,0.000820501888332579,9.0
100,-0.008208432345154114,0.18340892437896847,-0.0515173252529527,0.07040198696356832,0.01014571085198598,0.013149676505607244,0.04886741004628934,0.01561432337603163,-0.0003174117710163987,-0.0002468932396643024,-0.0009735621891264164,-0.0012667152816975538,0.001978889469690069,0.000298942767807146,9.0
101,-0.0022004409535675115,-0.002200440953396699,0.043365053404924865,0.18057323804011413,-0.03418488143560464,-0.005842261373309391,0.0019573982477161314,-0.0054216773283762365,-0.00024243137503498314,-0.0007768079720620805,0.0009691779209814758,-0.0005501547000445973,0.00046423383221401264,-0.002142518698720842,10.0
102,-0.0020200691065033836,-0.0020200691067674735,0.051725634499227395,0.17272655266510986,-0.034840656639088995,-0.004970062380765424,0.0020115709108700732,-0.004833817806974495,-7.370510756924447e-05,0.0020616034764081633,0.0012243826244180752,-0.0013823353686998692,0.000927371823604387,0.00023931538109501704,10.0
103,-0.002120090804124247,-0.00212009080330846,0.050462217379851196,0.17573768125480607,-0.035881475196561693,-0.003760175662415968,0.0017375243724225122,-0.004659054411088119,-0.000766789096377041,0.0001867495105990286,0.00023752792949569557,-0.0008100587916357658,0.0003016202419947902,-0.00017406828309786396,10.0
104,-0.002481311070123533,-0.0024813110710017925,0.049807754978080696,0.1754085562087306,-0.03489204328148653,-0.006655184763234287,0.00041285180642808945,-0.0024474876587957358,-0.0014095042306582672,-0.0005375817260328153,0.002379838978297966,0.00016496567538642045,0.0023405622430728032,-0.00013537299008690849,10.0
105,-0.0024450281840924354,-0.0024450281842629687,0.05232332963271634,0.17375849450779712,-0.03383249749021892,-0.003916934966429986,0.001931147259287102,-0.006559262219705661,-0.0012211483010622238,-0.0007112738133996374,6.503441526803637e-06,0.0007893966113980293,0.0001496182554431427,1.5945387990461828e-05,10.0
106,-0.002879347554443033,-0.0028793475548762404,0.04941301378013858,0.17947367363105524,-0.036117618844190104,-0.002740144449660654,6.605520981698767e-05,-0.003866835353415925,0.00013795776739652878,6.304679595122068e-05,-0.0003237053629850263,7.509797929275107e-06,0.001294028525594927,0.00033857117240834966,10.0
107,-0.0014066631998260466,-0.0014066631996441138,0.057364680240263366,0.16778340201649805,-0.03074994509784668,-0.003389061490779248,0.0035199818770506692,-0.004655688469172935,-0.0002592263891394502,0.00019835944383523837,0.0005328955063034446,0.0015968931681800535,-0.0003423943842344566,-0.0016006773475257575,10.0
108,-0.002476288797685611,-0.0024762888003697866,0.05155161607309919,0.1737673601655365,-0.034398529967819114,-0.0049222677320418665,0.0023703211157885614,-0.003738700641123636,-0.001517920300192328,0.0010697802023598285,0.0002776801612222372,-8.246206102396225e-05,0.00030105517071694936,0.00048409708241029935,10.0
109,-0.002011593574495855,-0.0020115935742773274,0.050294411012407496,0.17718172944757085,-0.032375779579244694,-0.0028757718577711337,0.0005231695385445617,-0.003174458137748547,0.0004192577177817228,0.00014835987454406402,-0.0013649145442923643,-0.00035289604469497694,-0.0008950307834163129,0.00034180079063110915,10.0
110,-0.0017689813760226546,-0.0017689813764028243,0.05346186309515811,0.1774006659376279,-0.033461374679835613,-0.004554947609234015,-0.0015129333213478625,-0.0026527343922457575,0.0005858505063819202,0.0012156567776134934,2.9176057240717893e-05,0.0016438743167370964,-0.001268016176608696,-0.0018508191390805612,10.0
111,-0.0058637396227514725,0.13421789336578213,-0.00985285671746156,0.0521167844903256,0.005234693552121916,0.014693050239288763,0.11218201382121346,-0.039257346182233456,-6.641612806062154e-05,-8.649048016562276e-05,0.0014387783592786619,-0.0015613573047573014,-0.0007006159979631769,0.0007417697318308997,11.0
112,-0.006221979572801111,0.13242285703585163,-0.008152691919992723,0.04944540975888695,0.005551789367251953,0.012752982498810678,0.11912703919084097,-0.040830885073609303,-0.0005219004177436876,0.00023437441901664764,-0.0004654448845158927,-0.0003847780860511825,-0.0015891597492222703,0.00035376051113369565,11.0
113,-0.007830224353158489,0.1323952676251523,-0.008081959572456167,0.04049076253482906,0.007457001142407495,0.016959300098308566,0.13449696381728135,-0.03167201694179147,-0.0010637265357980234,-0.0003631248821536098,0.0006630869217713794,-0.002510686388364866,0.001188751377651028,0.0006166292741879057,11.0
114,-0.006071863291305122,0.12939926406151242,-0.013752442839907437,0.03670352446581328,0.005735602918858383,0.013509826023538842,0.14406436803894165,-0.02681511894900879,0.002196080516719351,-0.0006854519364612802,-3.2146315830626524e-05,-0.0002019778284497695,-0.001394517146991893,0.0003231868539854444,11.0
115,-0.005538685867758356,0.1327767492933365,-0.007428714880703897,0.03925294632915238,0.006432897493729261,0.01736135554004239,0.13015143379406038,-0.03701276157582924,-0.0005335091759010265,0.0017032480499969281,0.0008303879575242674,-0.0025123022517119457,0.0010611644117927575,-0.0014825669778784582,11.0
116,-0.0067470020872181105,0.12866057918757506,-0.011071491173097178,0.051987880422718284,0.01054799611631348,0.0161925392486034,0.12708534555311515,-0.03089739909162281,-0.0015475897240738168,0.0006242389109002038,0.002237638685104477,-0.00041799697573190696,-0.00016704043745682188,0.000396319288447767,11.0
117,-0.006986180320175227,0.1292189515047667,-0.010015618302885092,0.06684665985648608,0.00817429593465562,0.01344648619932365,0.10716133775056948,-0.036251820149135056,-0.001799023806674239,-0.0007541481804663095,-0.000475635197275767,-0.000597340595943591,0.0007465894817107625,-0.0017742737641590423,11.0
118,-0.0076213546793074466,0.13199847391649966,-0.0115726234262011,0.06456393646479937,0.009535279240097998,0.014931048359921923,0.10891628301397221,-0.0341991730590377,-0.0004917178579908792,-0.0012098091870100726,0.0006684445707570273,0.000365211877470658,-0.0008126597568894951,-6.700167881805444e-05,11.0
119,-0.00389281906057338,0.12795276108743464,-0.012029878171629824,0.04042494361401447,0.007916043211752969,0.012512794172345056,0.1356418988064048,-0.03208058605990584,-0.001540198288724842,0.0006896328459110364,0.0013875674706503244,8.287907892962104e-05,0.0010058071095788172,0.0003164210208627486,11.0
120,-0.0062146431540965694,0.13599581322452928,-0.008090489228125428,0.052147528417238714,0.007749224539095588,0.016182902757090396,0.12535006644850327,-0.027429484788622827,0.0011914317311218987,-0.0008346362703070269,0.0002591425477404341,0.0009171734593621029,0.002829200242660342,-0.000992353669034292,11.0
121,0.013403713496469858,0.045486093013000314,-0.01767040385161854,-0.22013737041931827,0.013500943682847181,0.016981940994260994,-0.009380071109097741,0.022087580485559415,-0.0003860520971557217,0.0005407685465105523,-0.00038716396966571756,-0.001475831059961312,0.00039941981952204103,0.0016048714597966462,12.0
122,0.010423749218317171,0.04924462106435009,-0.014111590312721934,-0.22540617080876885,0.009737944069862751,0.016070228154569544,-0.008789046470047659,0.018686024578036375,0.00046684250600234736,-0.0008896512252244731,-0.0007841852333071351,-0.0013402297280112661,-0.00010991669061297048,-8.404548722001378e-05,12.0
123,0.011516986063981355,0.04931251773266715,-0.015690326115427592,-0.21963992513893885,0.012950449586242615,0.017173889049082975,-0.009726105045363446,0.018850460934974948,0.001045321793439262,0.0021327831860615083,0.0015938920113009382,0.0004317197326261267,0.0007128156600077009,0.0019631298694679543,12.0
124,0.013215449838038329,0.039690717276111724,-0.017923557067542693,-0.2315747283436562,0.012557323629039791,0.012499579057638039,-0.007858863107680228,0.01927444518542124,-0.0006743016617729408,-0.000487705801335202,-0.0004908526526080799,-0.00042654598468218374,0.00010960506815282418,-0.0010169929117137707,12.0
125,0.011905983631271187,0.04916815839584348,-0.016482685432270473,-0.21821977891874536,0.014071829326736687,0.014984313852924518,-0.012054850783730907,0.020900499006283088,-0.00018686607471615475,0.0002273971976022714,0.0020752467156327985,0.0005522195597467054,-0.0005212883379949111,0.00022229051603369,12.0
126,0.012569798459472195,0.05013565481457183,-0.01630099313199703,-0.21867831464460272,0.014836590806419456,0.01190128107351365,-0.006986093496864817,0.025262693132220643,-0.0006007617124597567,0.0005280171920606198,0.0017115676226650519,0.0010153797926222886,0.0016924508053550878,-0.0009503818866552254,12.0
127,0.013913726051692606,0.04668317818294996,-0.013866072048893409,-0.21790631097142554,0.016000341033717957,0.02015652808651949,-0.005464488444284064,0.024386593484163277,-0.0009959212416601004,-0.0007433191602134059,0.0016408035386364934,0.000678859215993786,-0.001203347563614743,-0.0010499429277236352,12.0
128,0.012723713319378521,0.04886974284696111,-0.01780645609536372,-0.20790241599750778,0.013244733132067615,0.015169435863058306,-0.010082403827510151,0.028574584921044116,-0.0005044051088043664,0.00044568504162168936,-4.062488352054488e-05,0.0018360596839395525,-0.0008307372567437292,-0.00043678502254058607,12.0
129,0.012263742313321658,0.049979845367351006,-0.019087983535606444,-0.2176836386374413,0.013969722585148493,0.012787500615342215,-0.01079272802612179,0.022485525278171443,-8.086285785950824e-05,-0.0007723494441136287,-0.0001746669970540174,0.0026366745581964585,0.0024787902674517416,-0.0026616967511134387,12.0
130,0.01208099494133101,0.0381485980538662,-0.018127676676103332,-0.2270056152372192,0.01351166599825647,0.018795905004773496,-0.00756242914043897,0.023489427528730497,-0.000865462850290611,-0.0007331419458479273,0.000858125443684628,0.0013393115471261269,0.0024243827576108075,-0.002298413830761308,12.0
131,0.01719904195061859,0.276268450679744,0.002762563686559166,-0.007495733236789251,0.028892641214993537,-0.010220264112414383,0.009193251352318216,0.008998972301227507,-0.0017264385177784968,0.00020154297542681465,-0.0015242726451307998,-0.0008576192816364473,0.00040810811628232954,0.0018116373535000015,13.0
132,0.017863228998993272,0.27333285415967506,0.006513025797143858,-0.007575867412456463,0.029800312429258465,-0.00986306800257098,0.011447085390941764,0.007555217188837821,0.00014369702272969912,0.0007852037927805241,0.0013521679217673428,0.0008612127067161206,0.0003737562355539981,-0.00015657014897309907,13.0
133,0.020160030441174603,0.27990812744933197,0.003283410685699187,-0.010612806904716752,0.0348432826485892,-0.005702884621565757,0.014052018618425782,0.008938603428050931,-0.001609141363656212,-0.0005275302897695047,-0.00021742921215219216,-0.0006107536765024098,-0.0010798214699663858,0.0019221219858065772,13.0
134,0.017608531229598462,0.2738929966327129,0.002385475570111928,-0.010739074883241601,0.03255863684898334,-0.006964101910534047,0.00791771817106455,0.008976204208621231,-0.00019391965995391655,0.0023158081077344892,0.0009369307924840183,-0.0003159006379185635,-0.0013322544552759458,0.001955543198737563,13.0
135,0.020309193363512112,0.2726534119297756,0.003566988812277377,-0.008711308246181855,0.035766981676488695,-0.006420237024879802,0.006398572993579921,0.009506157735430265,-0.0015541255860470446,3.9574497974849023e-05,-0.001244443382105676,0.00014100384405618717,-0.0005735461236231369,0.0008677205813122856,13.0
136,0.02018101103212389,0.27989448498368746,0.004086511957795355,-0.00763853572492569,0.03204478256326977,-0.009165847200720225,0.014164201817487619,0.010449364469388142,7.84050075913333e-05,-0.0002497297169038737,0.00026978215829472204,0.00013042769205682858,-6.3603473418844045e-06,0.0011216078792557157,13.0
137,0.017230886556323145,0.27234820452122066,0.007743849238974671,-0.009240750386853838,0.03239483711948659,-0.009919444701422898,0.009493264113384036,0.009881230641788296,-0.0010142854932511675,-0.002205157980818793,0.002276761410001871,-9.919035209182143e-05,0.0007997107490339645,0.0005986307833337486,13.0
138,0.019429094684564573,0.2775946598906197,0.003487574193945348,-0.00837630648628779,0.03278926536746675,-0.009254076424591489,0.014267830193234498,0.012141262962889181,-0.0010601041251026555,0.0005360824147732412,-0.0006801554914098314,-0.0011272027416703691,-0.0015664562555754412,-0.0010766561174059782,13.0
139,0.019969624522420414,0.26896191797919333,0.003073142789606926,-0.013321615210602449,0.03394648236429772,-0.009537204344266708,0.006982431021719561,0.010362654670486561,0.0008395166159572503,-0.00036785375849237727,0.0003497763972269431,0.0010301449655885358,-0.0008910941288156075,0.0007439930726249553,13.0
140,0.02142285660986486,0.2792691693507277,0.0055473666610290845,-0.0069021235910835185,0.03318234027521855,-0.008224460447174462,0.011405796125195924,0.011649254252085276,-0.0008331670129410688,0.00042365067014278986,-0.0005854697995910038,0.002249796448040638,-0.00030977094471860126,0.0005973074844144569,13.0
141,-0.004708796918670562,0.003626816954071084,-0.08483356980029678,-0.2839789304778363,0.001127768997886337,0.005581513461595584,0.00332511262884464,0.0337971093782262,0.00026824961734394953,0.000446864616528481,0.00017236309342249007,0.00015674268404655236,0.0002757056082558262,-0.0004501726874816703,14.0
142,-0.0031768454810281845,-0.002847253169513078,-0.0715467900040314,-0.3030122015543361,0.000793452252219982,0.005122815136357962,0.0026699178793755498,0.03695049528882116,0.00024382254922378398,-0.0008124958415079394,0.0001310746607734729,-0.00018159398375660699,-0.00033763841703444725,0.0004165328439270901,14.0
143,-0.004699983817786368,0.0007904788907510851,-0.06098861925295641,-0.3145263878057911,0.0013226121602520403,0.005234697577854731,0.0004110623398936496,0.03537395538706796,-5.979547823349008e-05,-7.131059583909857e-05,0.0003107931491374411,-0.00020557650660839246,0.00048049390216985284,0.0006648782829250357,14.0
144,-0.0042842239809393725,-0.0035059834390180748,-0.07836234743640781,-0.2961413052265463,0.0005478839517687913,0.004935549360313664,0.004394552215696967,0.035571679359248334,-0.0006592190702402872,0.00011499586570669247,0.00019698185483853483,0.00026969542165253393,0.000480283680487864,-0.0009312592895874323,14.0
145,-0.004699601445258937,-0.0018127264523450256,-0.07781245720591079,-0.2996189957792563,0.00140350756159551,0.004764890601469147,0.0006071848263918778,0.03556090182420342,-0.00021713433451149057,-9.390759553686451e-05,0.00017149282090977256,0.0002000829878125053,-0.0009051769145362399,-0.0003086989201003808,14.0
146,-0.004754433341283272,-0.0005379588665724935,-0.0673525604381576,-0.30216092363290803,0.001843225659142959,0.005157503669179072,0.0017455715362094712,0.03796076659912869,-1.4456338518904328e-05,0.0005636732436837288,-0.0006256331261236697,-0.00030345835553455107,5.4155597123757984e-05,0.0004639978033985142,14.0
147,-0.003574953942727187,0.0023469870624406586,-0.06992472026253148,-0.29572045970896027,0.0013262010717216934,0.005280445190981716,0.005017155347951235,0.03660223492777648,0.00023656655887905175,0.00053005548519661,-8.978722090764827e-05,0.0006387680968654138,-0.0001919853661804203,0.0005116098525291891,14.0
148,-0.0038233822710012806,-0.0005775653854009359,-0.07106902531984276,-0.2982659273384064,0.00032802121652343764,0.005584756432568441,0.004230106203462516,0.037976383659535436,-0.000758074449211664,-0.0005057091582939873,-0.0005936342408276667,0.00031688484201333424,-0.0001867663525155468,0.0002943402720237292,14.0
149,-0.004114561407183896,-0.00032692146046345907,-0.07519901854446068,-0.290002481471232,0.0009287184960547695,0.00583207285739668,0.0046561976396499,0.04066170225973776,0.001029586362344918,-0.0006263761920299453,-0.00031465169605771314,0.000143439379470331,-0.0002615002705138018,-0.0007813553156477139,14.0
150,-0.003869365567702677,-0.0052396391913408615,-0.068432989471914,-0.3082429395750111,0.0016970898063616564,0.005231858125444841,-0.00011514583666373318,0.03859167943910815,-0.000293212408723838,-0.00024188050175886176,-0.00032094702481455094,-0.0005372201972903241,-7.935001319936241e-05,-0.0005351160926797975,14.0
151,-0.0050877505599723006,0.14105496828169053,0.0037273601992494484,0.20108465619276777,0.01719576677672524,0.005828779679874502,-0.0034994213888139758,0.04560068637821096,-0.00021257777280625406,0.0008408978902225389,-0.0012778678488701372,-0.0010234239162628489,0.00041547848732324913,0.0007394657165322859,15.0
152,-0.004392904384121358,0.1427751974508767,0.0031376007449957413,0.1949503791983427,0.020005067634143052,0.00615226074863041,-0.0030370399435415557,0.04622671350254868,0.00045084395162773585,-0.0003610213651885752,-0.0008859446767122038,0.0004603218495308695,-0.0005044671876652892,5.3340159178006064e-05,15.0
153,-0.00435256525537536,0.14125172931660254,0.004727060618557749,0.1959625851984817,0.018810812006627157,0.0023825609446313963,-0.0019707875877722795,0.047604305127111377,9.006384755700904e-05,-0.00038361677979704175,-0.001171756220850574,-0.0017532382805896674,-0.00033908912926002623,-0.0007119265368953213,15.0
154,-0.003929571157346777,0.13279645897362188,0.003124404854134188,0.19941207948803272,0.019267332331717388,0.005411563583708228,-0.004329432127070126,0.04986284100670409,-0.001254504740461251,0.0008665776863815819,0.0006898020508300201,0.00035641486696645587,0.0006565680323698692,-8.145583902901815e-05,15.0
155,-0.006473590750077877,0.14124242902767753,0.0022878031971246614,0.19743017815658492,0.019823318859901233,0.00563904154149946,-0.0028008624289406585,0.0447419741357726,-7.313845123283943e-05,-6.551586024569643e-05,-0.0012747550322702238,0.0011839873834876744,-0.0010351813899065032,-0.0010522941644890394,15.0
156,-0.005687707418783981,0.13773375511504019,0.001972099137857073,0.20001575750081177,0.016449829606916946,0.0036815933790944836,-0.003340871036883422,0.048970790763370034,-0.001018348659472772,0.00035630614381237545,0.0010759761174411115,-0.0006682022755680547,-0.00010007034311694646,-1.8117803930581078e-07,15.0
157,-0.005565624559042079,0.13355015853512517,0.0028306997906069925,0.2042642666405984,0.0173177824018031,0.004752533441636838,-0.003950517302289908,0.049864888026929725,0.0008056963718264234,-0.000500481668293853,0.0023238566556677085,-0.0005201968417629185,0.0013686707684121095,0.00021383616819287962,15.0
158,-0.003958673408709375,0.1333466828925914,0.004054681541130233,0.1970569227736323,0.01996643160606857,0.006046600048090684,-0.0019999926481976417,0.055673899230610224,-0.0008075776254960312,0.0013162647299498577,-0.0004277067723863343,-0.0006982369002820708,0.0004013351612254126,0.00036183370150846676,15.0
159,-0.0049697490676808296,0.1522486223979468,0.0020349300827235107,0.19101981119478814,0.018261612906304934,0.0061152607661587996,-0.00048367060798506416,0.0454155450775036,8.350526126739137e-05,0.0014482116883272275,0.0005083364320938466,-0.0013064788923944134,-0.00018487037905100763,-0.0018420521257015874,15.0
160,-0.005199725503126399,0.13310853234877612,0.0011395250374400265,0.2029305914086642,0.01839698630064895,0.004342358738769862,-0.003501460001881634,0.050710373608678326,0.0002020809961293467,-0.0007655394791485989,0.0008565781316156698,0.0016978889205880377,0.0003373895213929037,-1.61400014398796e-05,15.0
161,-0.002743448022899563,-0.04256363132248557,0.0167347745128922,0.06733918615899433,-0.04181372209231487,-0.02635553012492681,-0.2178117653864098,-0.009364960339945813,-0.0015722266111381981,-0.002019944963211039,-0.0009024907419389632,0.0013015885236386676,0.0030279701767948358,-0.0010336705166757788,16.0
162,-0.0026202500007244042,-0.04241529329668446,0.01738582362472817,0.0742580794690116,-0.0454892747457912,-0.027548885409645344,-0.20933033176842245,-0.0033765526234031196,-0.0006355716563753435,-0.0022957296902380714,-0.0007331050322541252,-0.0009903679569773572,-0.0003442034270171356,0.0015512057248173797,16.0
163,-0.0046558653865566065,-0.04281279302230383,0.014845995961813201,0.06426824317792387,-0.043782109416206645,-0.02242735768447457,-0.21573389301467158,-0.01585925629297381,-0.0025285502210504697,0.0007926231672459894,0.00044805189442173783,-0.0017437756156807422,0.0023265228257745543,0.0009337320286134221,16.0
164,-0.002271131092242256,-0.04336524448531754,0.0173329831193758,0.06813362292347665,-0.04500525738798435,-0.026372798123930872,-0.21604697088074257,-0.006372657711068322,-0.00038467938321620277,0.00015235006889684414,-0.0018947958344889791,-0.0032746330647504336,-0.0025055737993234786,0.00024829527039285263,16.0
165,-0.0008277208140629486,-0.044193743549547325,0.017823930778470113,0.06380637976361712,-0.04378453046709681,-0.025706162387540567,-0.23144879735263468,6.628586613103576e-05,-0.0017067051511149784,0.0014266505152380753,-0.000910338649538962,-0.0020865536746645613,0.0032212562038026657,-0.002641065050674871,16.0
166,-0.0021853762803730067,-0.043217781633168015,0.016333063628685796,0.06772681826342733,-0.04004064445410141,-0.023170053526192114,-0.23616773156428295,0.006643965262126449,-0.00030140495432351465,-0.00038761295148870886,-0.0012223190624860098,0.0009871451644208017,-0.0016728289572778068,0.0004916487568758352,16.0
167,-0.0032944725363368284,-0.04307323381877063,0.017684258535632713,0.07182992280154876,-0.04300686845514927,-0.027798646993449444,-0.21201030645311916,-0.0077722887326628284,-0.0009520537571661504,0.0006547117066164812,-0.0008136880616681071,-0.0015477369980077464,0.0007829875122676184,0.0009029889425721623,16.0
168,-0.0014291975168847122,-0.0411155733113757,0.016037360170212695,0.07027920821117388,-0.04249475729261066,-0.023885234310921977,-0.22002660966353227,-0.0055566078805064385,0.0009239534253022774,0.00046549353424598635,-0.00030111091649696116,-0.0012029235185570244,-0.00047904290227201003,-0.0031107733181446823,16.0
169,-0.0023495914659859124,-0.042439184045047935,0.0182858892892379,0.0656744272497399,-0.04283049227365209,-0.024977324848087266,-0.22748453528644946,-0.003208299814987395,-0.003672821905943406,0.0029251234619670765,0.0028492319233234024,0.001911144419905347,-0.0009870301003023505,-0.0013108564440691012,16.0
170,-0.0029158345396827646,-0.04330621789647108,0.015787835229976604,0.06303622118936654,-0.04303842233892566,-0.023863715862366505,-0.22044230662975683,-0.01042518409415104,-0.0017105597232861683,0.002063781432215183,0.0005882783970749503,-0.0006900960607298027,0.0025330683998149015,-0.00236535090603568,16.0
171,-0.0033494680560562234,-0.0445294699143094,0.017959827530367487,0.05673112862847722,-0.04326972704465309,-0.02502770356888175,-0.23440809434548313,-0.0015007113760594913,0.0007131112094301075,0.0002099399638886321,-0.0012948375391204027,-0.001149321745433943,-0.002647569738470361,0.00012316880776023505,17.0
172,-0.004700197835726254,-0.04156974737869708,0.017537352030618597,0.07041284470481124,-0.04340181429600566,-0.022646087142179486,-0.2050221733889768,-0.021608504230041337,-0.0011495294164372823,0.00048620340201535476,-0.0019712400534168156,-0.0029544705012333273,-0.0018799271872678843,0.0011339126162343033,17.0
173,-0.003194713276442934,-0.04230918466099812,0.020335882211257348,0.06574290832292104,-0.04452494397184048,-0.025873153102117442,-0.2258424346342261,-0.003473358202567053,-0.0004636026107204725,0.0007928841891250774,0.00018915524160267421,-0.00027049621070987317,-0.003006478178907502,0.000641426701830115,17.0
174,-0.003740773009024485,-0.04450431064982374,0.016635619431246806,0.07040553555263344,-0.042419676367448006,-0.02376244773631543,-0.2271840906561535,0.002622032790982721,-0.001120329444192744,-0.002761096839942655,-0.002847142203241489,0.001456747502589262,0.0012682281791183405,0.001584801530821904,17.0
175,-0.0020263525446779732,-0.04079335892579595,0.017863068606519355,0.06838493100963956,-0.042583587588189656,-0.024949023670739992,-0.22387620752531937,-0.005649641643729223,-0.0012579642685937318,-0.002111878430292252,-0.0008380506963417156,0.0008188557750777302,-0.0006674490637212537,0.001169749823753965,17.0
176,-0.0030469349121829406,-0.042013721909819335,0.015397632855887782,0.06593445852773268,-0.04093475018578791,-0.02918468525362525,-0.22193417582312014,-0.0018032390522898366,0.0009294149030255786,-0.00031771325611636755,-0.0037158639785225753,-0.003772416680091758,-0.0006876200461394229,0.0007244072570674937,17.0
177,-0.0014207911542708012,-0.043423891113311366,0.01526149174058478,0.07038013569604756,-0.044187154072727226,-0.026002839387023472,-0.21507074973133888,-0.005268617379555525,0.001521930657384937,-2.163063045620189e-05,0.003098968957777541,0.0029793294871967766,7.693877056090866e-05,0.0007839390469403173,17.0
178,-0.001965093205535139,-0.043652920129486524,0.018094432023915526,0.06626557441067935,-0.04697402653715018,-0.0241070690891761,-0.2201871346013282,-0.006084631857534373,-0.0006161792323698206,-0.0003723203466163539,0.0019215684267819765,0.000898982530875481,4.747494988106593e-05,-0.0015235353927900374,17.0
179,-0.0026293679144651742,-0.04266523149042793,0.016910570272968415,0.06442995552555368,-0.042192555204165975,-0.023243120228502702,-0.2200003430962976,-0.013100403241835304,0.0023472746575973584,-0.0036528643286763626,-0.00037715839724277426,0.0008740821002614945,0.0009840741159152535,-0.0005398636241076948,17.0
180,-0.002633108412986979,-0.043780764029691666,0.01968204153106792,0.0714327208793582,-0.044153248827177534,-0.024214866599238345,-0.22777043082859194,0.0008028237624748145,0.0012960648922737724,0.003248231420504454,-0.001967026778670262,-0.003231677136685364,0.00046956743125243887,-0.0010856104959033445,17.0
181,0.013550573554847206,-0.05267894636018235,0.05710692711043556,0.08673657951733896,-0.042227016092131704,-0.00019573585175559894,-0.07768885233419309,0.02003114926552562,-0.0005183739895608291,0.0017273560684968282,0.0015787914889368137,-0.0012085707045696931,-0.0009407500635800042,0.00021557169957881893,18.0
182,0.013221582473933673,-0.05204698917850809,0.05704432122837745,0.08557578672794329,-0.04128923325432173,0.0006455883433137562,-0.07579862729131977,0.02635278160026233,0.002133155981947426,0.0009438698963443071,-0.0008728429102835539,0.0024746483399951044,-0.0021401696510343535,-0.0006511498972719582,18.0
183,0.013495030273723832,-0.052295993969533536,0.06257543796879828,0.09465172983563076,-0.04252288087231373,0.0031116786357196892,-0.07112933723262405,0.017121084544657782,-0.0004542808726432631,-0.0008373854432441845,0.001240432024566341,-0.0017873486314346943,0.000830727883919564,0.0005214968431322041,18.0
184,0.013790357267226053,-0.05268189205965727,0.05145076902540096,0.09181259535626998,-0.04104053845523511,0.001550364205312296,-0.07510636465639561,0.026162005146076365,-0.0012639403131215277,-0.00017542088959616526,0.0008264847392067523,-0.00040073668681571916,0.00027795002494174486,0.0021162725143253273,18.0
185,0.01216489644938943,-0.05306062513640679,0.059160488645697416,0.09454115596798957,-0.040797972391141954,0.00243716373980132,-0.06835140438925982,0.021553622651305664,3.4270516343520216e-05,-0.0007683079843224463,-0.0019053219810076466,0.0007187253848894486,0.0020676343032609065,0.0006765403929410701,18.0
186,0.011766940325599308,-0.05580634604131336,0.04090253901842639,0.09489554624082246,-0.038248255118702064,0.002174950362860921,-0.08015553379670254,0.027129164037077876,0.0010206742314031745,0.00048135135035589645,-0.0010082028099766562,0.002690213569188328,7.6904819282194e-05,-0.0005721401684317214,18.0
187,0.013135881890529628,-0.04957641148776391,0.05194863831774296,0.0929576684019587,-0.042194652582690395,0.001295253887096195,-0.0755644853803888,0.027149723246874955,0.0013052682112014787,-0.0007234602175398382,0.002039093061407411,-0.0007851992532093972,-0.0002593695067128999,0.00021232813836125137,18.0
188,0.013498402150876347,-0.049079970391088225,0.057029887166295916,0.08405672280960212,-0.04427926390040686,0.002085854917534984,-0.08085709276644189,0.022716493456891855,-0.0003756337494992907,-0.0009549007352684507,0.004151313811836693,0.0014592234003959884,0.0006391754985960419,-0.0004745442691017683,18.0
189,0.012005316048539463,-0.05240491719846842,0.05788949367490534,0.07823544826987082,-0.040094055234614366,0.003577349088055479,-0.07930998363513103,0.0297995463246713,-0.00035988139882991695,-0.0007504296397687074,-0.00021727316399492154,0.0009941598133719376,-0.0013040551722323028,-0.0006822932550084877,18.0
190,0.013017181092055468,-0.05503365953628518,0.042955507982600595,0.09841321435354071,-0.04131546460472933,0.0005669368587502775,-0.07524874922552062,0.0247818164883369,0.0009592136946959498,0.0015562596155298592,0.0014145990603649443,0.00011449149342258029,0.0009584902939356526,-0.00027433906096149157,18.0
191,0.016641963009491785,0.10167126947349496,-0.058064798084251655,-0.13081742959588027,0.005175537884248757,-0.010996451940926308,0.053763716667330236,0.0029583395252673512,0.0002405261744516595,0.0005067670174779919,-0.0015638642170200077,-0.001439966685385505,0.0016622199241275964,-0.002820936551155808,19.0
192,0.014133820925721933,0.09957523686822944,-0.05348266399217022,-0.1313237027619897,0.007290011688204011,-0.009711228167635401,0.05343044604006524,0.005908360281430356,0.00025309920012364515,0.001836244001076339,-0.0022837322375438376,-0.003149740792874451,0.0014976185243369229,0.00034933358436490007,19.0
193,0.013961648325294918,0.10338534435927949,-0.06229738366575216,-0.12239398953707063,0.0058359150283595635,-0.016946052157746982,0.05185009182994585,0.0014294520547890159,-0.00047778961945471056,-0.00028843896580491994,0.001456511771178906,0.0012021135264453002,0.0010994657211297293,-0.0008388791759979184,19.0
194,0.016326119871573702,0.10341711088381934,-0.056342724582471165,-0.12827510047351465,0.0044953616231110305,-0.009205763617491333,0.053571361361910624,0.0030824824454727326,0.0021703149478041013,-0.00013299637895123075,-0.000912840488852742,-0.0010765592721088183,-0.0004026739816828481,0.0011303271020468935,19.0
195,0.01416650779115153,0.10714002312243633,-0.06657968235167572,-0.11317744911367963,0.008224209667095413,-0.010625954137326745,0.05078166974993557,0.005652580551081569,0.002187600823164654,0.0011256246967918393,0.0028648989192644942,0.0009015067325137572,0.0024289539998482972,-0.0008451345983531993,19.0
196,0.01503645021322768,0.1030041919961796,-0.05681419052028531,-0.13190405116008422,0.006882052210275896,-0.005652371559837502,0.05441872682887142,0.004591795525742663,0.00043318302864170843,-0.0015278759093287136,0.0012868368875324958,0.0006651676773387958,-0.0007976863320620781,0.0020395308592668525,19.0
197,0.016343484493057815,0.10237387639188261,-0.061880774770933414,-0.12632582769317002,-0.0021661124601572456,-0.0080550915879698,0.05437207759892819,0.0029568272028225344,-0.0009188170680053841,0.002754505532287433,0.0012113815299925339,0.0007706711767047632,0.00017986299817197003,0.00017650215937161441,19.0
198,0.01805779036037552,0.09695186502893084,-0.05454252085692388,-0.13550055646014766,0.0016026384529174216,-0.010066485810823134,0.05299821213287811,0.0060031654552061475,-0.0007723050193877752,-0.0004363380705060832,-0.0013471136399015144,0.002777229046246062,0.0015226117422747934,0.0007469897762690132,19.0
199,0.014725060429561308,0.10575456939908631,-0.0657604305640475,-0.11872088241521779,0.005167387448247102,-0.007197671107487386,0.05370932887516345,0.00729419132598254,-0.0006603130610225204,0.0015773545790594592,-0.0011309475689134894,-0.002953082026131234,-0.002356437179463638,0.0030862800576457595,19.0
200,0.014115092847180365,0.10274254791901115,-0.06289547597481368,-0.1295230694855999,0.004339331247603446,-0.006283459765310552,0.05690927291811343,-0.002161755614212707,-0.0010035815796694057,0.0008273267232197012,-0.0013513104492736511,-0.00045622387544672565,-0.00026340517739092446,0.001238902151899251,19.0
201,-0.02132753445020173,-0.14051508551160888,-0.021125909554693685,0.09150244053519148,-0.026278041621022263,-0.040133317372499776,0.006167866353808435,-0.00126569465404451,-0.0014622762247836398,-0.001701510876665215,-0.0017011960144755875,0.0031498910439116644,-0.003188995284112316,-0.000878666443214479,20.0
202,-0.022199446594535165,-0.14264561624820463,-0.016493813440016554,0.07803482626105675,-0.025040174054906137,-0.039664811104311345,0.02195782878457375,-0.00356560389334611,4.3726476487156805e-06,-0.003994931680011861,-0.0023551192879727304,-0.0008042235308154028,0.0046737159466128985,0.0005255116802949921,20.0
203,-0.022621081123863202,-0.14542525479397297,-0.017143030762455828,0.06954750458800822,-0.02456082729033895,-0.03672109343087961,0.029268162988318188,0.00022702576484226578,-0.0010656168000123436,-0.0014131807371354878,0.0002935670211606493,0.0018517235705918984,-0.0009416318606527103,-0.003523745450543984,20.0
204,-0.02277218355318848,-0.13769298832521892,-0.025972792552129198,0.11085297812064214,-0.024105502878999173,-0.03861157517499097,-0.011724249758071329,-0.005066505484010398,-0.0022634508614266,-0.0009294688128322843,-0.0006284243960903945,-0.0005052603468577076,0.001649129025760463,0.0027845305227880792,20.0
205,-0.020255208023467947,-0.14379432452326046,-0.019478852936312813,0.07407191232707479,-0.02422371303196859,-0.035957169875092745,0.029764239263315076,-0.0029791995599615993,-0.003311919349166984,-0.0019423933687195871,0.0033060857493515104,0.0023594088254287066,0.00011709953826411458,-0.0005075577380060943,20.0
206,-0.02270852798109522,-0.14031697135655782,-0.019849593215095128,0.09464538451915928,-0.023995023750022874,-0.037681406374922614,0.004570940652021039,-0.002097771702865228,0.0003002767303459907,-7.675638882219405e-05,-0.0004181918348253201,-0.0004866689482113067,0.00044847108023548306,-0.00048125001319207484,20.0
207,-0.02320756314959844,-0.1398678050101603,-0.019953316237480676,0.0873972601600208,-0.02456288635879103,-0.038736429661173834,0.008713493986651354,0.00011056929671358905,-0.0004780712631667762,-0.0014219376147650545,4.321071707480388e-06,0.001151412302267586,0.0007760042971986282,-0.002984019871057422,20.0
208,-0.02340315315262698,-0.14417881220989498,-0.013927591662039072,0.07016735895430072,-0.023804832551784914,-0.040445735272114876,0.031205170166928194,-0.00014780023062116348,0.00013692921894120096,-0.0028623287632547675,-0.00035135321175787094,-0.002948429983102091,-0.0012983283085043257,-0.0027172314836295982,20.0
209,-0.021059672817107522,-0.14468430868035828,-0.010913142533973049,0.06610936963135125,-0.02495046700085142,-0.03822118780215882,0.03936650581082177,-0.0009516694036901392,-0.001334883939266116,0.00031800018625599254,-0.002005314765004518,0.003122080615636203,0.0005814448913459426,0.0021140179222994423,20.0
210,-0.020986535122081693,-0.15146802527919592,-0.018973473954046957,0.07587434832510173,-0.02600104171255004,-0.04112324619374504,0.009325456016474689,0.001084762078659852,-0.0006220222884349671,-0.0022751217307037824,0.0037915117454404906,0.0018039487940658633,0.001588049860410538,-0.003308438090689141,20.0
211,-0.007975349471042406,0.2133098095992842,0.005042514888035233,0.006097654729248275,0.027814026521757282,0.003235237762252903,0.10931910102473,-0.01903906190413922,0.0006610294666620796,-0.0006494837763736231,0.00025730335144147663,0.0002701138833206557,0.0012802568376549426,0.0003678565531868214,21.0
212,-0.010283432110777408,0.2163100575484713,0.0038821781363152664,0.005501455790036417,0.024085436422825707,0.002735247833875168,0.10890375339886682,-0.02208570753092329,0.0009858602894319672,-0.00010152332928474465,9.71863356109251e-05,-0.00031869154988539044,-0.001153151125015869,0.0005562182958790118,21.0
213,-0.012604247682400281,0.20825890099566807,0.0005854229554512482,0.004167830562191687,0.025163372174930997,0.0020857521551107057,0.11022355742805214,-0.025724769052991214,0.0015971457377520406,-0.0008523347923499533,-4.7049513316989525e-06,-0.0018753689887301692,-0.0009334825395655296,0.0002913890092523317,21.0
214,-0.010068201629384765,0.2108982245756441,0.006403174682462751,0.005008761470599275,0.02745790035491881,0.0009807027958786648,0.10784877729084734,-0.022088590211221604,0.0010846801931963317,-0.0014695590692761693,-0.0012336422925119197,-0.0003435470356810342,0.0002508749695480069,0.0009920292224619622,21.0
215,-0.01247937771622599,0.2189996907645073,0.00412009654715729,0.00507274729545542,0.0246930231583735,0.004347802943241174,0.10765736931498653,-0.020680938077864287,9.521458372617363e-05,-0.0006257762702969672,0.00041035295788312,0.00021054237564057594,-6.021412875388485e-05,0.00027009517161379797,21.0
216,-0.008560919682109135,0.21036667959821004,0.0020612244889862954,0.007114763146647461,0.02589725293898016,0.0012727220563738188,0.1085486850299139,-0.023100976332131304,-0.0007480726298180979,0.0004039010486907676,-0.0007447875409768925,-5.0994482011175135e-05,-0.0001365535353102602,0.0009049595912436592,21.0
217,-0.011454056447144088,0.21167318715961084,0.005901210542836513,0.006780601192832609,0.02585863246238942,0.0028691765378748677,0.11199350069948273,-0.015506828892071655,-0.0012606133640097892,0.00027010832760570203,0.0013743512173909635,0.0005447456830954021,-0.0014178863156989623,-0.0004224380244851776,21.0
218,-0.010593248301632777,0.2059164919629709,0.0030036979573536183,0.007841054702560009,0.02550781533852137,0.003210761061218648,0.11345370312107932,-0.024492902829971575,0.00014569039670863526,-0.0002907741030038404,-0.0003644464107874952,-0.000994617112780505,-4.10670258712106e-05,0.0004558802218894069,21.0
219,-0.008740300634771995,0.2073878531254003,0.004834331577744836,0.004574671793505952,0.026489581400661252,0.0008359535956823992,0.11536510973581461,-0.02089977754282808,0.0013054346539961013,0.0012960640116711757,8.302402796225241e-05,-0.0005225446898969186,0.001108815211513699,-0.0004954566716237207,21.0
220,-0.011339055530915736,0.20848288589338776,0.004684412895158607,0.0075359641402594725,0.024947850301521385,0.0013785304267080654,0.1109820204566818,-0.022014021932382728,-0.0004146293446975809,0.0017035585802135636,0.001202439791025311,-0.0010906767099698627,0.00032360692000984326,7.260525820102877e-05,21.0
221,-0.009194059066439558,-0.14865379131847842,0.05625140414613248,-0.04572652453405231,-0.030222326510578226,-0.007812835072727375,-0.0896213947991472,0.0005569374428396594,-0.001342392686195132,-0.000655568235920293,-0.0018862896901526045,0.0028588546293453142,-0.0005847909376550354,-6.95544915524712e-05,22.0
222,-0.006882773031645124,-0.14616055535091826,0.06586403768329642,-0.042748597722864275,-0.030215766918792915,-0.008175671579152876,-0.08774969919625082,-0.00029738713944591876,0.0029671698015188304,-0.0008581256502133044,0.0028545782309931872,0.0021556260535777645,0.0026452582344900478,-0.00024808632647827135,22.0
223,-0.006881651494791236,-0.1485295804391034,0.06496608744315568,-0.041986843685278996,-0.030313890206398443,-0.008779239555767034,-0.08462738363219847,0.0027438586057288473,0.0017011064092470535,-0.0017778718973060314,-0.0004189175494193128,-0.0016440456845632407,-0.001971987303036853,-0.00042842403174433617,22.0
224,-0.008659025180909071,-0.14823245104395413,0.06041561552236542,-0.040829091401556265,-0.03147585467109424,-0.0072611833523869495,-0.08933792496562575,-0.003418962215983707,-0.00038790485503755574,-0.003230486014563854,-0.001569497558304321,0.0026462693742155606,-0.0005161357773956724,-4.1507090944211425e-05,22.0
225,-0.006704002058771975,-0.14652483826194962,0.06458885484687436,-0.04001576165821841,-0.030091743931004205,-0.01098785331368233,-0.08832252016878309,0.0005627367595234475,-0.0009315871181766757,0.0018948224091645761,3.822438045271399e-05,0.0017198439115323305,-0.0009806501075854878,-0.00020682678946646067,22.0
226,-0.007434680648032371,-0.14294816859241946,0.06394337670165863,-0.042620675926659204,-0.030524140574961816,-0.007686664075752237,-0.09026040186249366,-0.0015115482507032092,0.0005390541219234774,0.0010921694364649764,8.590518660926564e-06,0.0004201817581743927,0.00024007651448250506,0.0018079378238412484,22.0
227,-0.008191782037010915,-0.14707795077180513,0.0649026437743208,-0.042476059793116666,-0.0313034388239621,-0.006202084277492498,-0.0892068747861237,-0.0005218707265140435,-0.00037800588069445036,0.0010584399681499203,-0.001528435829109361,0.0012307601296017265,8.06125448301412e-05,0.0003902501945383303,22.0
228,-0.009078599779664175,-0.14429643837232475,0.06787773189282746,-0.03793705994020315,-0.0308607543487419,-0.005084331109637709,-0.09261009310244722,0.0008265053552379537,0.0024584397456682535,-0.0012799691509571979,0.0001774266549586839,-0.002163634098803702,-0.0016526252979589277,-0.00016897103570593007,22.0
229,-0.006820062776464483,-0.14310261802127558,0.06157207645924822,-0.04322359906985994,-0.029710386425178426,-0.00816103579120254,-0.09145432328268327,-0.0019643116844143688,0.001222190473062213,0.0025637571375446695,0.0012748810975021553,-0.0012898844754129005,-0.0018884425763958017,0.00221216618471687,22.0
230,-0.0065646848331556325,-0.14538202895234886,0.06703123105807995,-0.032851067943529384,-0.03262026601878137,-0.007386389325157682,-0.09583035154838243,-0.0004128299779609047,-0.002011297874202156,-0.0010867954167743778,0.0012808727812505904,-0.00056036633835012,0.0009179734201091921,-0.0006393378863786081,22.0
231,0.00853174435743774,0.1276129487061055,-0.011301686321264603,-0.01848046718842368,0.008781200037005304,0.0006652853805904453,0.15509648440015888,0.08587343403152926,0.0007278542154380879,-0.0007587021121345005,0.0004744142215964348,0.0002498163879601864,-6.160599725311099e-05,0.0017854993693610763,23.0
232,0.00426630909715693,0.12079341348698247,-0.0076336534611294105,-0.024170406183356655,0.007737090542976647,0.0029978495003638904,0.15366156744552742,0.08986546364770302,0.0002790290834918407,-0.0002306504678363279,0.00025637650377434944,0.0018108682257630979,-4.5758701766310594e-05,-0.001526749647241069,23.0
233,0.007622901644158343,0.12196182737888951,-0.012275277451358115,-0.02686883620207033,0.008248604468574323,0.00015972034085205675,0.15938942498430753,0.0798477417342266,0.0002452533019422613,1.6985111041529027e-05,0.0004566555343539577,0.0006767868711155653,0.0004466977336052148,0.0024268854086713517,23.0
234,0.00948411636156942,0.12574025498400496,-0.00975664803331236,-0.019585343101004946,0.009424585327706732,0.0001781437062835011,0.1497194010744034,0.09320911186637931,0.0006187342351366655,0.003350385335268673,0.0004995339180512984,9.299078367709051e-05,-7.033935958995367e-05,0.00015970561583343162,23.0
235,0.005918602850628111,0.1273704759515324,-0.016636762000966313,-0.018347342265617617,0.008820759236952422,0.0033207716108699884,0.1479601336826005,0.09025061823383444,0.0007153928781772236,-0.00032110487841275064,-0.0008392870100758727,0.0002993211604943876,-0.0009981341058819919,-0.0008793436693281967,23.0
236,0.007927501934567798,0.12119424782445874,-0.011982667240683115,-0.017154996453244472,0.006299250497726796,0.0005242580721696074,0.15881772124859933,0.09073346182944138,-0.0006245939156001838,-0.0006972344159774304,-0.0002543567222728134,-0.0013164028078868325,0.0003449127255841863,-0.00046314460919119767,23.0
237,0.007837836903492441,0.12684544164611847,-0.011995186770983513,-0.018427984285462017,0.00888286970419792,0.005263251723445694,0.15366909471790757,0.08916207172035441,0.0013838670560940884,-0.0003591837805799163,0.0002849951372327319,0.0012385839662079983,-6.39342231430895e-05,0.0003994956884578858,23.0
238,0.0053698935600850544,0.12262972070426625,-0.020015107296907732,-0.018076505414556764,0.008663706580491948,-0.000630275891852667,0.15041261553595245,0.087574340228896,0.0012150076874791083,0.0016794803698904678,0.0010099187893995972,0.00045567980558000815,0.0006947892460995971,-0.0015074574804862869,23.0
239,0.0041368996391460315,0.12110066689976681,-0.016318786507414904,-0.014253013183539689,0.007487057161808008,0.003177845946207375,0.1518336669359011,0.0910494554457098,-0.00028958261437043206,0.0010432913674560972,0.00046272629429443485,-0.0009486198456565236,0.001600260684874267,0.0007592251926988257,23.0
240,0.005388298695496492,0.12532690832251137,-0.015794038841647515,-0.01631511710021176,0.009739962453470483,0.004134525854071309,0.14819867518456464,0.09031793222149505,0.0004056655120961536,0.000893533603436124,-0.0007970784944844998,-0.00030628030227179703,0.0006940703256609959,-0.0005505034944092541,23.0
241,0.03252511742204761,-0.22867093758279292,0.024140227348073022,-0.000501447958608634,-0.0010038149268584763,-0.0035194058479389627,-0.15199228651583774,-0.006095803223101239,0.0002586966285627057,0.00014904748620886158,-0.0009724713466148268,0.0005630004143540151,-0.0008407064898162378,-2.4909995063597937e-05,24.0
242,0.035134155948948476,-0.22793043911551528,0.02592529431578559,0.00044248072857292295,-0.002106134808292925,-0.0038062022788201352,-0.1462808669960645,-0.010311059692691553,0.0026017678888268386,-0.0004815849716470422,-0.0004745870329935883,0.0002596752670303531,-0.0010893269710767885,0.0017076885803154417,24.0
243,0.033808932245707995,-0.23040767324088635,0.025131222538179964,-0.002437191475484217,-0.0009169504954038537,-0.003897382757505313,-0.1468146918975832,-0.007913031082409207,-0.001991222388772515,0.00040106600465144275,-0.0005844404563263334,-0.0010180317485880656,0.0011208109603753709,0.0005535988978686986,24.0
244,0.03309715813371304,-0.22485000088919221,0.025090872085918266,-0.0010999287800471903,-0.0012909274813520913,-0.0030292370424456557,-0.1499857650047164,-0.010943078836012888,-6.61935660940471e-06,-5.998387572878417e-05,-0.0016908719984930812,-0.00032466084075839693,2.287694697944018e-05,0.0029608776800127733,24.0
245,0.034971819161321485,-0.22545702990094155,0.02411432101297026,0.0017686593095861312,-0.0014240862647655586,-0.0038871818146075958,-0.15004497862517563,-0.009045828036333872,-0.0012842254405496184,0.00216144908597922,-0.001369951204708387,-0.0008904742243532793,-0.001605365814628534,-0.002087465265000345,24.0
246,0.0318930898975586,-0.22573096508072668,0.02476560558638521,-0.002062605087432337,-0.002355569921101614,-0.0019134396438041652,-0.1479126311843314,-0.012422489894137452,0.0030154767090459834,0.0005967815893207959,-0.0009573657080909334,3.168948768482261e-05,0.0025198469418661685,-0.00335767278496171,24.0
247,0.03470661193248826,-0.22830483822144862,0.0258639470596079,-0.0011139877093694227,-0.0022654133710389417,-0.005888191751816551,-0.15279656372600822,-0.0027323500460498264,0.00020685299527683782,-0.0012303406971565427,-0.0028358271823981816,0.0020077638327704967,9.770754658419047e-05,0.0015383072574392297,24.0
248,0.03429104531977473,-0.2297733956909776,0.02579506411032531,-0.0019324816344109183,-0.0015298329152790672,-0.004562793661691347,-0.14725730619140115,-0.009240380920533258,0.0037992285909615453,-0.0009223570060919937,-0.0010103599722151187,-8.020815300290038e-05,0.0013538764740872841,0.00022549446252518083,24.0
249,0.03331650709482914,-0.2274325765258486,0.023381788321364092,0.00012352334104339568,-0.00036205651351627093,-0.003001371091177794,-0.15548598869323846,-0.0032570870857351673,-0.0012406348629675449,0.002404864525316598,0.00014604647170022108,0.0020530155894584873,-0.0006815245468716973,-5.4983953314624925e-05,24.0
250,0.03265015132358042,-0.22672362097209206,0.02655791258308237,0.0005806719734932477,-0.0026546801154386794,-0.0035148099202903494,-0.14438955308114979,-0.010788799220074497,-0.0038067485421259275,0.0014929847580663611,0.0011377362150326313,0.0014745050569168385,0.00027064342982230355,-0.0016215324618237845,24.0
251,-0.018359675414388633,-0.0883365983802749,0.13939133071368395,0.060211538094848215,-0.062181591186118185,-0.012146053092807899,-0.03548004753858468,0.012694699329978179,0.004252472982599747,-0.0015939137355651725,-0.0017341174502225637,0.0005556062489259794,-0.0014067126310643877,0.002023215748933793,25.0
252,-0.018932698351831936,-0.08949113225925147,0.13515695337027148,0.06212671523902684,-0.059033052802003286,-0.014457585871505314,-0.03153156996285151,0.016838418686869173,0.00012178287898276737,-0.0011653134989314951,0.002842868151411324,-0.00040888948178692785,0.002887140180590283,-0.0012014502630419107,25.0
253,-0.020072405069944697,-0.09278651475763727,0.1341561359500783,0.06405930980042877,-0.05767219925859966,-0.013912872817429254,-0.029041524162412107,0.014228796314765424,-0.0017132854980176884,-0.0019115694712769575,0.0014741808674825353,0.0009448693307309375,-0.0011510745843427547,0.0005069372606498396,25.0
254,-0.019936532079482663,-0.08904733842565682,0.13826218291603506,0.06018170254827997,-0.05536681009106592,-0.015165513148080713,-0.03556892629510547,0.012131754909137905,0.0017895904016468362,0.0008617883771949286,0.0013745831232882004,-0.00045160377938415137,0.00012071279110835847,-1.2293595435372655e-05,25.0
255,-0.018270154867455007,-0.0911405212493067,0.12834518135673928,0.05940059828175071,-0.059585878264240846,-0.01947289260221536,-0.035383493914141514,0.010599229188288232,0.000421020131416962,-0.0005501424113620312,0.0006576759096074028,-0.0011192187993347667,-0.00046915368040891035,0.0063232407663345305,25.0
256,-0.019776775075040477,-0.09204354925551328,0.12754991349467482,0.05992369567893474,-0.061541641428095296,-0.015360998954702278,-0.03467545990263494,0.015366961400685775,-0.0013910971348793624,-0.0008193558234975926,-0.0015339151312038593,0.0037043651890287994,0.0022359570651067522,0.0010155964164961172,25.0
257,-0.022345425400168224,-0.08876764437064355,0.13796023917918185,0.05821007943657456,-0.058115924402815405,-0.016580377893715362,-0.03463963638097697,0.014442666069684033,-0.0005326520268960879,0.0017601373842879404,0.0001779536918119049,0.001071991474186505,-0.00031673094239510356,-0.0009406635872429164,25.0
258,-0.021699041263923854,-0.09332345175696022,0.13822311640314625,0.05016979293037162,-0.055630926872703136,-0.017394626769423445,-0.03398737910590156,0.017645493702371468,-0.002156220236198178,-0.00404085535687637,0.0014541055441330349,-0.0007400197295617774,-0.004010386347169021,-0.0012501606055581687,25.0
259,-0.01763790624370228,-0.08869952356932925,0.1311368421328192,0.05801311014703466,-0.06132544416250748,-0.016127944379669877,-0.034225675570956605,0.015914714132094224,8.45126644095648e-05,0.0006404248464187674,0.0015323343543888165,-0.0024487911904650748,-0.001395144406989165,0.0002952424608947514,25.0
260,-0.020938997073747714,-0.09048043253628596,0.12968147609377062,0.06236865353030892,-0.05847384272053862,-0.015273934033727688,-0.03397711522285422,0.013665110160777762,-0.001681624703162335,-0.0026477334068425186,-0.0008497149911646601,-0.0016717236908627483,0.0009784516638944754,0.001118681113883643,25.0
261,0.0033821068617910116,0.10347991330669291,-0.1387826969540959,-0.10150954279596415,0.02108839649055691,0.023789652527813288,0.004069023950384065,0.019022273276211546,-0.00012405689868531482,-0.000183771567713333,-0.0012610499959318487,-0.00036513103092165823,-0.0011885383499282468,0.0009786833400886896,26.0
262,0.0023119400692904533,0.09127088819282446,-0.14719620167177455,-0.10529521437076633,0.021738630460270327,0.022629762886888442,0.004731283071538624,0.018412108219406614,-0.0003281509264346033,-0.00016129103385129366,-2.7098477081710262e-05,-0.00013078672377935218,-0.0001699665483998139,0.00019075373299136514,26.0
263,0.005032382005952734,0.09376619504507347,-0.1523614556016753,-0.10044379120917414,0.022899237788182827,0.02027092491094534,0.0032605945708067525,0.020158745499190476,-8.739988875067415e-05,-0.00013886696142518038,-0.0006942074674268622,-0.0008283196632468772,-0.0002642043008140145,-9.269675334271855e-05,26.0
264,0.0046194383334901305,0.08717934766425352,-0.13539163300170257,-0.116615408513755,0.022455592496436225,0.01928597673388516,0.005459533138006772,0.026493776524129327,0.0007685540051765423,0.0005243558695945917,-0.00045002526730188836,0.0010901966637056185,-6.345360263620663e-05,0.0008328786405653147,26.0
265,0.004748982307464833,0.08752175131963524,-0.13470271245346158,-0.12300970467748255,0.022503547655897585,0.020023191820153687,0.002683128186025406,0.022754146738804885,0.00043151930554481525,2.345070348421077e-05,0.0006970940125040558,-0.00026042796229128255,-0.00027476490195201946,0.0010345992961902765,26.0
266,0.004601028267183211,0.09917483603178245,-0.13221128786616937,-0.11141734218188709,0.021083284006732855,0.018891048523978198,0.005127945245791626,0.023243093793458652,-0.0008740765149615205,-0.0012140833610740395,0.00012165396325033074,-0.00044208535038147535,0.00021545254497208657,-0.0007376757768215358,26.0
267,0.0027461762481861517,0.09524688260613205,-0.13923873803986722,-0.10924198687890599,0.021092156151249996,0.02072004578485154,0.0033167633493076725,0.022301992627746306,0.0008940505528632032,0.00041863203333609197,-0.00016549063181092903,-0.00024874494349241214,0.00021781075433195175,4.521826486720842e-05,26.0
268,0.0031187493246906815,0.08681561241663369,-0.1309641121328373,-0.11414655546278495,0.022312397226883846,0.023929718193250484,0.006140262946586796,0.026747685813805176,0.0002371813392571744,0.0009388225106939091,-0.0010114272854244175,0.0007679794525521822,0.00041411192139380207,-4.335781394033767e-05,26.0
269,0.003950625057283148,0.08977979955174531,-0.1225949223747222,-0.12090286872359626,0.023594002733368154,0.02391551808334915,0.005476588297867008,0.02698886822727325,0.0007911229563608108,-0.0005508145364292517,-0.0001601204107235026,-0.00017640275690314282,0.0010437684424381628,-0.0010411613241635323,26.0
270,0.004837343452853339,0.09436350372264761,-0.12927631506588286,-0.1188030197455886,0.021025864894017105,0.017471857456546884,0.0056755539314561855,0.026727641420801182,0.00042925106425168515,-0.0003106751278384217,0.0005658161639374569,0.0004999938085106123,2.5678019768992606e-05,0.00029749330608639605,26.0
271,-0.005833343496402786,0.08577189546132483,-0.1838433279347868,-0.022244482416898085,0.005280115055644735,0.012387849383494447,0.005080490812092828,0.009949177559517242,-0.0029009685522011597,0.0008470500077943176,0.0006044304104816346,0.00032607636091052777,-0.0010683449697222896,-0.0016346968420455873,27.0
272,-0.006994376764915737,0.0885845444698644,-0.16565545393334313,-0.02481085076702302,0.007812098056603806,0.014915158234711848,0.008849466257002562,0.019101551085376915,0.0005300355360457523,9.254822331489356e-05,0.0005364433920058769,-0.00268845296655978,-0.00019704326184362734,-0.0009667446556862723,27.0
273,-0.0035928740375874876,0.09014795780399179,-0.13877371142367767,-0.04555899480390671,0.007786871914479941,0.017419181332247166,0.0031567480243569804,0.023732382885667837,0.0009128214422762586,9.943313303055403e-05,0.0001429998131496106,0.0014115621151230098,-0.00036443721409380427,0.00019682761759899227,27.0
274,-0.006382534196044639,0.08584252602359488,-0.1584966904730104,-0.03222650813671428,0.007430190586840811,0.015800711502219622,0.0051036707163548125,0.02342023971674559,0.0013499400040665613,-0.0006760894623488735,0.0010556561880851036,-0.0007373378773319857,-0.0002568379774525376,0.0001375619768381935,27.0
275,-0.0043204686570238755,0.08570617848170493,-0.1619294547494241,-0.02952064501912463,0.0071919081380832,0.01305245252276755,0.00765091196358169,0.018061043745945058,-0.0013869388914919995,0.0013783601939004694,-0.0002209443448701199,-0.0016761974662005989,-0.0014437362866272802,0.0023584090198926783,27.0
276,-0.004151296985843564,0.08559375191516293,-0.1547323256048726,-0.035115517741925575,0.0015668156904374282,0.013639802592915227,0.0048051133861328225,0.019787345456652086,0.0010199699698697296,-0.00012233390966342265,-0.0005841500755376638,0.0011325929126179551,0.0035571053243815647,-0.0009256457464782811,27.0
277,-0.006305416903174648,0.08728899299644359,-0.1618807820938874,-0.02563779003590093,0.008581544525837426,0.016927579702321047,0.007464115510753684,0.01780241407474433,0.0022101189972646806,-0.00019064647905691422,-0.0008299784636383509,-0.0034035089363821163,-0.00042392122491791915,-0.0007425244330148511,27.0
278,-0.0031592730182959335,0.08317961547948811,-0.163119794744061,-0.024705918062953997,0.008843300410974865,0.014478153687658864,0.006375493133348106,0.023642882822583717,-0.0005919471830610753,0.000232113549065146,0.0003026444244465787,0.0017692447393466589,-0.0001364537437989553,0.0014759176220178831,27.0
279,-0.006555734040865309,0.08652102726293096,-0.17356308981501223,-0.012332174772633517,0.004454368301935264,0.012043440216723716,0.0061312864532687104,0.024122625153361124,-0.0023228692414511073,-0.0014464958270597559,-0.00031079576499821576,-0.00035386888005687044,0.0005491754318459286,-8.910274576501631e-05,27.0
280,-0.00637860645458716,0.08612708901851153,-0.1629385424555457,-0.02084072759529983,0.01063477433035895,0.015012042471640898,0.004620350398126958,0.025333653731084073,-0.0016436612450887297,0.0008012205765162788,0.0007716873381337825,0.0009998259632548032,0.0008732847074205384,-0.0012501808105760623,27.0
281,0.026269404192904005,-0.18292830217786282,0.04759917688111888,0.004742845282679887,-0.0822172120896904,-0.026577486675257417,0.060010430428263636,-0.0020425331680753852,-0.0014103548519388816,-0.002638078799361136,0.0018624439223819107,-0.001425926258826958,0.0019572542054983404,0.0011236698930566576,28.0
282,0.02596327933984526,-0.18856584613093588,0.04992488925219532,0.006495775533871321,-0.08114761665251537,-0.03156777482639052,0.052717853095303996,-0.0026764102741264665,-0.00034458376221162707,0.003540661068564292,-0.0006676849531205861,0.0007722109395340328,-0.0026300755076851044,-0.00012616312497887061,28.0
283,0.02498012315494628,-0.18244852207343018,0.051815896048294285,0.007248476854280026,-0.08196925592685804,-0.029345926046230812,0.05510334099413492,0.002913885399534918,-0.0025255370008531583,0.0008591960680422677,0.0007975421204213595,-0.0002618046026729956,0.0004063443607980964,0.0024364569624087395,28.0
284,0.029404953947843714,-0.1725170361145301,0.04819981228794146,0.007536929843238202,-0.07980155106201658,-0.028722120805595216,0.06991759399590697,-0.001123996642690151,0.0011331790491560664,-0.0017361369901094672,0.0001609284421214925,-0.001928395830102395,0.001041465665070381,-0.0006264885489948764,28.0
285,0.024971112428754584,-0.18741268882487916,0.05074656728973279,0.01063881492772601,-0.07912756665111761,-0.028632761275569556,0.048539419732384834,0.0011343922995131902,0.000882841160056037,0.0002622408830997783,-0.0004233665965886236,4.3917820110372685e-05,-0.0016308254426831016,0.0013505899478889337,28.0
286,0.028361681691331166,-0.18070852884166394,0.04543850510194295,0.004172213115063509,-0.08088330223553707,-0.026013669190321626,0.06726921180103743,0.00302435565047503,-0.0027982147422165433,-0.002677384605710294,0.0030108539070030724,-0.0001151538839148884,0.0022748813488196198,-0.0010455498776027583,28.0
287,0.027383401012472088,-0.17110764766984438,0.05165976731813037,0.006977882095525058,-0.0818578857071702,-0.026171005764984434,0.06470637007786133,0.0005380355133960573,-0.0016509143191327064,-0.0018946632561098599,0.00026114797510825216,-0.004997122488467663,-0.0020462642370681836,-0.001031681906599679,28.0
288,0.029553828869078588,-0.17844602804721857,0.04847085129911226,0.010273879969455462,-0.07883790164907029,-0.028552699684195694,0.06376965366026632,0.0018915242661294792,-0.00019218536553844553,0.001748909995009709,0.0013666977304043675,0.001187754478314674,0.0017047219950832402,-0.0031863222453829784,28.0
289,0.027896331244984647,-0.19408492269928887,0.04623387418582621,-0.001141502245438404,-0.08220629528544432,-0.026683742755003414,0.05633199176362262,0.003006478225706498,-0.00047921794830717036,-0.0022145789550540775,0.003070159997043735,0.001733231229953498,0.000247126652196205,0.002385677408323368,28.0
290,0.030637203657147054,-0.17089319073344322,0.045224682486013044,0.00907787398602828,-0.08286515536578416,-0.024272494177017934,0.06932536051251051,9.574687097075425e-05,-0.002131618393605805,-0.00024218030432273725,0.0019449897807831962,0.0027239189229844585,0.002453470171247584,-0.0015211741064215813,28.0
291,-0.009259346978160454,-0.0402763580880563,-0.23684146648115048,0.022947312291755673,-0.016167175270473566,0.006687724580583005,-0.014558120735986307,-0.08160748345866531,0.0006038516279603836,0.0008017788575334499,-0.00028092373990023383,-0.001670620940146481,-0.0031495283564678977,0.0041573457848133625,29.0
292,-0.009353026201205553,-0.0330857119367631,-0.24980933929217333,0.021601408571029174,-0.014534486112549283,0.0062606990398246356,-0.011786986960894098,-0.08226126706816055,0.0024066426156990864,0.00302252578580757,2.5454450542660055e-05,-0.0008144751381166033,0.0013760198603612046,0.0001041591230496479,29.0
293,-0.012245226863805032,-0.04614475051058411,-0.25181662892377205,0.02175303256265779,-0.015368231721390097,0.016209680010306957,-0.01602051174432998,-0.07188322802514063,-0.0007246803450918036,-0.001464114941419906,0.0011772485141189313,0.0010721120134827122,-0.0009161895091516345,0.0008030249718416693,29.0
294,-0.012463631801808072,-0.034692540328301685,-0.23925820249354418,0.0318904878371334,-0.01729765769183897,0.009427194462168045,-0.015546681402995182,-0.07856129179367952,0.0011640614430237365,-0.0006059960251996619,0.0003799748455217475,0.0006238411847649324,0.0013723912746581445,-0.0016983843842990564,29.0
295,-0.01195552360260069,-0.03598939471375292,-0.24594293549683455,0.020122828813136893,-0.015226251913302596,0.004268568623697327,-0.012022088469800124,-0.08020683154735198,0.00038812146319912045,5.1442990814591885e-05,-0.0017535511184538636,-0.0006205992466257849,-0.004350497694502426,0.0012707656472812272,29.0
296,-0.011202612715091004,-0.03881712897929067,-0.24129748270306828,0.02601688604787551,-0.015141570855296814,0.010579001867348826,-0.013580511295382455,-0.0814615766866238,0.0021851332869647793,0.0004960702280137856,0.002922654658211711,-0.0013992009806036564,-0.00046960315700520676,-0.0005208267422434919,29.0
297,-0.008189676327516184,-0.05260643734395238,-0.23762700241532836,0.019416671825149064,-0.014791915598070332,0.00974383089270715,-0.014890573470374537,-0.0776514441975848,-0.0013083977948624428,0.00189710951291234,0.0007196795041412858,0.002450871250566607,0.0024510967418862094,0.0019300877684477608,29.0
298,-0.01110904392244888,-0.03179836389793264,-0.2481705901894058,0.023101814548099196,-0.0165541472794283,0.0061867077448902056,-0.010584385736726761,-0.08215352811894033,-0.00029712357244360304,-0.0011434282091238562,0.0009521007698496997,-0.0007855752415526539,0.0006633689033923082,6.494590227185915e-05,29.0
299,-0.010492295644258633,-0.05294830689747642,-0.23475367385282156,0.02380039764811823,-0.014109384482327078,0.00860425854900955,-0.013013601718737377,-0.07573543632678185,0.003898605592988899,-0.0005081911591760918,-0.0005159468177409923,-0.001654340277383292,-0.0009402014973825542,0.0005192258233870958,29.0
300,-0.011178082189206536,-0.03243775786059261,-0.24218860016801805,0.024347543563751572,-0.015663789064085717,0.0023432602112114648,-0.014147908326781212,-0.07846550262490525,0.001764345618681284,-0.0008860924966806542,-0.000210469475257909,-0.0013225571666422172,-0.00047136932168020956,0.002740691860093917,29.0
301,-0.00844048632124418,0.11029611748703723,-0.022787321850445533,-0.1344677863204699,0.02034299499951222,-0.0007193534553647099,-0.057630113849615035,0.08133480741071047,0.0007381680910269014,0.0006480786855456843,-0.0002597625760361295,1.6933870360104543e-05,-0.0005012874092220837,-0.00017129193726530927,30.0
302,-0.008711936027011058,0.12504227301716075,-0.020411229155417612,-0.1276720528324442,0.020600515040747842,-0.0016547310686778184,-0.06280235664539835,0.06977565211542963,-0.000476798475112668,0.0012083933504666979,0.0004278504855228186,-0.0006593556140715722,-7.231466406926651e-05,9.799798056565296e-05,30.0
303,-0.0058921317292648335,0.10719295518707249,-0.024796104301475472,-0.1351453248106444,0.020703369533911893,0.0011215199306455446,-0.05721952554183976,0.08331027993231474,-0.0007724487640971967,0.00039686711372632227,-0.0001853458987135376,-0.0005470308740831067,0.000999540263223168,-0.0004923484135838447,30.0
304,-0.009244831205557302,0.12436683049630959,-0.0241856645973659,-0.1368683865775548,0.024875914097636682,0.00646633705930621,-0.06665596203085342,0.057345203801638725,0.00036141723956884507,0.0007439686197660699,-7.867518354758517e-05,0.0004807869452100252,-0.0003017690105347806,-0.0008580700319523928,30.0
305,-0.007828844913353759,0.09877985374186013,-0.02836554848045952,-0.13625449379100532,0.020083950339936946,0.0037806108739367066,-0.06521111887496907,0.0798354027596918,-0.0011291666718678817,-0.00021120635603885264,-0.000818216065611087,0.0018357484798919286,0.0026619291060034187,-0.0014076911039956536,30.0
306,-0.00829777118694662,0.11198045203884432,-0.019160250158710316,-0.1339874455661547,0.020265721544526025,0.006561602784115169,-0.05986907812891583,0.08593629482007141,0.001969193548735871,0.0007806945494421077,0.0012813522147536297,-9.648653517212333e-05,3.206237815430218e-05,0.0004956887619967022,30.0
307,-0.009450025999021335,0.11653472098595935,-0.022583276541501166,-0.13290683226579197,0.022833864927381407,0.006670576379978048,-0.0666162894607646,0.07136410317823108,-0.0008068688008274485,0.0009597525989885556,-0.0004692399731049701,0.0002405174818808315,0.0013100916126014702,0.0001570829275176052,30.0
308,-0.006610742552542099,0.11154677380817402,-0.017178211590319188,-0.13613546448269753,0.02056892517672489,0.0040671291867247,-0.059384700855904596,0.08455355196292104,-0.0002086689227952254,-0.0008667444830469796,9.083909406234877e-05,0.0007994570330241716,-2.4102940592264253e-05,-0.0008649716308133936,30.0
309,-0.007017207137904814,0.11918674613279731,-0.02213831289044036,-0.13024717889210577,0.02150716813453823,0.0033398229459428927,-0.06127439121958713,0.0750079051555209,-0.0004742133443080435,-0.000940720281262526,0.0010694808568092132,0.0013928718359886188,-0.0008754053515847095,0.00012045313155354718,30.0
310,-0.004535168258754762,0.12212758410016064,-0.023636600323521984,-0.13359279217336462,0.02334639353187027,0.0008248897281461476,-0.0521033004464205,0.07389360785825615,0.0010946123564293607,0.0008989834199334044,0.0015906023690935762,0.0002908663907835386,-4.767663709265239e-05,0.00018923147191933184,30.0
311,0.015579199383409724,-0.20942049309871602,0.12758432508710293,0.0032371827175117166,-0.01907638828330965,-0.034492700794744036,-0.0024578456435253534,-0.021008204924946636,0.0013003695908986664,0.002198114489832364,-0.004165474811416747,0.0009159765406660406,0.00042128463971883396,-0.001945237939428217,31.0
312,0.014900932443159267,-0.20845978590371497,0.13128471153528898,0.00021792867212719525,-0.01743564592778231,-0.03371176696460989,0.0015534304432021889,-0.018158765715938878,0.004410744146341088,-0.00010846228830987721,0.002193638848293033,0.0011636449545038667,-0.0002115685282916948,-0.0005155833002490685,31.0
313,0.01822836371370547,-0.20957768402187413,0.11798414061090469,0.00464835124180274,-0.017142513924865158,-0.0403579378305816,0.00033852603898079805,-0.027155211614051145,0.0026026104657850373,0.0028515872105712623,0.0009477028693706204,-0.004224407943289433,-0.002142418045780136,7.49326025155256e-05,31.0
314,0.01684507065550572,-0.20883097767541622,0.11757850128228904,0.0022297557437393456,-0.019781359885507686,-0.03491275567973883,-0.0012744511306014567,-0.029717349009537864,0.002812974395417954,-0.0014407293518256842,-0.003194384266985013,0.0031188126947371366,-0.0006638993003271424,-0.0027409530516377873,31.0
315,0.017670816723970542,-0.20925769906104158,0.12476389649974626,0.004357662943248125,-0.020673782031945965,-0.03553422668761649,0.0018155248342763563,-0.021979800687005648,-0.0011697251976257811,0.0014634483897723862,0.0005609906736190701,0.0023978973295055222,-0.0029323406306372337,0.0012798080385115571,31.0
316,0.017010630577560065,-0.21218379914100344,0.12158768294777225,6.82819868267965e-05,-0.019604627854998117,-0.03539024872705639,-0.0001425207548885267,-0.022236561887017788,0.0028474665892598903,0.0015701384977002807,-0.001835729749024967,-0.0022268385125062103,0.00212433602398787,-0.002179369739091942,31.0
317,0.017041770044708644,-0.21181881437108535,0.12286452821197479,0.002826460292215359,-0.016690288379220066,-0.03587884843767299,0.001043089796360867,-0.024850964201938615,0.002053989645498455,-0.001119408827413918,0.0002751773045672622,-0.00032809217429492294,-0.0006024591236321209,-0.0012015460770545847,31.0
318,0.016084115418209703,-0.21523880633550868,0.10683006476619337,0.003405541839044869,-0.018715931426464636,-0.03998460891759822,0.00019125250966248926,-0.029645573072500733,-0.00038001980452780163,-0.001898650746573566,-0.00021034049713537618,0.00047608317060602044,0.00046663936731124373,-0.0006280208961304633,31.0
319,0.017674117372004156,-0.20850931919326005,0.1230175412644239,0.003553345902876056,-0.017680827687643126,-0.03457830006206857,0.0017522833416289154,-0.02523232617386421,0.0011772539450709543,0.0008774932454806932,0.0022453556349846344,0.003525440970877628,-0.0003882753452492635,0.0032890353383139407,31.0
320,0.01932200629367306,-0.21208534242797458,0.1293912369268309,0.0010829778015039643,-0.01899853338111366,-0.036347122567695914,0.0009596650852209074,-0.014434291766729277,0.0007782647251945413,-0.0018629916212952121,0.0029468637422384206,0.00027271637248793497,-0.0017535035653381374,0.0022422229892318296,31.0
