,0,1,2,3,4,5,6,7,8,9,10,11,12,13,14,15,16,17,18,19,20,21,22,23,24,25,26,27,28,29,30
0,0.0,0.0,0.0,0.0,0.0,0.0,0.0,0.0,0.0,0.0,0.0,0.0,0.0,0.0,0.0,0.0,0.0,0.0,0.0,0.0,0.0,0.0,0.0,0.0,0.0,0.0,0.0,0.0,0.0,0.0,0.0
1,-0.0411680231637814,0.002943236426723222,0.0338737797589635,0.009258666734312354,0.005228850170553698,0.025239621041598836,-0.02935087725534316,-0.06765973782428852,-0.02225476312124208,-0.003150122717372257,-0.010073355063996536,0.003060133791736727,0.002346847771303766,0.00975658916106761,-0.010695604573953445,-0.009630358891590578,-0.04913078927501106,-0.023572054423685762,0.005058021392429384,-0.027289680936225275,0.01985748541494217,-0.0034123685066875823,0.01975526365964916,-0.02888625355066908,0.0048673071987156155,-0.0013335438424853542,-0.07099330143189368,-0.0669781162849268,-0.0042261472298314425,-0.015542545354289991,0.0
2,-0.0440921196816378,0.0035871053547212434,0.024995309896234094,0.018278932659351,0.004835706937385863,0.02140848415421767,-0.02620948588600232,-0.0710443857677873,-0.013713757489137427,-0.002026921881370982,-0.008403514311973686,0.006278033988399235,-0.005181034899145048,0.012369100378912607,-0.004444327760075556,-0.013751033223713257,-0.060690462117951205,-0.02955461553948371,0.008485197347340823,-0.029664432685960185,0.02836502564140708,-0.006451067514545194,0.029077350194637624,-0.038785729951732274,0.0027065536076211418,0.005171404180107504,-0.07187593813298858,-0.050541210749058256,-0.008624085366722137,-0.019594460875943184,0.0
3,-0.03412712083059361,0.0030314124669160196,0.028378388226175916,0.009336446013657079,0.003472299573387773,0.02639481624570288,-0.028878944786819398,-0.0689812504303874,-0.014991003962927315,0.0020414460691541496,-0.014216009716060672,0.0032504530778672404,0.0017874003708584513,0.012982080421876199,-0.004163890976378886,-0.018942450409029955,-0.049589410180564605,-0.029279504733950065,0.0017046206002191318,-0.027987260236389297,0.02323553167495225,-0.00301061855514407,0.012820021337985791,-0.027531270829845488,0.0031354759748666704,-0.003031389965588681,-0.06958916427098523,-0.06365546559240039,-0.0013332587587086124,-0.014901994608852004,0.0
4,-0.04089297760870243,0.003137016477184644,0.02339693790416858,0.017867838070862636,0.004096996783103126,0.014681276695789012,-0.03351676689967605,-0.06520850287176479,-0.013316497599469969,0.008924561997685624,-0.009679105919709923,0.0037761304685707754,-0.001988055271390198,0.013889605893760364,-0.006395749792924512,-0.021519954778171663,-0.05149331629782305,-0.021345992402697158,0.0024441818581374883,-0.029102633026792432,0.02652296728313849,-0.003579340975911888,0.02105477810734818,-0.03368451122527769,0.0019120961099781744,0.003906718426007209,-0.06743457997601862,-0.05819409408607275,-0.004693000712898903,-0.02233497166751558,0.0
5,-0.034362577487879624,0.0024081704413575797,0.022412538818015235,0.014632598555851072,0.0033267127149150194,0.020996944323750096,-0.03322068698995481,-0.07067284908730369,-0.015136697326006874,0.0018688895551925786,-0.010297173375459663,0.003837559790413652,0.00015444930018128876,0.010410923820063898,-0.00868388321730871,-0.016462490497083163,-0.04849449035934842,-0.02392471457862167,0.004111200025393476,-0.029446084304060736,0.026079420486004784,-0.0033305656090563884,0.01587820027324196,-0.030153651123333538,0.0029517220878913517,-0.007471469041238835,-0.06931915586614154,-0.05436415977362724,-0.003458030002391363,-0.014593879864518896,0.0
6,-0.03645898571071103,0.00477467420820236,0.02507951307476481,0.009668034410982875,0.003254322512552087,0.025604454508268894,-0.03216076847820824,-0.07266378384300916,-0.016734950680839075,0.002425324460281711,-0.01513540796072548,0.003949354820161825,0.004875210707699675,0.010129494695596382,-0.0036740587265660066,-0.008547462377481307,-0.0481866702266877,-0.03751413241409785,0.007025359550160257,-0.039975050069259103,0.03215411365755171,-0.007514814464792432,0.014288122685323583,-0.030738603836267638,0.00442176095493863,-0.00445349587657253,-0.06170504132317837,-0.04991717183881395,-0.005100161586578815,-0.021251781879084778,0.0
7,-0.03504396783224722,0.005123301814719731,0.021983678646258303,0.010376519740480417,0.0046164459456087695,0.026415834982009133,-0.023621926342598402,-0.07991315347945657,-0.014486992203237669,0.0015976443631571687,-0.016066781676873896,0.007860131787336713,0.0019393517622451194,0.014239471466497802,-0.009727824857922722,-0.012154351121089913,-0.049353649646646056,-0.02078086933491055,-0.0027386086646914868,-0.017571657280474128,0.025481017504346042,-0.009059779210862252,0.024157534542323434,-0.030963262840904476,0.0037496982800135944,-0.0006087194138012359,-0.06820905606591746,-0.06563155479659324,0.00022082951924419915,-0.02277985761908541,0.0
8,-0.04055467728822259,0.004866521827631849,0.01983024316754694,0.022759770604553812,0.003693310913038669,0.03656871950596046,-0.03214874032960899,-0.07148340773677073,-0.014321611545539365,-0.0013874032955199051,-0.011897540463717177,0.0052388835943626005,0.001115211824476058,0.010282088799451698,-0.008258529614457817,-0.0049639601478881495,-0.052729371635706145,-0.035186748822781395,0.0014983073660553223,-0.03333965820711096,0.029948606805696294,-0.0067881110329747855,0.01478716235693313,-0.03405652966575828,0.004128105451235282,-0.008852002550906651,-0.06920618003654602,-0.05341072317316065,-0.0034967717087421397,-0.019790375404816398,0.0
9,-0.040858900858572106,0.003675660548113536,0.024679117729832455,0.017928080833279774,0.00462253051264607,0.027713623205612034,-0.03784315566542403,-0.07233864339145199,-0.013696672492110552,-0.00043043103609336457,-0.008747906284497191,0.005191813471204562,-0.0007241334202311818,0.009295023627013028,-0.0029521138556479567,-0.014924525016686556,-0.04640515210793653,-0.029583550084408158,-6.453035367664641e-05,-0.035619118734330685,0.02909097068139674,-0.0060516437490757986,0.01947887840213941,-0.035635970629100136,0.003272955805512452,0.001960799023866912,-0.05831938350526595,-0.05681269643529335,-0.004883174797056054,-0.027504134436902933,0.0
10,-0.033377719870279515,0.0022894598018067588,0.020887504348845586,0.012868470093234942,0.003241222694910983,0.022013277919262015,-0.03432609947979234,-0.07785664130611566,-0.013537739329287138,-0.0034887229292906536,-0.015320708368888533,0.007087340300670683,0.0050163907617990205,0.009470334581862897,-0.008160237684357427,-0.019506872683558187,-0.04551303102438633,-0.02803208335979415,0.003578977904877763,-0.020242440312581635,0.026259885792769822,-0.006035688752493813,0.0168278023068976,-0.0285500647269383,0.005368415494041831,0.000865085843007937,-0.0666037760398972,-0.040432123285832976,-0.004787447342719848,-0.025256188405437485,0.0
11,-0.04956490510820853,0.0007103871305354424,0.00418163193964676,0.1195900939300888,0.006828753219816463,-0.26695837273839623,-0.12194264349200468,-0.0060025309303187975,0.08885923156084093,0.6551595161297159,0.020385344287389476,-0.1427718833043513,-0.16402796845615913,0.05891316257504372,0.007719048991732469,-0.13190084215657738,-0.21700856753554687,0.10618732778803892,0.10565959980976335,-0.24477072219049834,0.5089220093082973,0.016615049872248492,0.048031882820695856,-0.6127392354757615,-0.1927920017707558,0.04870898788916051,-0.013941690986413279,-0.17494430008443482,-0.2364637415289221,0.03068376214528218,1.0
12,-0.059920984298611986,-0.000956500894135785,0.009015515611007541,0.12498200524219064,0.023730911119652594,-0.19763652157149586,-0.0835671352976197,-0.08298403652217162,0.05528972885298091,0.539296527994308,0.02969322697054223,-0.16144250301802734,-0.11115172837134689,0.010689242664089944,0.05174906586607052,-0.15905602049896306,-0.14118921262730807,0.08993240661308209,0.027817571282436844,-0.19573856035188433,0.5675937242514131,0.021652878519804672,0.004083716511965314,-0.6456641385481977,-0.21038871673077078,0.021879891663870554,-0.01758823649616345,-0.14549121802845186,-0.1973206281496556,0.02132305281405017,1.0
13,-0.09068766462458111,-0.016319763154986126,0.03904475610037395,0.12882910675140238,0.023572766214385005,-0.3094127275555009,-0.020782714692940185,-0.05869050802754624,0.06388159909049998,0.5657724145431757,-0.028423148920194218,-0.19504555931871584,-0.0786494880676171,0.05884448850792758,0.04202574275826413,-0.21045850926454787,-0.13962362513165477,0.09114088052070116,0.05042190779964624,-0.15750731660550998,0.49956867138643785,0.03223583090694351,-0.006537797069738572,-0.5863664278564872,-0.19414704709742245,0.06811007811965061,-0.044692510746453064,-0.19556502329812742,-0.17724783012746154,0.051677679829580284,1.0
14,-0.08452489718353126,-0.013269467549908506,0.010942379058503074,0.1460343112993631,0.01271893939635715,-0.2646200810048338,-0.0560152373693611,-0.00616542225075127,0.12356581539090801,0.6021212715134379,0.06564782990442854,-0.15177932085058407,-0.14392492401997006,0.017276420252762336,0.07531018517419207,-0.14854762599651097,-0.13094093698464995,-0.024431564682107405,-0.020688909182683127,-0.31647855651431783,0.5170672981184015,0.026746583998688803,0.04719533105270895,-0.636121392970321,-0.2406879503146676,0.028537136809962678,-0.030829261865816235,-0.09352367527961272,-0.21782557188954793,0.04525171953424978,1.0
15,-0.06976959062633753,-0.025543923847548704,-0.009310845491288381,0.13923109190302352,0.01258243510735904,-0.280389680908465,-0.06907344796453108,-0.013587883546133724,0.07533859802453141,0.5979463976163747,-0.019787876089418142,-0.19105457086371294,-0.1197606321624882,0.07516806862503105,0.11764409555716182,-0.12913495132048242,-0.1544406098586468,0.020494005100585955,0.07539002833100937,-0.26618244985448697,0.5745766189448765,0.034900992688135235,0.026232518648753606,-0.6536099687186926,-0.21783737521090124,0.061920664809241986,-0.0425481882943969,-0.17795445735707408,-0.20834942142302487,0.059905309587452125,1.0
16,-0.11729145325424543,-0.014208508609455071,0.023065710487146934,0.14299411612725774,0.018145625935305793,-0.3093028348775594,0.062283389000403,-0.04590034552845665,0.05757297558780519,0.569930968475033,0.05916008706271529,-0.2154823331055171,-0.08414554802099745,-0.003010001740555758,0.03578605785841483,-0.10675637923464364,-0.08168265699816775,0.09151238704734854,0.06647478803236187,-0.23286483839305516,0.5541907490025851,0.029625853074586594,0.06012225763517782,-0.6216435321670125,-0.19427578629562306,0.007189623049473636,-0.026060996802309003,-0.18842128389729873,-0.22100261675314406,0.016640178803287064,1.0
17,-0.09121385176753442,-0.015810761564033337,-0.034948488306807,0.185205371574869,0.02513384336612512,-0.2859811929497733,-0.007008796888324649,-0.023011250853475326,0.0783273018828887,0.5473060240398094,-0.0038619749876240782,-0.18589005824601987,-0.13403253149180283,0.040636027636982715,0.05902753777510379,-0.1694273458355986,-0.12493715521877975,0.09120809885316038,0.07680277166072713,-0.1705502304619976,0.5541054586134139,0.028938615918378215,0.04438935073513957,-0.6245224447627604,-0.19932856329216445,0.04577098162965124,-0.0410126145271073,-0.20125917187898343,-0.21554865211995558,0.05281940848013281,1.0
18,-0.09991806497644104,-0.02752751589282678,0.01768498523245962,0.15902949387349447,0.013314045598294874,-0.2572026377575913,-0.006806373537596003,-0.0801038883848514,0.07912824557645846,0.6094490593911912,0.015247001322683206,-0.19927374555544453,-0.08492336209680852,0.021210136263260952,0.03787895872289437,-0.1576512102798821,-0.09741866802448325,0.11932470239210453,0.033256428485993375,-0.3054207278928206,0.5266582730765299,0.03357370193397322,0.06973353533517494,-0.6839053165821288,-0.21645468742718138,0.031861943808142154,-0.08226246372851602,-0.1471284432015288,-0.19259564444386235,0.04147008307197155,1.0
19,-0.05487511062997263,-0.02922608193992672,-0.015136229081314768,0.1403039743636908,0.028775111157735546,-0.26488451935499124,-0.02895675859946611,-0.05128439950856728,0.09866189344754507,0.5306888097651369,0.056786048779045896,-0.22980099140066093,-0.04954541887617015,-0.018145437875166856,0.06821508440574978,-0.14246531076954272,-0.09065703987668722,0.07777217994124172,-0.03353148134314916,-0.20883082771572042,0.5237773253600125,0.035296133153151645,0.06858648933075552,-0.670450569960549,-0.21825772754828357,0.026736954491552747,-0.03881740309165002,-0.18031201784347867,-0.2078288303402058,0.059622819809519945,1.0
20,-0.05384376930667709,-0.00258448814558969,0.009536288101489909,0.10373726884933603,0.025512170603218184,-0.3446117717131641,0.0856256841229345,-0.09734965953566478,0.07731910296509618,0.6233781158574738,0.03442363367566365,-0.16670381433778403,-0.120384144323923,0.022627675285887397,0.06380155084140364,-0.19015357968266278,-0.0576928366921734,0.06558280212345158,-0.0031615189181180897,-0.310806217942411,0.5153374715548402,0.025761446738061525,0.115345565370337,-0.652084513085635,-0.24761201194356783,0.08254693420198152,-0.04877280610612124,-0.1462962001439527,-0.2244175766305582,0.023274767512409762,1.0
21,0.06873668430303552,0.03420011305970886,-0.03837169936733208,-0.024562997236939978,0.02086342317828686,-0.0025730000394105384,0.09065153102632113,0.0021443653875587313,0.00041881279225485375,0.0069843341463130485,0.02470039308023935,-0.15588220073670872,-0.010517785999391379,0.052337800154534965,-0.005290579954575115,-0.06647239128220371,0.02344474054900448,0.04284500222845355,-0.02497747349164976,-0.09305201343979451,0.008364991602315068,0.0403374794132433,-0.019437560172567373,-0.07129905875706728,-0.02017310597069241,0.06251886356884981,-0.20181776510077762,-0.07948315122235808,0.004492116064182253,-0.002388510946717669,2.0
22,0.06994596676938734,0.022448729603810426,-0.0533455648515011,-0.001964473565748108,0.015226204576424852,-0.0020376551136580393,0.0846185485685195,0.014262609013339552,-0.001217519241485716,0.009738880901258401,0.012609855123579872,-0.13584006037798843,-0.01936676199891455,0.07549315802481894,-0.020050384125635486,-0.10188523204837738,0.030747771648731066,0.058782939736839936,-0.02640910321119153,-0.0859475972721841,0.027369701489369742,0.037037207259355547,-0.06662485490996006,-0.06240013887211266,-0.017946964047512497,0.06309228539921524,-0.18907162090832233,-0.0898984382648111,0.010393763624866794,-0.004727832791924698,2.0
23,0.0632988039589326,0.015984208762990927,-0.0432717927771506,-0.021228766063834847,0.01614136851243161,-0.005262094216184247,0.08020614873823691,0.03533458744865686,0.00154245605342483,0.009709025324778804,-0.011368241684646795,-0.15747464792655405,-0.015345226699518688,0.095380830547563,0.020985642287667472,-0.055451379947362954,0.009176998642293115,0.023893867044127697,-0.02195405201618251,-0.11399257260064313,0.027991964464906025,0.05440228168232363,-0.03452703428693117,-0.07334303790704585,-0.020607538689852396,0.053456617752241954,-0.1998848320456519,-0.08392602922705475,0.0025981675747781784,0.010903587918832593,2.0
24,0.05280374428071984,0.04169760576531604,-0.03459889597348949,-0.014168800305019108,0.02845241223496851,-0.002170374986410304,0.07287125249305826,0.017392553733309057,-0.0005751781740255112,0.007574839309433419,0.03313338202584293,-0.1492397507709972,-0.022790466461027843,0.05273468837796366,-0.042341807950169105,-0.033741088741945736,0.010348357289299191,0.04952356525149732,-0.023108903742364406,-0.09488938391807292,0.025775473926632025,0.038735630675004774,-0.025494162365325465,-0.08122555231452451,-0.017272769694305315,0.043818311086252414,-0.16269710407185475,-0.0980579481718885,0.005293545927819363,0.0026713982472560565,2.0
25,0.0452591304138941,0.015192739183767423,-0.07963370953966374,0.040681996604649565,0.019016118210470015,0.009158862682908993,0.07929983988227257,0.005751196153525624,-0.0006084586966522012,0.006283339826435967,0.051914693245997436,-0.14684843492328026,-0.03238103780860285,0.034218927285818386,-0.019213642851411552,-0.07936211874399261,0.014061783522723779,0.07248241883641479,-0.022073900338323064,-0.08585800386062681,0.058466531472429056,0.05102816437689318,-0.07267079589833042,-0.06481949883844425,-0.018626702834557175,0.05478578883991062,-0.20670936115103222,-0.08355173721218968,0.00681067413442903,0.005446400433804368,2.0
26,0.056082583700446255,0.026182606368800092,-0.05567349766461271,0.01842697563162412,0.02056887653542176,0.0009866190845576601,0.08549029003590693,0.007071527794394777,0.0018865410577648541,0.007594757197379739,0.012892014041704994,-0.1345271092263924,0.011459356010611052,0.033974055324002835,-0.013739623488318448,-0.07392159258450894,-0.009545398946536318,0.053658133118659586,-0.028971547861940734,-0.10059630589988625,0.027953377858233538,0.03274632337437922,-0.06530799087222437,-0.08079371051305488,-0.020601020606712952,0.05782734004576231,-0.1972100416351241,-0.07776712362202225,0.009148544591861334,0.002471485681693918,2.0
27,0.062299980463940356,0.009948225463115095,-0.062284067845658986,0.009571268214308698,0.020719716863327714,0.0019439822061348988,0.08168328150862794,0.0034720214621461803,-0.0013215104732227725,0.00929395863871525,0.017369802833417155,-0.16398295956943207,0.005084293470342639,0.03765383593237474,0.00014651587183036235,-0.08300035990851001,0.02903517460101406,0.053315473790170306,-0.02420587841473786,-0.09011197089947365,0.06385235830811382,0.06751913098881433,-0.06474122879116594,-0.09180659559308547,-0.019676877867534987,0.06167881759136797,-0.21209720446028305,-0.07440851233478825,0.00670615702988045,-0.005422583350964103,2.0
28,0.049485677676326306,0.0030763053249375605,-0.04966672803824224,0.00916219300667773,0.019856405008542608,0.003935866656462808,0.07960384405423866,0.020182775445807516,-0.0004674859200862049,0.0068233957668232745,0.0378926986863963,-0.16082185180604652,-0.00994413876515946,0.03178219744269694,-0.004397210399757515,-0.08098658218741966,-0.00357640478018855,0.08083544061842615,-0.021475074297757822,-0.11278224655787439,0.025256067529288006,0.06486675301318273,-0.05888067032200423,-0.07832320084875508,-0.021488675104804213,0.04931816815258636,-0.21730679309483125,-0.07372658920920647,0.009006054371587685,0.015412469050936408,2.0
29,0.025595194479030046,0.023714176348167092,-0.04246316946052954,0.021945381245695963,0.018523723612984416,0.0034960591420661806,0.07053230834731714,0.017943306197851148,-0.0008265004512599583,0.007990214737297469,0.016927360221440625,-0.1349266155969106,-0.014541139030501582,0.058204195907994555,-0.0035330014781052646,-0.07329840145603815,0.0019858604984629514,0.03543386009190118,-0.023049051259228372,-0.07838322503829045,0.023835651449733538,0.021255303262874684,-0.04963952182920145,-0.059062502975867306,-0.01939836459491449,0.05467284164967237,-0.16918362477244278,-0.0832787975500181,0.007580610284751294,-0.0017807970265391287,2.0
30,0.0408176747979266,-0.001492283745284399,-0.03666365857070481,0.01100253724615319,0.02620895085259033,-0.00026003837312934657,0.08251509727218516,0.012760889848967059,0.0006815986337620984,0.005144264847183543,0.03315571742907967,-0.1656708278070531,0.00013201343006921358,0.022793521058204053,-0.031429909124967015,-0.07061163958212173,0.005414754647155642,0.051103397590540646,-0.01564395575183572,-0.08837203591677754,-0.001812076797434272,0.06026173656105775,-0.04400535861039409,-0.06250125990697399,-0.014297441008078882,0.06080097600605052,-0.18930265378695613,-0.08402601969212997,-0.003612774617165856,0.0022443804313105093,2.0
31,-0.00020235101612207644,-3.9425668855438255e-05,-1.0478004227638605e-07,9.801896161409895e-05,0.0005625047987898363,0.00024311602232194554,9.962470079881314e-05,0.00017298381911661656,0.00023648461086519347,0.00028997619506491534,2.2358535229078663e-05,-0.0002586068004859382,-0.00031060030060928824,0.00024458095206022324,0.0009005438542945819,-0.00039153451852934226,-0.0004159096538385099,-0.0001746831636473453,2.8844775596976736e-05,-0.00020411877874831276,0.0006816658742602317,0.00031571317713485867,-0.0004845585536998474,-0.00029172256979146467,-0.0016074484357275836,0.00014497634057514266,-0.0004193061384908552,-1.8624415571723843e-05,-4.4951967878664826e-05,-7.092871262075332e-05,3.0
32,-0.0002385482915604311,-8.574328275764145e-05,-0.00040242254443670925,0.0005538007477271178,0.00045228846600644666,0.00021839452189125963,-0.00010949778086467488,0.00022519442668422795,-9.062982211960456e-05,0.0002830565461663238,1.5752781632311492e-05,-0.00043005763156545436,9.551555141891371e-05,-0.0002772812727994931,0.001135969078180327,-0.0003303896371200764,-0.0002641477447488057,0.00039860422531005793,3.1489855393207265e-05,-0.00041088498623933974,0.0008279141659179516,0.0007752977500258231,-0.00018887918770434223,-0.00047766517018335347,-0.0018611602607778856,1.7350278445666296e-05,-0.00011008132044520961,0.00026762153203943926,1.4080862830400488e-05,-9.191014348727835e-05,3.0
33,-0.0003437114650054552,-9.313739945596792e-05,0.00017093810059596557,9.642936043523693e-06,0.0006636146671205448,-0.0007052522957905275,0.0002740845870255706,0.00047733446478118695,-0.0001908323412999832,0.0005249625099441563,-6.800053520447579e-05,-0.00020667784938103109,-0.00018818257112817753,0.00013843043848397085,0.0009862437403739546,7.995569111790672e-05,-9.781218990757087e-06,0.0003099571344382773,0.00014049687234083652,-0.00020076052877120789,0.0003378044347055151,0.0006870880429972304,0.0005373564791340703,-0.0001821808685253476,-0.0018074691413398109,0.00011573059144600336,-0.000210960082661429,0.00013148664929720763,-3.0566452689338325e-05,-0.00011191864079261777,3.0
34,-9.258653670050153e-05,-0.00018823280277659044,7.802383488325019e-05,-0.0003044875935076207,0.0007031030577771725,5.1913960868698006e-05,1.4847002808235783e-05,0.0002990282579910608,0.00040932332070589756,-0.00030687104892050676,5.602814696961638e-05,-9.101589292488745e-05,-9.843887753416756e-05,-0.00020725193336578306,0.000469616750568362,7.460337988173222e-05,-0.0003342482367908075,-2.7030883061084376e-05,-4.995352949627092e-05,9.17166733489335e-05,0.0004687512647931037,0.0009596433590827408,0.00015888369451599554,-0.0003185296600136751,-0.0015386315029540833,-4.485150991917912e-06,0.00019019625562003277,0.0002735224494436507,-2.4078368405312823e-05,2.6225841824744466e-05,3.0
35,-2.3471038764850656e-05,-9.28435445362956e-05,7.944760089160272e-05,-3.222181302152601e-05,0.000303073139288397,0.00013038344241044392,-0.00016691894259267788,-9.129846907665415e-05,0.0005085179139020922,0.00036891176486052553,3.9165975327545366e-05,-0.0001103758668007082,-0.00027806344017779173,-8.23935475776876e-05,0.001210846614484701,-8.936970747543105e-05,-5.1030863495822986e-05,-0.0001375104385432238,-4.979886338298028e-05,-0.00035394566415126945,0.00018909427996305922,0.0004980984283741939,0.0002427530229297313,-0.0002799339417045513,-0.0016049824178595831,4.119303945888215e-05,8.063944485126666e-05,-9.169132231304656e-05,-2.4886202682630152e-05,-0.0001872852165028317,3.0
36,3.6718223549846816e-05,-8.321279085583574e-05,-0.0003154793736285494,0.00019615234294916538,0.0006082861538297721,-0.00010726765828046567,-0.0008243552716157651,0.00011327043601655506,0.00013540908653635197,0.0007749320014201562,-0.00024626128114841586,-0.0002690955757928295,0.0002541639743355022,0.00017914901007679763,0.0019554540878520743,-0.0005355036439447336,0.000603103431186206,0.0006812692568678235,-5.986732862200004e-05,-0.00033076905345487563,0.001132017480241845,0.0009049326293668911,-0.00017112195610623088,-0.0006365952834686549,-0.0025667162128469425,-8.214440499102008e-05,-0.0005250910849221713,0.0004842784169298482,6.68953154085089e-05,-6.366029916363347e-06,3.0
37,0.00013301700566350344,-0.0001563461291950945,0.00017194007116713174,-0.0006281604918843414,0.0002691721833505699,-0.0001853346273619956,0.00013163301395718353,0.0003504972784323249,2.6818855645274665e-05,0.0006383646302706759,-0.0002457676000190923,-0.0002834060915256163,9.186302932067013e-05,0.0006050954228345204,0.0013632574008446184,0.00024010131173294292,4.787312442609847e-05,0.00044291469625242494,-4.707297114666724e-05,-0.00031567340278597567,0.00048434297529583294,0.0011574970507914686,-0.00010984728169349746,1.6053871202146815e-05,-0.00183284275775405,-0.00012769574088874447,-0.0002175325122554012,6.170918294631988e-05,-4.5021765503572155e-06,0.00011825682780876907,3.0
38,-0.00027372565563804684,-0.00016574332985567065,7.139397108143887e-05,7.326842050888657e-05,0.00041815834873869446,-0.00010594477447230088,0.00033453300011750163,0.00014461899821202612,0.00017526974622008632,-4.3652880642344836e-05,-3.253186320000949e-05,-0.00016376475739193698,-3.4388156312108375e-05,0.00010943699010981243,0.0018185585412913614,-0.00017417245744330643,-0.00013278873926492716,-4.4115020619774965e-05,-3.097285694039689e-05,2.0654744059311064e-05,-0.0003704753372475741,0.0009227339814878025,0.0006134150484918131,8.02576766318547e-05,-0.0021306366069647393,7.392952634835373e-05,4.7092375498025817e-05,0.0001070796888790485,-1.0687222725228888e-05,0.00011559043280300064,3.0
39,-0.0005300232292591571,-0.0001115069259615499,-0.0001881652105453374,0.000568560594940331,0.0007735803835399696,5.171190210314059e-05,0.0002494571603683597,0.00037684833882477373,-0.0002582731448287148,-1.6002322320043164e-05,-0.00016340245418882088,-0.00030586518533327986,2.170507546242597e-05,0.000458206132645627,0.001234547215973294,0.00015364323499752352,-0.00030273594998384554,-0.00021456450828635635,-0.0001279808388785072,5.419520351431189e-05,0.0002934946027029995,0.0009552960222510533,0.00025657495364806815,-0.000409055712825527,-0.0020193292904039043,7.973678169275565e-07,0.0003856752356085987,0.0006365992169274321,4.5603792765277215e-05,-0.000522359789631861,3.0
40,-0.00017217810314498324,-3.37314768675168e-05,-7.642047257281641e-05,0.00014115148355503171,0.0005775530336871135,4.292250887066108e-05,-0.00014818329924101885,-2.547980496727389e-05,0.0004072623258311235,0.00039205408596767224,4.095960936552595e-05,-0.00026980744859829284,-0.00022207138260698075,4.15059509121627e-05,0.0011339995251095315,-0.0002163444406341129,-0.00023643187209610334,0.00011979792062578744,-5.9012248379024633e-05,-0.0003348363190466721,0.00015365171147755527,0.0004163774276407616,-0.00037923388173828485,0.00026808683161790595,-0.0018060107421817232,0.00015658306874983613,-0.00041133543251879935,2.281240587679271e-05,1.8405123241060238e-05,-0.00013108201142144132,3.0
41,0.0034714330899250144,0.04593937610317524,0.009572699859802622,0.017365536233872547,-0.00690046611206075,0.055286056545965974,-0.040504968420045216,-0.06674634804262466,0.0019894557547194013,0.02069236543395426,-0.0234981656022748,-0.044513191552347085,0.00016733902670188223,0.0041334399694741035,0.13012186804054096,-0.013279130550933427,-0.03956258663567791,-0.07889419838861794,-0.05611456684181038,-0.07674533133725196,-0.005539276672538252,-0.03301728472668372,-0.013017522375185697,-0.04183541399639002,0.008720304068197548,0.011841060679808663,-0.06637420611109272,-0.13459007477307594,0.010837316028555373,-0.01629695145908963,4.0
42,0.03588176887606775,0.041400289215169084,0.01565958866534451,-0.01372408645797872,-0.01247588297377445,0.03579468437366117,-0.05373421850195266,-0.041026033111296205,-0.018353139684714248,0.018806903545777093,-0.013157743982386292,-0.06233731966044912,-0.002170579937063918,0.00920121416078779,0.11984303839018999,-0.02770792521642686,-0.07338290502681814,-0.09762016537573683,-0.025636383398867056,-0.0805021278869923,-0.029848720935815788,-0.025662949301584498,-0.00947175982897283,-0.0361935255458787,0.008102067901076208,0.005692340280923576,-0.028026442574625696,-0.11262290842478744,0.008238761672053795,0.010962724206579509,4.0
43,0.00785667158560501,0.031683709392200464,0.01647381905652955,0.00812437276460825,0.00208610057582072,0.008678778999712485,-0.026289497683436858,-0.042531077244621934,0.002537982344358238,0.020564992380333866,-0.014420960515538985,-0.07295158256165975,0.004691221163298826,0.009315040882637371,0.15784143444513007,-0.02559180899835417,-0.07689098961728293,-0.1013721807813925,-0.012614994795928019,-0.07593614336445875,-0.03061059980488344,-0.017310065296487983,0.0030050253536423447,-0.03721713894563027,-0.001131446461159388,0.00754308315230767,-0.06254262235004131,-0.12040687458089606,-0.0014240887003763752,0.00036443563982710815,4.0
44,0.0075679458739017665,0.03742120065025961,0.02440713757798965,0.003963133675942339,-0.013114062217732956,0.04351262470604061,-0.04801347488686678,-0.05214887784565229,0.0014880782739539872,0.020852398496476073,0.006137539479034354,-0.07671888230228877,0.006875714908946673,-0.0014563298770012523,0.14841803414625251,-0.03900387817263267,-0.06349024534741728,-0.07999469331439436,-0.04112787215107536,-0.0800892753135426,-0.024443355408250322,-0.025464959395096246,-0.020534248029761788,-0.026796089386196882,0.006046037450464831,0.022361830795834155,-0.056439839276227165,-0.12112263710468867,-0.0010048421222000872,-0.012148684655775815,4.0
45,0.007296337277381515,0.049312468807156354,0.017106189848369497,0.003426692558242545,-0.005338168564358264,0.048970713404996605,-0.03367508310439332,-0.04750984478205963,0.006498195210820833,0.009371029186766258,-0.016903126578978907,-0.06481646654912589,-0.0021736753445906415,0.009273222165449239,0.113772839185444,-0.04502854551770683,-0.0578559256253227,-0.07981845041204468,-0.02497950552406519,-0.07539942209298386,-0.014635691900622479,-0.032217108850698735,-0.02446937127599729,-0.03178577135675665,0.009666144465541381,0.028527914436469987,-0.040369048715823565,-0.1368541976932926,-0.00459166319537686,-0.021798844825489702,4.0
46,0.0036343476930798158,0.03649676388606101,0.03501011300224849,-0.00011183518239988488,-0.01187134110439102,0.03170097802052726,-0.05090859849576161,-0.0582289741419202,0.002881083635659825,0.01612546322830706,0.014751246079082311,-0.05766267214557979,-0.009967928796089678,0.003902393935071089,0.11725845110220313,-0.011428762161476631,-0.05452337068325098,-0.07192241258721495,-0.05866692610691229,-0.06558526366754958,-0.012999076784044902,-0.025642904358427546,-0.03985751968913386,-0.032380949959161534,0.00922654904806394,0.020002898368374454,-0.053878799865913055,-0.13170825687289675,0.003751704276737966,-0.02578931224783705,4.0
47,-0.00039150860593260487,0.047328888581103026,0.03495450858075105,-8.712738107168366e-05,-0.010986021767120371,0.057348723993393656,-0.03264906539890877,-0.04370307126138916,0.003616648369328022,-0.002527687446220456,-0.011480267225375974,-0.038583813032463526,-0.01275835935453038,0.009972498591764918,0.11593853534382392,-0.01674109281974127,-0.07245612274734725,-0.0690210093788744,-0.02621636083702589,-0.08247449669313134,-0.025471392648024227,-0.034002002591564294,-0.009549963129022364,-0.03545899150057008,0.019008716370838664,0.02171578262942881,-0.06788451039742001,-0.13008365826087676,-0.00047266111505890043,-0.03763658676754596,4.0
48,0.012404467263541639,0.04825599723258048,0.02118495867137564,0.0024703398688817107,-0.014207699322196265,0.042776794486517035,-0.04575040087688205,-0.03840044551514388,0.015622363698825576,0.02624608990950056,0.03640722295927216,-0.054736921016270486,-0.028387249013680876,0.009915599845229777,0.08566594359383412,0.00483046619726434,-0.08765216925945366,-0.0849778139207039,-0.023129533393744395,-0.08275178905792259,-0.03376204320933479,-0.029422734672919094,-0.02090828885969482,-0.024437128538006784,0.00958951410950125,0.021633437182222597,-0.08410664359435513,-0.13950921851965598,-0.002625787377549936,-0.005418865808432877,4.0
49,0.00818645470252448,0.04838457432429392,0.031216498617680728,0.0008966629605545666,0.000414413578855639,0.05282969865417076,-0.03522613038582453,-0.057676412761538266,0.015700729446353923,0.004343349482276332,0.0036411696580976585,-0.0395382531167087,-0.014288992159102235,0.00777524353651192,0.1262789637635021,-0.05324779363821053,-0.06920854478514529,-0.07341069492365447,-0.056909602485730876,-0.06366824730009031,-0.03523046868066001,-0.02854138899214981,-0.012825857170614624,-0.03249146883245261,0.007280928805140405,0.006791941809410777,-0.06912193622632498,-0.120628219800051,0.0001014564475540303,-0.01478287237222491,4.0
50,0.01779446860393274,0.042717756867413845,0.030464551764967734,-0.013646813576272994,-0.022448788955876053,0.05055351892703478,-0.0410647104220729,-0.05356431835023543,-0.001923450724223398,0.0581301983160879,-0.0036464609988795943,-0.07070599309715071,-0.011848852586618084,0.0093470649216901,0.11597836474428148,-0.0259117024365411,-0.08372318607915055,-0.06413496028758682,-0.04285601552574719,-0.07666477932987477,-0.02639988166533629,-0.022230009911227408,-0.036381336423818494,-0.02163573359168694,0.0032805051950046227,0.035252842720296614,-0.0759155343769679,-0.09812194948346827,-0.008404322956110863,-0.040391906780521104,4.0
51,0.009648658779978286,-0.019266835702411486,0.016756324066973673,-0.029697323149800007,0.032359336719455886,0.045043111230290186,-0.011736152450941319,-0.007871206777956169,0.027711730571691368,-0.09610437698634892,-0.05976867618553497,-0.06399357940852257,0.011168675801742188,0.00531247769473184,0.02998508601322714,0.026860096876911155,-0.005678766115167427,0.010419068122245483,0.0029133703562747347,-0.1672362812881802,-0.009940268178243129,0.06629431593553005,0.038137692981794334,-0.02167832692487227,-0.07979262261685016,-0.09105252786524805,-0.028943109535007443,0.01629605325792565,-0.010491256886402556,0.3585376910413515,5.0
52,0.02094824907427931,-0.013315043597409577,0.005780847466457784,-0.033964886737408884,0.03636576290954387,0.03193338663912297,-0.01788999223428132,-0.018915721716308665,0.006507294484516779,-0.08712602649528874,-0.07149377958419596,-0.06654369985476317,0.015543369042266516,0.008269058959941846,0.030857506682998512,0.015777756970491757,-0.00017786941594557815,0.03432848682114463,0.004379927652784619,-0.15010741996945928,0.016218318834023367,0.053872437622224004,0.028587558869807028,-0.020734021706467858,-0.08081562730218846,-0.08810709566418728,-0.03470307019477779,0.009735696202791258,-0.0116557836490249,0.3573459363834786,5.0
53,0.005769853610387827,-0.022678332159203392,0.0002613138016683064,-0.014565246236621353,0.013395492195610639,0.05018270641104774,-0.020875952402293025,-0.01379318914003727,0.01988740322642373,-0.10693035893362696,-0.06776668358214928,-0.06848947843206916,0.005049296755743721,0.014561448320167907,0.031151772133390203,0.02695910249399721,-0.015429383151650537,0.028747431337291057,0.003003020203266045,-0.1310335979876389,-0.003883430605333089,0.06073759805311453,0.04088373301789441,-0.016559607432703793,-0.07250276168814071,-0.10808235588607643,-0.030967677658883603,0.0026530038176347313,-0.0024422727547476534,0.3624136091583103,5.0
54,-0.005438685108445472,-0.01889361111854268,0.013753247308730126,-0.01628971312731541,0.013912294865697809,0.03347162104222286,-0.016741024961115642,-0.013514941660373427,0.021716919019178906,-0.06957400553304964,-0.06475237046988214,-0.06637677863609254,0.002944672367631682,0.013303010490576736,0.030640463780939296,0.021957958579432054,0.005494816539867283,0.01804359392850725,0.005991302531024944,-0.16500432735017806,0.0016727551386305323,0.06603412322710629,0.04749517677235735,-0.019806773476710986,-0.07488765207054526,-0.10580604286019833,-0.054924808490365955,0.01829165044218712,-0.021478046899737067,0.39486883938645734,5.0
55,0.00044258801046435773,-0.018545113826181254,0.014563066618464734,-0.02728254502099033,0.03700462235804195,0.020737595853227403,0.002576282467654896,-0.016380737620945125,0.0025167474851341596,-0.0912639504204667,-0.06975090170535016,-0.056708818432656065,0.008938543435866371,0.0068755752678403195,0.03182485569868692,0.01743026227840856,-0.012533073302676825,0.01832729849053625,0.00289791343055403,-0.12824516639626232,-0.01755357853941821,0.0496799702875318,0.060204425813977114,-0.004368053149767074,-0.08185412797425605,-0.09682145558875797,-0.037958193192154564,0.0059556270211487735,-0.004391812870278373,0.36090015932978176,5.0
56,0.012344064960253847,-0.016031028298881547,0.02181369687853744,-0.039063790656501896,0.037606526828647964,0.0339691726452863,0.0024048361796353583,-0.03496973859146225,0.02270992420316205,-0.09162878838403184,-0.05573940099726193,-0.05926524772467893,0.005764942989581923,0.0055834408938245,0.03170136712506951,0.028174369946944472,-0.006004576772868599,0.0260372074746905,0.0018521631141658942,-0.15591379900688263,-0.00155664911788914,0.05351906358319448,0.03750310020710697,-0.006337981562368299,-0.08236481127509618,-0.09909033299844827,-0.04359926074570378,-0.012677923796540843,-0.00628757605056985,0.37311217446662076,5.0
57,0.005383605872582952,-0.014551579991609078,0.011117393264505032,-0.026641195034466394,0.026075707104680428,0.04037428348437323,-0.014225982692920454,-0.02425831367035354,0.009313735184928965,-0.08169315058073318,-0.05640857566331591,-0.05506339138687489,0.0044058349803673385,0.009167564246459358,0.03165982734305124,0.022135097295576073,0.0024213534392863957,0.009269513396958839,0.002328526182211549,-0.14664022425977075,0.005376559565082874,0.047163279014785016,0.04770814962558938,-0.022677899734495622,-0.08147034715535845,-0.09576736855821881,-0.05352741808563186,0.03704232054235617,-0.008602579240591999,0.35357437412750214,5.0
58,0.01793693786298125,-0.024584799090475683,-0.0006678034961051098,-0.027755873298851177,0.028106765559030987,0.041304735028555015,-0.01018980269748431,-0.013100400764844868,0.007286557881644012,-0.08919080217083017,-0.060015989454770595,-0.05703120964676482,0.0017219584456916175,0.013600808620540097,0.029949172790339026,0.02782888437888716,-0.008659097925935893,0.03436773560282205,0.001438533826751692,-0.14288003364899565,-0.007072115756054332,0.06524657151354928,0.03874265217276568,-0.007438005668055348,-0.08034131719658122,-0.10744976962504649,-0.03387293197748221,-0.0005570685584832238,-0.00453657678760105,0.3605822042067772,5.0
59,0.007558874880615749,-0.030142423131713218,0.025173045606237635,-0.035835038146343534,0.015608545388630653,0.04099580069449727,-0.01700512094922692,-0.03451173884841208,0.01715270477117723,-0.08934715532040327,-0.03820421596575348,-0.05857584496352061,-0.0008372916663229816,0.01022337012397597,0.03127438907630897,0.0199080562373422,-0.011958849661392287,0.02567475728708986,0.0027839142454777785,-0.1420538153181515,-0.009889762052075264,0.06430869736568386,0.043620643019712434,-0.024649804496918004,-0.0707499843353321,-0.096473300966227,-0.030000760733338513,-0.007338295171761575,-0.012738141453149133,0.3865930676323382,5.0
60,0.02261618108169215,-0.02204164358629501,0.010088105528382981,-0.040284990966755675,0.02628345308492598,0.05616553771977419,-0.02438695692558468,-0.00618359205499535,0.010179862415269018,-0.08987696968463649,-0.060746944408734814,-0.0469249751340122,-0.0020545408116126773,0.013754637182853543,0.03173196951169761,0.010573992051229516,0.007320966272839344,0.01869616060684196,0.003985090872049449,-0.1508493412306141,0.007964844570068325,0.05663557370116673,0.033063343469374916,-0.015590621979291794,-0.08878641003848253,-0.09287441256319405,-0.0447960315658414,0.0021710576034698224,-0.007333934940189873,0.38817193455549065,5.0
61,-0.0015811906475764355,0.008601999806719775,0.06029932683255,-0.0318982253899198,-0.07814233646367742,0.06725195985103201,-0.04886577975595442,0.5660721013434826,0.09803246967736005,0.1023417144389193,0.1770185162433228,0.008749419088301772,-0.3138772129408427,0.2537493146829334,-0.15869147721253252,-0.04158871772092292,-0.17182852918582214,0.6570810748766617,-0.07707469770409023,-0.10671129427980053,0.12250606887671668,-0.007272618250740217,0.01656931183841851,-0.2121853203585483,0.040210700012248635,0.09373161052287479,0.3011602709785823,-1.4366052719302298,-0.0702476846659101,0.019752748836634956,6.0
62,-0.02567441024854329,0.010743326813165312,0.05850789833919064,-0.013256660039892329,-0.09350809326550913,0.062487497193333075,-0.018301951986690948,0.6070626644430652,0.10303034798549103,0.09739658648257282,0.16061112243173023,0.00948835396937788,-0.29138794091811293,0.23488295684951385,-0.17591705680535688,-0.040432225614537846,-0.12188310626621889,0.6466561083487378,-0.1327419697003426,-0.09588942049947038,0.1593526878018431,-0.038657623851068953,0.02917369019735301,-0.24601155073921885,0.06277449081536492,0.083291214323467,0.19076004252872933,-1.3824257935382742,-0.05214935572064949,0.010622269947668265,6.0
63,0.01701568370236162,0.01159902413847785,-0.01724543831399086,0.038241040384848955,-0.09805409556187378,0.0937817546936381,-0.10250407423861346,0.5070041620823603,0.11971254380419788,0.07774724051565846,0.23860969182929634,0.006628967172587376,-0.3097763843209079,0.22181101373690143,-0.17769179744808725,-0.05224264100825215,-0.006769596640724401,0.5696607412502075,-0.10396711009429443,-0.07465894424671907,0.04811666651559863,0.0035927344910490658,0.03765664754761416,-0.15692170473960848,0.06318114920160342,0.06410128094940332,0.19450072974406069,-1.3423239176313366,-0.04695807078461552,0.04682219586946103,6.0
64,0.016966367628998447,0.015836820724153006,-0.02865140806329618,0.028550001176707022,-0.050964915882440565,0.11950898837951951,-0.1257829827557262,0.518774838238119,0.10613444343597345,0.013902204844767898,0.2815684329315599,0.011162588444038883,-0.31406330763229084,0.2044542704643221,-0.17735945953086632,-0.07617404900992414,-0.1447381303486924,0.6949090288571167,-0.06682259112613824,-0.12993159655076233,0.14691174798148476,-0.04577034170262536,0.0017512235029554144,-0.21068812345495402,0.050309557591751305,0.12886131660282743,0.1983094461687046,-1.35395098662646,-0.08951336155686378,0.046569071046844324,6.0
65,-0.01773970453001583,0.014493786521140719,0.026370889212846145,0.0023778962250382073,-0.09274837164302048,0.1601084960567373,-0.12796154702396256,0.5604043720678568,0.11088171558830255,0.03688991489850265,0.218387641390951,0.01084460981628779,-0.3030564597296235,0.22509153233571066,-0.19281596643295734,-0.10013545149807188,-0.0606145426053323,0.5718840387712517,-0.10194282025262545,-0.058283272124492226,0.12060714689301233,-0.06692101343979821,0.06605165231858774,-0.225710455987909,0.04799177880855383,0.08319592427714231,0.15875390090083033,-1.3592576059237682,0.00448666181808756,0.06482517349645338,6.0
66,-0.05385959748480783,0.013263915376868177,0.07167345648582849,0.0004692110386510584,-0.1367487025361882,0.0835605209860501,-0.07956804751513262,0.5649875463083106,0.07241307345018193,0.1471944788575114,0.18570874281376382,0.021149701656627367,-0.32084284488805914,0.2539144845088002,-0.1589739216080217,-0.09200821696856556,-0.04931469778181176,0.642480391754089,-0.12448069884061891,-0.13093363924226664,0.11794132340388674,-0.07574500638305247,0.04197037869432841,-0.20336047165292453,0.05331392190628255,0.09862923406011484,0.20390598094247958,-1.3745385487371604,-0.033998470472103505,0.028194038620532484,6.0
67,-0.045868599889265456,0.007887900811706238,0.09024752574732316,-0.02122106630809259,-0.08855381163207016,0.05754882346584715,-0.04066375131019266,0.5485291414311292,0.0902564616469694,0.08852414770437461,0.11209275757716006,0.0038226656721141164,-0.2810905950120722,0.24855739604083474,-0.13047847032073648,-0.07040911137417576,-0.06479537972515617,0.664431158477765,-0.053755421362264764,-0.13046614446047328,0.10175901641492038,0.005431017993072593,0.08823492310322753,-0.2357583720904036,0.04876047751169189,0.09309108142494854,0.2110800477757206,-1.3863314601394943,-0.04158632180503401,0.043426644089281555,6.0
68,-0.020254182471704137,0.00713527553915687,0.006025025034066316,0.023094711098293245,-0.10521577401158375,0.0210103015471593,-0.13766309632591328,0.6683328014667704,0.12760805752757692,0.15245198142736233,0.20558728302559917,0.007613746012620938,-0.32712330281887475,0.24706019531505422,-0.19240317640037424,-0.06914211051621355,-0.0382483799721934,0.6518113546406127,-0.02536288673210252,-0.16185599498403608,0.11106770678419838,-0.0198671173532247,0.11239142892790799,-0.23583065358085867,0.03641992234728531,0.14520651466172102,0.22102951578760946,-1.4353494579040924,-0.11076253667458957,0.037103536146852106,6.0
69,-0.013899394811034936,0.006784847624625245,0.015296919913496578,0.008741276321064792,-0.08919556874150457,0.1617165511983513,-0.11570704536104807,0.5294532716195814,0.06603276783528039,0.00788790446243606,0.2218958198935846,0.011453126628859427,-0.298146075516987,0.203622708461503,-0.1774224174197167,-0.06323746244064707,-0.06731381694947428,0.5984431869652083,-0.005338656554879908,-0.05663832033419611,0.12677327272194425,-0.033031217814722076,0.01023581072395969,-0.18039036711409748,0.07211168744078282,0.1098745288638028,0.1695043072440111,-1.38445663789561,-0.07535916552084752,0.04704329831534652,6.0
70,0.005661017405647664,0.009682832151572052,0.08145410986672338,-0.07757735611507746,-0.11316239208039294,0.13391471569185284,-0.04829009376755142,0.5609197838101913,0.06996198303907518,0.06527103841817156,0.1753662840845269,0.008245006887519156,-0.3280444806755793,0.27884812211402765,-0.14863422593720993,0.027674330060795393,-0.02333942377081911,0.5497650227457272,-0.13543416879633796,-0.10302395806079222,0.14025163879872363,0.0021062842047784146,0.04657152234119916,-0.24782061762558003,0.05877363146716151,0.0272507465633853,0.1597176961388178,-1.3650598157038023,-0.024765778653408864,0.08524266510712161,6.0
71,0.01175517538948845,-0.3578838862033914,0.3056146307488247,-0.20364870216231917,0.014531975437366115,-0.044407734872189096,-0.12678172643293262,-0.4886364115913628,-0.1686043742921127,-0.07010972237017732,0.03127632869819948,-0.06110207870106174,0.1407606196640887,-0.09356907767684591,0.14411673186740134,0.033684752127110446,-0.006854276100763221,-0.2301948660707569,0.027142007185178205,0.09776679156623026,-0.5166604086098723,0.31862714507272905,-0.11779382287648614,0.38126487172679785,-0.1490008014849996,-0.43353587783237607,-0.22377290015916426,1.3907321043644794,0.5349923461784364,0.1990758316965002,7.0
72,0.05042057666349117,-0.34143333492855243,0.28559354983315827,-0.2296695473498362,0.03955221598241838,-0.04892203119403817,-0.1583603202465294,-0.4588631148853023,-0.22952125879187432,-0.15552951978107257,0.04467792570274331,-0.0628000616944817,0.1571677293313734,-0.15055720255655777,0.15610394471321498,0.10906970741635866,0.034618925473927115,-0.3149888504168188,0.02026731264090232,0.09713018576000614,-0.5080717441744698,0.294985373087485,-0.11643437196774627,0.3809220672967621,-0.16712698917622976,-0.5223983164486593,-0.22639187352123233,1.4577740238016617,0.564899633398926,0.2548085317901515,7.0
73,0.0964314822739006,-0.3465146894441338,0.25050540624090345,-0.2492857847139287,0.016456306820851856,-0.061360377148662285,-0.12939570589520716,-0.41610961473003316,-0.20574946460137333,-0.07095411428044347,0.05737181538697805,-0.060102966864848,0.07465421545725198,-0.09665515968158375,0.17071727269719997,0.10680766623022146,0.006230904795774215,-0.274289792508407,-0.00733150618230571,0.0829605059846536,-0.5420214744607225,0.30620786185583343,-0.01588525737387028,0.3064488483636766,-0.14808141104175385,-0.5037108408362297,-0.22659129256778748,1.3950360890263473,0.505287542351849,0.229036386748218,7.0
74,0.05139673869932642,-0.3197745826877012,0.23270619164272296,-0.1749038462786146,0.02210400070342809,-0.07833476666144978,-0.16059521664943158,-0.5016011841772,-0.22282029821248822,-0.06975881116223892,0.044458352518105065,-0.06123248104407887,0.14433026646345626,-0.15538438067387506,0.1585597900486287,0.15316011358634388,-0.003424736615057653,-0.27984247305843196,-0.0003775352371326717,0.031847604227906806,-0.4805280345360049,0.27566514462006586,-0.12260062318597496,0.37553806254029887,-0.16398096287302946,-0.4629207974587538,-0.12778730057695145,1.4180286945658211,0.5570382303046797,0.1545306833982146,7.0
75,0.07229724525725077,-0.356660883753405,0.24360443750562635,-0.18969590783294699,0.048549556476019017,-0.10103108926952693,-0.12827549222859452,-0.4510715941573687,-0.15611518864947482,-0.03834496846578127,0.048118213540746926,-0.08751329459241484,0.17928010992153834,-0.171794602446718,0.1492205291698262,0.07836856706449036,-0.04716446769082083,-0.1913589997835916,0.007479944668823634,0.06891490958955536,-0.5205549015802223,0.3293865156713205,-0.11849295854814959,0.3718483191992159,-0.169763346762189,-0.4024929018639495,-0.27060255482797485,1.3620737675892993,0.4791883028555409,0.18975400037096876,7.0
76,0.10239678913165466,-0.34663684676409406,0.2912661300549939,-0.27246535005971934,0.0368708819810592,-0.09549672855054463,-0.15867453432646952,-0.4664276051410779,-0.24458848158290078,-0.021795451715582618,0.051044755245823824,-0.07275607620538564,0.18240248654043242,-0.18420887777821685,0.17245292134558735,0.10339034045676039,-0.030210800550731273,-0.25853424874591646,-0.010928316668076116,0.08744227134893041,-0.4837654474307041,0.31186910360120834,-0.13792461398997025,0.3717561143173874,-0.17413779634208118,-0.40138819394655184,-0.17569089699925122,1.4165368655309456,0.5633759092682757,0.0712722654907572,7.0
77,-0.0010448789133310444,-0.32624002070916386,0.2663642577492915,-0.146881325311402,0.042074746770847264,0.016135653621525817,-0.19464088890460352,-0.4697164644190717,-0.26007599835484874,-0.12567739656645907,0.04750579619059255,-0.04998009944767949,0.16796768903989673,-0.17951626463959217,0.1413508791313143,0.05442984479945422,-0.006518243976927761,-0.2848864255181231,0.012672505971542222,0.13474966918711043,-0.49566906443510345,0.28210115017048354,-0.11692949052619679,0.36009111277475864,-0.15852709226590023,-0.4106705546130815,-0.2354451596608391,1.4732798460999998,0.48950560839704105,0.22812686059979959,7.0
78,0.09075753987380458,-0.3808292780642091,0.24433841329534847,-0.21238278933209842,0.041900371331499146,-0.13315070351792868,-0.16605612445572926,-0.4297795289710808,-0.18306473136745194,-0.11806821608697837,0.04682190862254328,-0.07392650256100398,0.19407875411220177,-0.1812645681615737,0.16076081897282554,0.13663127265621033,-0.05890119943238708,-0.24761928250448656,0.042483515753410556,0.11357469296394793,-0.5477363649784392,0.3247727627032888,-0.07701151330541915,0.35765786551074147,-0.12235510435793959,-0.47404989054082475,-0.17437374529942,1.4120608015737492,0.5034510647668594,0.193623173629569,7.0
79,0.0751530625696727,-0.34406171275114367,0.2474407515341246,-0.22172277126480844,0.023747684563792025,-0.05941226863609338,-0.15299126316798126,-0.4033917417164858,-0.20884681785169193,-0.14408312924679262,0.05545878597699809,-0.06309733114994501,0.1746397164471113,-0.18743901652078268,0.1770838522702768,0.07026273394449963,0.017948030253328025,-0.3124869849221609,-0.006741490498180878,0.1402888745268877,-0.538580081182907,0.29260580511974066,-0.07513769090827029,0.36851950230317987,-0.16031356676396266,-0.43992541393395296,-0.15515301143457075,1.363969097278791,0.5018383477284163,0.2120547868315214,7.0
80,0.06989984992193322,-0.30480723589349573,0.2522893198754139,-0.2216554212511521,0.051539084486418835,-0.13691497487852922,-0.14907377875175962,-0.43923559330917045,-0.2106967304542447,-0.07990407673269928,0.031746990568156656,-0.06110635918748356,0.165453485403944,-0.13125588259170845,0.14107953202589926,0.062499940718546546,-0.003802443785486334,-0.24333448403258184,0.03344646400667917,0.09095569565649853,-0.5538464749341953,0.281749852958961,-0.05872226844795381,0.363136563529424,-0.1566718949987862,-0.39791427329264195,-0.12736753247538263,1.4253167072419906,0.5151865969150601,0.12520350884703396,7.0
81,-0.013559643642231453,0.003052791953470582,0.01844201082208436,0.0024061317232616417,-0.010462975946260406,0.014785718772443867,-0.03654542521276321,-0.04052752820379749,-0.015435629080451476,0.013287448342265055,-0.009803912461534016,-0.0048787091748395475,0.0031508277176417504,0.0025719726127636173,-0.010778740597772587,-0.0201135264600227,-0.04349856386345587,-0.04102394236578978,0.012053097143494703,-0.0048036326911059185,-0.007683194198535666,-0.007960271700320903,0.00906158708800888,-0.008942046158571791,4.659165678946652e-05,0.017077780120163106,-0.04364293641437504,-0.054371620171850786,-0.0033495397482301826,-0.03746715278852459,8.0
82,-0.016745234154047366,0.0030726591552072934,0.022485457968691565,-0.00019932257560509791,-0.010705809314375637,0.01121206786308883,-0.03397368277534259,-0.03979311872492034,-0.026164473730856515,0.013512449611723352,-0.007818543728258943,-0.005256165274230616,0.0031298877115740146,0.0024926462336020477,-0.0074850470749498015,-0.01791022412834726,-0.045431405023592226,-0.04574227393907183,0.02322701709128961,-0.006237361278588224,-0.00905460278846304,-0.00677671541014036,0.011738601328905151,-0.00485173240762317,-5.8186671179692934e-05,0.01848581889583584,-0.0463846146212683,-0.05147481981452377,-0.00042699112277102473,-0.035921281563536696,8.0
83,-0.019372723206141713,0.004617021880522048,0.022179730034309956,0.0029438333367479246,-0.009411901316668888,0.013162060201050962,-0.03311145462716316,-0.045466427314964385,-0.022475844518739792,0.01803637747317801,-0.009231070070074714,-0.0087707729740823,0.0031325833970830956,0.003133231315174479,-0.006046529432551101,-0.015114860148416643,-0.04327732624433283,-0.04897648806485083,0.008354926650021084,-0.005841058077354455,-0.008113573922078256,-0.010576737145746428,0.00983321331703938,-0.006461851846883777,-0.00023666754033830112,0.020953547670911194,-0.04204759956841433,-0.0446555394486464,-0.0029311852488471007,-0.04130477308139208,8.0
84,-0.01055860099756178,0.0031033474803677527,0.01722527392594211,-0.002516018480917952,-0.008361509154430638,0.01235893816392173,-0.03790132612555587,-0.04438252268169418,-0.02208152428908303,0.011270649219803,-0.013373435640141144,-0.004600382981110159,0.004164263186235517,0.003795943467085511,-0.010143356229050151,-0.017098517975363606,-0.03725074016239978,-0.040779541495629644,0.01902660116768355,-0.010756561324894871,0.0006879169459179316,-0.0077938618610958,0.008757262630308313,-0.010654730947831426,-0.00018691921877507666,0.0167285644131224,-0.04115743964072375,-0.04484457847734532,-0.0027878670860948325,-0.03566227686893903,8.0
85,-0.010088965390397374,0.001635319548752585,0.020944318965247784,-0.003971221654061506,-0.008086604072977972,0.017032259262528035,-0.03829901212895354,-0.045840402695007,-0.02398219155363185,0.008231453445371855,-0.017812955579854555,-0.006749839019673975,0.004930849250546764,0.004215184940817617,-0.004858073539224478,-0.020793997348420534,-0.04041347678919716,-0.03996705417428367,0.02176172486474572,-0.001980138778789541,-0.008333973171353365,-0.0021008174867443523,0.005667945543277063,-0.004547134795337484,-0.0002030424103361083,0.018839558942045077,-0.040872091342270545,-0.04842195935615498,0.0005702255903067932,-0.04152715985357857,8.0
86,-0.01929472398889829,0.003997522022220383,0.021633201232910165,0.002087598316248025,-0.011531500209345751,0.015993055276387124,-0.03607788478816131,-0.044090294243231944,-0.023158781525581425,0.01734438926725968,-0.015011707188563485,-0.0042486224068570885,0.0030340296603462904,0.004463239934603386,-0.014109482568774655,-0.018262122434242238,-0.045688467077234764,-0.03980222075727336,0.018017776887417635,0.005343422299493033,-0.004861259393698758,-0.010936240138450992,0.010112693130716973,-0.003964389295116823,8.10002021876649e-06,0.016925523889095705,-0.044012288570847706,-0.04871209877530708,-0.0006294438797280445,-0.04137704111789276,8.0
87,-0.018977696294098352,0.0025543456825470787,0.021963494185438116,0.002182071033417199,-0.012005284109720968,0.010797737013166402,-0.029665466204710354,-0.043810499202696584,-0.024463477898188823,0.013143566943915266,-0.01517097952811667,-0.000997387103906284,0.003980438800167661,0.005534673291450248,-0.010668971192673158,-0.018452637024884127,-0.04099888056210718,-0.0443354635900584,0.014902485907588182,-0.0037293432241577973,-0.002008085095952987,-0.006558381216709141,0.01034923879349504,-0.011455337877019233,0.000131878829688182,0.01567744392391166,-0.04028068658836892,-0.048193498891827564,0.002192994322439714,-0.035411651564999584,8.0
88,-0.014336289205862843,0.0021324965951066708,0.0232190481835164,-0.0027948109080051108,-0.013184890614438697,0.008476888664932493,-0.033806611165786725,-0.044212457005764594,-0.01910433454154076,0.015254370067289162,-0.010247070549884524,-0.003636282083515018,0.0028729520852424774,0.0053282009443813725,-0.011531098916760324,-0.01776380431071673,-0.04267233814386984,-0.03973444215749827,0.012602568604215545,0.0019733390030254386,-0.008962795693393005,-0.0029845152877228586,0.007981822382161292,-0.004343161774028858,0.0007427018978882819,0.016601847376300622,-0.04077459580089395,-0.04626338753999957,-0.0032133594807504644,-0.04020680709633593,8.0
89,-0.013152729075765226,0.0035135090157910314,0.017626665102753097,0.002166649966304814,-0.012599000957528706,0.006656179844992742,-0.03438219856432443,-0.039074128852438716,-0.014364415798692224,0.01599284636458069,-0.014954429810378988,-0.005006733592889758,0.005323788837987764,0.0021903233443933755,-0.016082149291614216,-0.014644515871720474,-0.039979739306190754,-0.04450147843181501,0.012990601904514395,0.0002179868533360401,-0.008467012343044032,-0.00888881643111937,0.00982666850733592,-0.005849344084984697,0.0007983787147000056,0.017431544552180284,-0.041517764717825485,-0.04810300624988418,-0.0007735056086801638,-0.04344760992909562,8.0
90,-0.022220430709721562,0.0030170720942002747,0.019556505296078466,0.007654419773551732,-0.011580917252442004,0.021649708239210353,-0.03564075713865986,-0.0460133242732671,-0.026885858515898427,0.010150139292348918,-0.010394874127741227,-0.0054377904688921305,0.00575729664473814,-0.0013244712657988413,-0.009938921162198808,-0.011145553247014179,-0.043185508341240644,-0.042649719225349436,0.02030713243398733,-0.0005490858276274229,-0.008082795788091816,-0.00696717613514057,0.01210757583167071,-0.003732886861071339,0.00022768907291366368,0.015566811152865071,-0.04058676748655484,-0.05678788651935113,-0.002369181794342915,-0.037200419634792245,8.0
91,-0.024417064093737794,0.0003456782642096634,0.03209264097793681,0.007326010830928186,-0.008100528483976447,0.021871225091391007,0.014677857619679848,-0.04605509880983748,0.03038341757766602,0.010305429013060674,0.007432498248585558,-0.02658797600510345,0.002666587323208303,-0.0022272804997577975,-0.01643473771217624,-0.022863866352279796,-0.004143263006771283,-0.06823850280769544,0.033722534167296696,-0.00987392724220043,-0.014830232259746307,0.0025404923617035283,0.025290249555755963,-0.02909312323755723,0.01651255076488454,0.021712745730730797,-0.03444013671384861,-0.05778493323942974,-0.12149143939167575,-0.03429027935674921,9.0
92,-0.027932384763778066,0.0040308084631846385,0.02011060833110765,0.017475272374378185,-0.009854039110119053,0.02176974838431619,-0.009098173195807567,-0.060144698349162806,0.026482466739822255,0.0011740434610064607,0.00024406400297656957,-0.017048980208976272,0.0024692706072146756,-0.0008116046335329494,-0.011361358041354502,-0.02828688554581723,0.004469498703743511,-0.07947014696107761,0.045622252602527474,-0.006330710550788103,-0.008067648313948407,-0.009764036403647584,0.028777614339220454,-0.023378754378006218,0.01950474096500066,0.019828362906031623,-0.02835379560565512,-0.021365050740420465,-0.1203776855780968,-0.030682209866284983,9.0
93,-0.03659833339815564,0.0025757071190299313,0.028314815106204254,0.02264743063273624,-0.0010655219006303585,0.026410785366957165,-0.0025657948183784485,-0.07168778496078644,-0.0017091724398030823,0.010539028049506198,-0.003092942628830114,-0.02359104633754335,0.002360226562649071,0.0010370142670336091,-0.008837339615196197,-0.04048972661192012,-0.020314760708165007,-0.04218423537208801,0.045419972750046556,-0.024160943800688884,-0.002368524068215391,-0.002422392277839045,0.010455428220381872,-0.02575266058648563,0.012642850418382937,0.019856441011859346,-0.02876049108984972,-0.02204103648915543,-0.09607602464428827,-0.031150513376403274,9.0
94,-0.015837383257592787,0.0016222912563503221,0.021184119524931096,0.010958076974192828,-0.005435331547332308,-0.000239244492065121,-0.0038692466993732904,-0.06551580267871411,0.026656830498800587,0.020288856864993945,-0.010145690810805052,-0.029063858114725737,0.005837371796221267,0.0018387959691167383,-0.009580562288342987,0.0015389619454858243,-0.010962444283057699,-0.05474552049664054,0.04120591351099391,-0.04019466423456868,-0.013105436285532384,0.006600352867797901,0.02427673721528719,-0.0260176249789209,0.013629938407951524,0.013008473293929096,-0.01635755345628685,-0.018788192679024478,-0.11764345225350294,-0.026761033227022925,9.0
95,-0.018611469512363164,0.0016222210154133616,0.033873950147440116,-0.0015504635997310038,-0.007233735328218588,-0.003743876697642601,-0.0034843280484011673,-0.06686918329867891,0.020306531256420575,0.02279534672581524,-0.005271682810393061,-0.01953956278915381,0.0009640313538512036,0.0016019066111175857,-0.007248377750329734,-0.0005453356505563864,-0.01561145455052544,-0.06107039573903233,0.043200186455276214,-0.019124618599139796,-0.013735219015121264,-0.0008287090104592838,0.017936761913372953,-0.008457519933764862,0.01703423429822767,0.01794510584281111,-0.017389822300722446,-0.02455953672971703,-0.11527834719412025,-0.03559536579501282,9.0
96,-0.01311191226539453,0.003059542336382986,0.024763878647759176,0.008837295954339382,-0.003403986093002869,0.022398035157558886,-0.032860346440462054,-0.05748856454601256,0.04364984051256556,0.023050027607975577,-0.0013936382913426939,-0.0287044714073415,-0.003478839452850487,0.005779789865303192,-0.008811964404090185,-0.027862793633461575,-0.010901756188766066,-0.0581483712975552,0.031844502561612684,-0.014814389613688937,-0.010533519166943396,0.0059404628925916565,0.00311626245991074,-0.02173902118126224,0.011651682071863203,0.015074531451677524,-0.006371862385158536,-0.0475704021438667,-0.11754069739667068,-0.030793201932194834,9.0
97,-0.01566535190690712,0.0023760815152515853,0.030135528677238423,0.005980557988559932,-0.001803591994343536,-0.009973451931475886,0.005992382002372059,-0.07496577933654022,0.036463936014680697,0.024274518421295504,0.003547317442722243,-0.02920282188599849,0.0005499905958235892,0.0015238121399465407,-0.012794125186320074,-0.03124351503131896,0.03640729180303109,-0.05441533981240429,0.019118252676923138,-0.036438530296623396,-0.025266773440268828,0.006427248253471326,0.01676800616717986,-0.01346021625765348,0.014072842857112135,0.0168099084313065,-0.022225215072879945,-0.0411167888413249,-0.10354376159294006,-0.030243497270923833,9.0
98,-0.029534941395809967,0.0007410608186723735,0.02598575668740482,0.019507498865036374,-0.0033234278226507282,0.006422699148802984,-0.005691293516093014,-0.06473042583913534,0.03983157172055125,0.010795216360419082,-0.005498941913239439,-0.04122648502508859,0.008905587015326758,-0.002788343184938075,-0.006879169175196093,-0.02579820433006026,0.001167483481996555,-0.049431324479716376,0.050787007630592275,-0.026245991210534357,-0.017484311438908218,0.010012304775987215,0.02549810411922341,-0.01778573390078695,0.016418300676193234,0.01351074076386444,-0.021250947264360363,-0.04047457902952933,-0.110106401938472,-0.02162665144159205,9.0
99,-0.005753624232605952,0.0015418990981418113,0.019629406017006044,0.0003342394496985515,-0.005680577747958669,0.00633286001020005,-0.021147535575612157,-0.05297911584769015,0.027859727833069524,0.02028283307086273,-0.01289796543870023,-0.024905310855362194,0.009861707002000925,-0.0007247077911230976,-0.013805304219269348,-0.012441585694564617,-0.0023706206870027224,-0.04638826171982958,0.025961501447435646,-0.017409751433225814,-0.007292245409258658,0.002250287928377538,0.0007047046908525241,-0.008789490682312271,0.014997446844214347,0.019166812447548167,-0.029876676282550644,-0.021875271292892334,-0.11978483864842848,-0.03255601983118001,9.0
100,-0.01677718542762544,0.001824983995514013,0.029795187172030262,0.00645295906869968,-0.009265697179641881,0.003128619051335096,0.0028143255195936193,-0.058863254720595566,0.03002320716491921,0.015083799194049842,0.005881845390538774,-0.014863197787434588,-0.0036943648828533394,0.0015922144382641689,-0.006030762073746996,-0.028629018785195522,-0.021695186649944867,-0.05907394233072369,0.01665022881963977,-0.009953134923259742,-0.021926211168631467,-0.0026648258505086397,0.026927588140974217,-0.020461871679167108,0.012999623970705957,0.01751838497627937,-0.018809414067871715,-0.03979578538492671,-0.1019990063988535,-0.02828852606207531,9.0
101,0.01056473913809863,0.011618310206226883,-0.03247665088476675,-0.005642652755405879,-0.021402875258585728,-0.011162522789663024,0.06583686272182271,0.12779281447753169,0.001187573152821237,-0.01601688292868977,-0.011134757021870103,3.9165977865120964e-05,0.019649048092330673,0.005659316406257047,0.03269341613662197,-0.019311376709867496,-0.005896063640083902,0.004427730477485311,0.016380530925072766,0.06661617980089465,-0.043315764871508844,-0.017316287663128403,0.011457499970844038,0.030832329933285815,0.021438451415144538,-0.0022141095041845428,0.012153035954946247,0.06260690594245805,0.005167219256127893,0.020134320612050217,10.0
102,0.016946835442640105,0.01020546201048272,-0.01903503417008781,-0.032166597364521064,-0.0259757583108206,-0.003196560185992927,0.05338440551569642,0.11575033775950724,0.0020029802043670425,-0.010043102489087546,-0.0038536442432432105,-9.408053653691446e-05,0.014067384170946379,0.015709851003504777,0.007999222345886216,-0.023638255371870222,0.007453692078168769,-0.0030135187361905722,0.01885251893935636,0.09137884120643143,-0.039746422477307995,-0.01887801877418754,0.00899116209793634,0.03217233905834866,0.026727176964906188,-0.0009077487063498649,0.011605744513863304,0.07016929905169991,0.00189867321333521,0.007766594640628892,10.0
103,0.02152953000516876,0.013303264999791542,-0.023641475694250496,-0.03695719423010564,-0.028346018694603934,-0.00580816815873692,0.059150445002671505,0.11322375553648174,0.0010062102424503651,-0.012629271009826384,-0.0020632812672889576,-0.0006253448689758659,-0.007219275797429809,0.04216921894271618,0.022809081697958287,-0.01904105689054085,-0.011002545403137338,0.013267333752169338,0.019312239828195493,0.08363229524174118,-0.041949105584143165,-0.014495916765775593,0.014949757227345484,0.027659083814819678,0.023284888368432177,-0.001014838997396005,0.009120717288077977,0.07551654720709064,0.00179259165089654,0.009910602404686154,10.0
104,0.006892944078590468,0.01330370227732169,-0.025225892832287017,-0.017812167845073296,-0.024266341961082724,0.00199445896828689,0.050981507058527824,0.11992264203026982,-3.548324340938501e-05,-0.017087112127551384,-0.032718646853581855,0.0004605999272693279,0.014701783310334712,0.031607909487503846,0.028096877032711347,-0.01873373407665742,-0.0018419155791061944,-0.013993149880772346,0.028129636856789677,0.08816345186016282,-0.04687097637109202,-0.02081171663531141,0.023752375403145107,0.022567823370133362,0.03478408376542178,-0.002214753471410807,0.007222635629202342,0.07948089455152522,-0.0008711662928235143,0.005870462123694098,10.0
105,0.003857930366735419,0.012302456705022571,-0.02500839664794906,-0.0071023452647778155,-0.010312677514478676,-0.011842354093109256,0.0531471116610334,0.12047433959263283,0.0007761875277469897,-0.018563903943348826,-0.026268581434707866,-0.0011388622523309565,0.03710544833253142,0.009339919872520131,0.022878710472500854,-0.012360035706418221,-0.01354250922024154,0.008973184602917787,0.01586136949381629,0.07335852901157788,-0.0390684915902638,-0.018059249283302947,0.013223764650647297,0.02150577575114701,0.02054173501526788,-0.0034691031948190865,0.024004808739469988,0.06335348023896901,0.002880822479085592,0.01888209986198455,10.0
106,0.001401945381025918,0.007779265470568928,-0.018212983709064445,-0.007747916528216129,-0.01947182158281912,0.0001187240778545688,0.05313632238151316,0.11992265866593825,0.002272972701920512,-0.018026787787199117,-0.03251481174066187,0.0007393651079518431,0.005063822446769846,0.029034901557467074,0.032409703643285694,-0.02166658174960703,-0.009059290318628057,0.007195760685295827,0.018768387872871863,0.09439923882448414,-0.06708341946461371,-0.011169821638398645,0.02194910954679447,0.04081498739584965,0.03273793000827399,-0.0018924456630892228,0.010439153159671536,0.07153461453730467,0.0015302601303964602,0.002601447996151145,10.0
107,0.0036216494772680985,0.012638581501582782,-0.023651082152190923,-0.010831782649722666,-0.02970438857020609,-0.008446149819939934,0.049279537588119045,0.15718216860948328,0.003984389643203323,-0.008818045758888763,-0.018108021509812475,0.0007569856090051862,0.02954078064585556,-0.00339582059506642,0.02672835964265974,-0.02068921748443685,-0.01014795795939557,-0.0014653603990190775,0.02162462346461565,0.07297099975869853,-0.054436896363802695,-0.023737924998039103,0.015353814039290498,0.03951705936252379,0.02224268382272634,-8.842993775668578e-05,0.02146558865639001,0.06111728514871934,0.0003870777435648143,0.0024274314963508036,10.0
108,0.008499787114346055,0.008471329987631677,-0.027819387517686783,-0.004786000605926529,-0.02310350500376872,-0.010827184982334967,0.0506798591684772,0.11836343825186636,0.0073287103127103286,-0.005966577187161797,-0.006671951802603067,-0.00011311196817468209,0.019181756054687974,0.008635705758739365,0.0400325293248277,-0.018240166929899954,-0.008230557094047386,0.00328075023622546,0.014975363193032321,0.08958336204634675,-0.05299660548566575,-0.006041990154458743,0.02139904311857211,0.022988606060744054,0.012070578941205173,-0.0012632697436713032,0.0172914425237137,0.07048565692309215,0.00333620373546121,0.0068510119793963225,10.0
109,0.004732958591984038,0.009210595236830184,-0.02726182523910604,-0.0005384345844819131,-0.02245655579601024,-0.015460440766786264,0.06448316407342557,0.13838073598670242,0.006618746708854768,-0.019208529730130475,-0.02157006736407239,-0.0004427412782268801,0.03133054736394609,0.0022452610086265506,0.014772894830207776,-0.02344573037042476,0.00020054651048793137,0.0119679892057388,0.012677692378746035,0.08885704511881891,-0.06517335604718583,-0.004684901123754727,0.01565915543658755,0.0413060268959431,0.02577368606647797,-0.0007456708755162101,0.006925749675652443,0.07334598893801805,0.0009569376327696162,0.010474895488839937,10.0
110,0.011054301815199265,0.009941304715205558,-0.020668549829735015,-0.009515754968339141,-0.01974116124929111,-0.02242737720558411,0.06345488428436984,0.12120448080408668,0.010871603484090442,-0.010701443924275427,-0.009352723397898144,-0.0005314248768468415,0.02244632476774828,0.0022914039187383597,0.021202857766733578,-0.024038059037542667,0.005490331461450418,0.002381583376911263,0.01587781926984582,0.08516591183798083,-0.07281596552873768,-0.011671887044781486,0.019317083798529314,0.04558294220254931,0.025743039231119078,-0.0006585234287383724,0.01111870054152055,0.0639127844552274,0.0003055567082796348,0.011976658961340798,10.0
111,-0.018771145432943327,0.011937882218762071,0.014893937928045182,-0.02380615646151541,-0.005272280026820415,-0.005127037569370198,0.0019570438798045173,-0.16975711429233606,-0.0025832578072678713,-0.011697514137519543,-0.029676201437492722,0.015441941998811623,0.02322245433102056,0.005386013859465433,0.031960916136525436,0.027562061583794453,0.043124248612677156,-0.20216360067303002,-0.023590457631795535,0.04402362135221565,-0.04658865453078976,-0.031125175403970907,-0.010705253240658595,0.06153794762587226,-0.06345076906525933,-0.02951024994792805,-0.13112703338238801,0.8107693715986536,0.008519715102259823,-0.015720643887099484,11.0
112,-0.013601817878934434,0.011199377240751165,0.0033029819005876435,-0.01305710255476852,0.017627655911292152,-0.02710818614511875,-0.029711186564194587,-0.1463519998858547,-0.016421287074319443,-0.013829461181215615,0.0059632304007446535,0.01028618591513427,0.023227438958315978,-0.008060512320045394,0.03154939381080227,0.02231172989092191,0.06636471170357677,-0.20215573117509117,-0.021335658245112445,0.05031264985136772,-0.04344353826548943,-0.025626053031051404,-0.013143268981468635,0.058985390270641654,-0.0641185200213812,-0.03232626790432693,-0.11241705755202484,0.7656855161423077,0.02748285500328833,-0.025467530751363463,11.0
113,-0.000955450079535252,0.007648078859965638,0.008853581440919118,-0.024389260941791998,-0.02523427683119588,-0.0028152270925733526,-0.007059314830090033,-0.15561373347554203,0.002663522907297532,-0.005207817848668815,0.007671301258055041,0.012558903766493396,0.013196595934030364,-0.01066015958039135,0.030024537265262028,0.009868074910909349,0.039922188663914344,-0.17846342831283415,0.002965921203675346,0.04876245802511917,-0.054435435216013295,-0.020808735551502394,0.006530226567662592,0.02802498275113364,-0.041372867585900926,-0.03116922928978969,-0.14239796138592675,0.7889016043344987,-0.003753120654475969,-0.009859475334517767,11.0
114,-0.01973148478789987,0.009503378482780855,0.00256156943650584,0.005282527865214837,0.010065230510905403,-0.021727412084049606,-0.030201274503386763,-0.16433260196588187,-0.008477036386570687,-0.004671343801653305,-0.013819900360124697,0.01037619849521859,0.0440579951635681,-0.020971362876927177,0.02315251409752358,0.0064972727139801295,0.061903235664432614,-0.20144193951312503,0.005642275529713466,0.08777699986698381,-0.06367729952166286,-0.023327837188673765,-0.006132270914225436,0.05434390114398199,-0.04641586907618105,-0.022031896993962265,-0.1284060357598373,0.7814831723794712,0.0024133651664231173,-0.038056217903717736,11.0
115,0.005069849605834391,0.006040476784701799,0.024629166505285786,-0.04555730827616573,0.002901775055440501,-0.06187650327281905,-0.01330664663079341,-0.1365171075027801,-0.001538047449512353,-0.0033235781092226225,-0.00982530909898987,0.003567035952499853,0.03180317478670121,-0.007632304636414048,0.030162299274887897,0.025516710940218505,0.05605167794718154,-0.19736976378263638,0.020134815041834203,0.06015064624287123,-0.06020960811999612,-0.01361763375977482,-0.016961627311186264,0.06046834391904916,-0.05570013060197125,-0.014710002323086127,-0.14496048200030093,0.7937092257467424,-0.008723886430256128,-0.0236240125544236,11.0
116,-0.028179482152175594,0.010239221066277213,0.014242870626372386,-0.011779194431301444,0.014397505197784762,-0.029792617021560337,-0.0057290112304489126,-0.17890478138674493,0.017473825627862514,-0.027420888830355858,-0.0293090177235612,0.009504958742468084,0.037672044347841396,-0.006155405622798896,0.03867795695169079,0.02992940649167204,0.042951900352656905,-0.20260954708716156,-0.008762780728314356,0.050344348184745875,-0.07874045051326196,-0.024429714408261537,0.01777383115662655,0.05912782248876674,-0.057236870414138996,-0.04151207488754463,-0.12730967309529656,0.8103320829998465,0.0005031407843284433,-0.006082613833283554,11.0
117,-0.01130233717353575,0.009168521247152318,-0.009245933997581647,0.0005650325617433014,-0.0033543354775394255,-0.02492706193522864,-0.003456637471526585,-0.153851296242353,-0.008192278778049083,0.008311400125633837,-0.01489914549570308,0.009393427036564362,0.0019593512497687094,0.02003934392678097,0.03099336140024569,0.017795377351213667,0.03447101940095618,-0.19284091051260235,-0.005384947416759869,0.05881895807279379,-0.03919558154093376,-0.02125578677806152,-0.0005186500414462374,0.02987508934881054,-0.05079874720862049,-0.033284008074846085,-0.12429014059697871,0.7888401686861698,0.0011880829578142336,-0.021737183292707147,11.0
118,-0.027278788830487805,0.010785904335819108,0.010006780171502888,0.0018383093213377524,0.01311345288746151,-0.006667220514934574,-0.007330685884511053,-0.17895611637416947,0.000346211294904492,-0.014423030837997366,-0.0021411291935800447,0.011734665684330322,0.025281877300066778,-0.006719258188190237,0.020614149317321955,0.01202687696589516,0.053406801106073036,-0.19102573971212564,0.00935001210678033,0.05268158131525406,-0.03687721594994461,-0.02862309985730041,-0.022084489192503234,0.048660173558356064,-0.04610906949404393,-0.020208353756521517,-0.13501721110983358,0.7628036484163094,-0.013734341739389774,-0.011100104206831973,11.0
119,-0.009464763760876205,0.0063111943749913565,0.004285540257079291,-0.014841647819574507,0.013301477251051077,-0.02305204003573526,-0.013926220977491733,-0.15624955037109434,0.0010614089622559876,-0.017300626975300777,-0.02662159997876312,0.007838203808012704,0.03493409800348831,0.0021431441741103785,0.036212750585834966,0.007268431853736732,0.055920915916650916,-0.19854566713236965,0.013316396336141486,0.06962119421623258,-0.04860469714650408,-0.012273549006101224,-0.01650311156080265,0.052865032293002275,-0.06868530773339639,-0.027574894558325597,-0.12357939079082482,0.7885303830469468,-0.004364145501995345,-0.026535917831814033,11.0
120,-0.04033417030713412,0.009082115430608986,0.023047980895608843,-0.002977506367635368,0.0020888559767772265,-0.022153101220989024,-0.0030244533982541335,-0.15687779017130274,-0.0026181494264078675,-0.010820181348452125,-0.001645344893102727,0.012587510554885623,0.00938998826079722,-0.019887068893919283,0.024647871188853594,-0.005749442471092881,0.07221904135885358,-0.18949695725661478,0.015424323586163613,0.05475266116074869,-0.03934599074545981,-0.023372137913704755,0.0020662507451074067,0.04122130420154055,-0.05302723877489547,-0.024760438930069652,-0.14108041320923395,0.7796576459668688,-0.0035036792587150797,-0.01427886401190336,11.0
121,-0.013241877149239063,-0.008577578042869138,0.0016075014302701588,0.005164634646640514,0.008593904071548385,0.005035201108137942,0.012571985730675516,-0.08219229434198454,0.03495211619653957,0.0018971791619886488,-0.03310116241693169,-0.02568108546613155,-0.009248433253560444,0.06554216394181722,-0.01858089676057685,-0.02195127573979292,0.0045202080945118085,0.002861478972787314,0.08059574218792377,-0.02711670104502956,0.014814174496295806,0.03380815752707888,0.03578673749395209,-0.027743598058589253,0.030937177304840222,0.07102582214246651,-0.07080408206140279,-0.12097208540202271,-0.04838962128110385,0.0038165015805428294,12.0
122,-0.021880547260021654,-0.007883063403866786,0.010510448237306694,0.004997505526991901,0.009128172939035107,0.015095833913052761,0.005582718496594573,-0.08551781384041737,0.036082779409461675,-0.004247496924515284,-0.047264535693844395,-0.02917094019333347,0.01913667828760082,0.0573104594856449,-0.013198579345462083,-0.03118289243180376,0.013106921716041515,-0.00638519425681036,0.07392971281540064,-0.03248029642326922,0.030282048405968102,0.03646501957447363,0.018561759072203622,-0.02691617644740535,0.014202417421416924,0.0716801509360219,-0.0656110418497747,-0.12086672184019022,-0.04882208063166035,0.018226675308250912,12.0
123,-0.03331199136693383,-0.010897925154408355,0.018777813316064422,0.010046820176938878,0.000610413575693054,0.0006375822852808939,-0.007107001439984349,-0.07073015455326455,0.03975447122703322,0.008023850703993265,-0.027513780038748492,-0.0338243550661113,-0.010978120131259313,0.05986261279474722,-0.017593038844527373,-0.023457871305134975,0.0028872530069241303,-0.005260392221024821,0.08436184808973399,-0.015202236039843829,0.018088085399808954,0.049578901423439126,0.030788264450148962,-0.02809542997834384,0.02677024581127668,0.05619142987807084,-0.06197089508550335,-0.10368347468447985,-0.04900472222053706,-0.0012576779181987519,12.0
124,-0.015310637940749399,-0.004204416611200128,0.02356812046656417,-0.011896845467781502,0.00511565425065224,-0.023195613277487117,0.022421587181910143,-0.08711483095482918,0.04419988030250569,0.018240981883602715,-0.0414176844222961,-0.028185349780602848,-0.003335667539859718,0.07864557494192809,-0.016347067333857022,-0.01754794123951756,-0.006921425020740559,0.01008044570868565,0.07700844743887576,-0.03419848646542283,0.010307036957712429,0.024831938313883174,0.02574423056908023,-0.014083582921388936,0.03188209010790784,0.07124458845327768,-0.03617259314860296,-0.14400390405056804,-0.04664667429303574,0.008695495946785673,12.0
125,-0.02906772634126638,-0.008906221255252271,0.00782674221717039,0.012720297102065502,-0.0031825172111315885,0.00949489561491804,0.008458962057012593,-0.0631032535489434,0.04111962021857534,-0.0010017674908819284,-0.04247671939311014,-0.029817532284253077,0.001378626796084619,0.07081729332530577,-0.01314515411889233,-0.03445390963730895,0.011219592486281679,0.008160600561053733,0.07826066472353549,-0.024228493585365714,0.030418935346638518,0.040157340466789225,0.017494050552392486,-0.02591997867907428,0.032232465168712435,0.09117713133893203,-0.0892934593817862,-0.13830911096606374,-0.04807408826540619,-0.010686020022714793,12.0
126,-0.035043102056400315,-0.00514427746106164,0.006752301899202099,0.017797150004368857,-0.001022531577403631,0.003942507179535335,0.022119367329092938,-0.08293068582922895,0.03826177886940419,0.005625232132048594,-0.026258886531590347,-0.037328459489327837,0.0037093324943089077,0.05407299052497215,-0.01543934872270462,-0.03926701638722366,0.003402965293607529,-0.003970083144768687,0.08274957685271216,-0.026014293872827998,0.014522862623115218,0.030595879259328412,0.03153444205419106,-0.0232023219097111,0.026985930340736257,0.07575063093828924,-0.05834776761536702,-0.09696790615931747,-0.05116526224844694,0.0018123563733354572,12.0
127,-0.04219845686303619,-0.002327028273721348,0.01502191663320753,0.01617103732499277,0.0032841884749970998,-0.010386001017774373,-0.008318495029863673,-0.07455323927189855,0.03851316115797572,-0.005121929954716785,-0.03852040904648957,-0.025334678762845578,-0.016450411827830837,0.06810886938797754,-0.01791765425008417,-0.035997403302235324,-0.0068525139979602025,0.014087481759445415,0.08955655505824822,-0.01725927358836551,0.03179615430228111,0.018607483974756908,0.02925145520236221,-0.030930341807104102,0.03177620801064014,0.07692930001754175,-0.059092450295889005,-0.11118234940701531,-0.05076260450105156,0.01670036190193135,12.0
128,-0.03272684833642557,-0.004830706859853126,0.00213685976656131,0.012514662795624071,0.0070376124423044955,0.005890692580713598,0.012075334169703225,-0.0805785655334298,0.04093631859566089,-0.007138098581328981,-0.032194195305848786,-0.03414656219320192,-0.01006551297357358,0.060098377300431924,-0.02025843504662082,-0.01524115442774923,-0.015726778335060563,0.011607739292551635,0.08890591837735423,-0.027679554541158235,0.04098369637302418,0.028259300536995876,0.02834470279453598,-0.035929529570774665,0.03883268938905095,0.07065674487379989,-0.06344604770176336,-0.1400796351851207,-0.052389748025861875,0.020422607907441485,12.0
129,-0.03134401635149453,-0.005713273489317725,0.004702961101940038,0.01818986280182654,0.004887089084368493,-0.024207596049190667,0.03066567345275594,-0.08930731637443962,0.04162790498438364,0.009116971438584327,-0.054826771573529214,-0.02517338966995454,0.0036778493097950195,0.07839609405562803,-0.0100912077333861,-0.027890920304401347,-0.01983487345813183,0.005411229437171416,0.0800052339528806,-0.017373880757292744,0.025806922666392763,0.03083752403550545,0.02718534292355229,-0.02571739774450521,0.02350976019854701,0.09044123975962942,-0.07469628356293635,-0.10840176984116714,-0.04883367409428338,-0.0032000466600080805,12.0
130,-0.03390222317290604,-0.005490044064655552,0.01975812546260856,0.005548279450421419,0.006252091947370611,-0.006795494377713917,0.013696750576250617,-0.07050399060865947,0.03898129940248787,0.02613961862286616,-0.04778043822126128,-0.03364653152563148,0.01036171923051257,0.060869647596753944,-0.016440630960924563,-0.03523520643296941,-0.008754077841229183,0.0126683082827403,0.08783612951557697,-0.03666671205823459,0.015811871676525566,0.02360430086330376,0.028174262544890107,-0.01783739830977769,0.028017262084707097,0.06140345760884365,-0.05662154426893932,-0.11838117837260975,-0.04967331327701115,0.017966636348850668,12.0
131,0.015702714436211324,0.07362755735137907,-0.05607459756019628,0.002879515447559457,-0.01938840742486054,-0.011775837648258784,0.03597666870208303,0.14985830071486161,0.0008430389323287704,-0.010290639586499176,0.023050608682683337,-0.04947716182555416,-0.0022948682150799233,-0.00736100606735527,0.020307344312079836,-0.012095959812259215,0.0011072934169633064,-0.00800995794815944,0.002444929715235688,0.06303127482077883,-0.036067564172102815,-0.02372969019539007,0.026080020279058896,0.007496020996836319,0.004030148837457321,0.0004285457217924357,-0.0053284062816542285,0.10268167298356139,0.004516965646364536,0.003530421210330452,13.0
132,-0.0007348123804374037,0.0828489780691926,-0.035516060663472744,-0.011093186106676511,-0.021459181374797683,-0.017265010296570318,0.0041877622854451756,0.16331340846359005,0.003984032473003215,-0.006147136395505238,-0.0096126899107456,-0.029037724982529094,-0.0024630623582905416,0.01227460228755294,0.0064577119651233845,-0.018231232266164958,0.014244438034138442,-0.020154141583207053,0.010752487586100833,0.08437645183001512,-0.06755501564926811,-0.05979372210929284,0.06714903533383436,0.011846622328447383,0.021474539889069128,0.007453733014038119,-0.027450569956002067,0.1134212029217252,-0.002880792427007575,0.009105284551541826,13.0
133,-0.004185012380250461,0.07213444150746447,-0.04042258264765204,0.004025017381527844,-0.011600269343817401,0.003715824279074369,0.04001678640125592,0.13389198697908172,0.00205061894437362,-0.02667798506697382,0.012417761210721972,-0.04858748859617708,-0.00013129211418135245,-0.0037875593126956712,0.002479292735252853,-0.012219854632623477,-0.010610423587234036,-0.008141229030014376,0.016511666871429104,0.07790082259343024,-0.06932619137129804,-0.02249872324150648,0.05161698903957487,0.01349791794292711,0.01268292676973868,-0.004011560024099477,-6.632247957355899e-05,0.11175000760818818,-0.009384107050585538,0.012319411126859829,13.0
134,-0.0018336854084455817,0.06674652182775327,-0.03292014551062716,-0.012567426706139164,-0.022984051807650566,-0.014219592118608643,0.04174130788203946,0.15411368098033998,-0.00559265873497801,-0.014624297503352292,-0.007020048765260201,-0.03168093513491602,0.005252078042813482,0.0026980036155109695,0.0004240596770977942,-0.023556018625518736,0.00829025183018036,-0.02406933639708808,0.015690602554124015,0.11157236209486791,-0.03930778630179806,-0.01582651818724966,0.030929350242439573,0.02315273862611263,0.016894971014976022,0.005420351234894458,-0.021451021681009912,0.11810213756213919,-0.0070262590085231735,0.004536824658758828,13.0
135,0.01743865108874834,0.07187422051811954,-0.029241350968785662,-0.03760454545426996,-0.02744676818915793,0.004272407580183013,0.020468072200845414,0.1533742337518572,-0.007275012607891772,-0.025146871805207853,0.013885322996299852,-0.03429101871929924,-0.002446093554822196,0.01351875575392266,0.008698169405365865,-0.019164555753411992,0.004212010752945107,-0.011103512907076401,0.011136160048433267,0.0922852486706071,-0.05659418172545834,-0.023794928021296114,0.03879850605192905,0.021676809912697766,0.01918809350549623,0.0031360238740953898,-0.00953271915097692,0.09702798781287755,0.0003589324651311497,0.013546313202172859,13.0
136,-0.005247008780370877,0.07314974794078528,-0.03479856704574363,0.0016661108389405676,-0.004349802450484528,-0.006699179331850647,0.02695788799541473,0.09562300425285164,0.00949160398468304,-0.0055401418382053196,0.020411302790821366,-0.039526484854858025,-0.0030110608785462786,-0.002022156648210212,0.008376240667204889,-0.020064768858819235,0.007070352390893712,-0.016599388117974682,0.012075951343949617,0.08590853819350758,-0.07220522696070808,-0.029940913789414828,0.04846800245222741,0.02408827869845387,0.0019106437699687939,0.0085427668407497,-0.009562464543670945,0.12837327837305448,-0.002446121325397054,0.0013139426904657785,13.0
137,-0.0015503921288060232,0.08259361307858659,-0.02827671816659912,-0.015628549025848197,-0.02084228231829343,0.0010234272156743997,0.02262477578586189,0.1347207017379642,0.0007989459796981563,-0.010733317056951033,0.008909676406999363,-0.032287642488348575,-0.0008112259518250455,-0.0011987379907932142,0.01028201633593714,-0.01986215262832168,0.0036660897696764077,-0.009893960732938722,0.008638483381670944,0.07202451179138261,-0.07596633846911811,-0.05937396953316199,0.057963486585398266,0.026865312496005784,0.017193399448890607,0.0018385668416974314,-0.0018027659584797162,0.09877610285834301,-0.005167170275771767,0.013233882195121309,13.0
138,-0.014986144749276033,0.0728432985178435,-0.02676944854601667,-0.0027631604556325683,-0.014665789530250616,-0.00230674316620279,0.008465025257828043,0.17557898801649638,0.002530111137184079,-0.007420838995739322,-0.009085127259163878,-0.043043843623596326,0.011271663403333526,-0.003306888350630973,0.004724513568225299,-0.01076509519157058,-0.0013020670718096358,-0.009049071527733814,0.0066277620164560715,0.07874099761260268,-0.04898752309509192,-0.03199020531251778,0.03042713949414455,0.031081510792556492,0.006948806530286784,0.004098989458819056,-0.01574797651945649,0.0906907341766012,-0.003446622862094522,0.009275829759357356,13.0
139,0.02098304954764299,0.07563069529810074,-0.05070535170534471,-0.01692490131317293,-0.02171633017661805,0.0032859617335681476,0.026926882174625816,0.14764768402063524,-0.004141803633710986,-0.009606922436379506,0.00733311564688478,-0.042668260170448113,-0.004980371796272453,0.007876844476480342,0.015567957307181133,-0.017723437520336654,0.0012626727340106188,-0.005941469289604027,0.00792981754917554,0.08248471391568837,-0.049163389983495155,-0.03240314320045839,0.04493074316552858,0.010778880578609729,0.008142899863508619,-0.000427104925833434,-0.004070138312278384,0.08802926565686194,0.002913222420853549,0.0036403518973033085,13.0
140,-0.017968973215180675,0.07318318481520782,-0.04242580842969853,0.017480665644794953,-0.009045733786334486,-0.011346980153484926,0.05932867180669504,0.14507644253367025,-0.0016818331360797507,-0.02166135824631881,0.010688381511448356,-0.03738433701245157,0.0072332456587088706,-0.010013395678602875,0.0035274699074250783,-0.010153238541274593,-0.005488962346405815,-0.0003211650112129546,0.007507460554025759,0.06847065851706638,-0.07650904071999456,-0.03636891016386166,0.05464210724860728,0.018577227218889932,0.010011570560394107,-0.004777911122644367,0.009927599538066706,0.08193720724062327,0.0016396813052729387,0.00795440447227246,13.0
141,0.002795172275303109,-0.007537107309432082,0.05078671944920702,-0.11027985756209512,-0.010078806512114008,0.005639889155298918,0.09794382204718208,-0.058540008176298036,-0.01955453577097134,-0.02885541705835056,0.005806892630356694,0.07205600006898527,0.022340952365528886,-0.0035108552952024473,0.13062614423630697,0.08491156169035985,-0.03335605577024383,-0.19089619312267903,-0.07013389181574163,0.04145870927764347,-0.24205644935963624,-0.010811247681603863,0.06995097163252785,0.21814311852369078,-0.05149527121607513,-0.026599134527279803,-0.0012566132738203132,0.35045198614366924,0.07012817052345661,0.0018256975516490839,14.0
142,-0.018543210541896945,-0.0019336006089611653,0.06447812587512525,-0.08774127636873937,0.003887969393102508,0.05867024197825282,0.06449222952980424,-0.09548904411692416,-0.044441594113745285,-0.03266864310052164,-0.0018201688306648197,0.07595873184328063,0.030684085391762046,-0.003741321850854031,0.11156966852571529,0.07378847471697407,-0.017390212712278072,-0.21041480363782186,-0.07570976595769667,0.04973415949242954,-0.21596038363027792,-0.007785448457072998,-0.02169887547519529,0.23399813005333472,-0.06205236877969297,-0.022196248251520848,0.0029740143199416796,0.3510328199006175,0.08989043624365303,-0.010862903610816616,14.0
143,-0.01338367672786158,-0.01795079919641371,0.06904387985091427,-0.10738972072127732,0.004264086978230164,0.026055296721202655,0.07927448687416327,-0.04965499084706876,-0.037346207730760396,-0.018721677299912757,0.04528784848533304,0.08633374943279143,-0.0039493084426651896,-0.002553661836058534,0.12354242906263099,0.06068337221754487,-0.007189801077282052,-0.21479812174102292,-0.05383730950182489,-0.010997988839348695,-0.20820635315704178,-0.0005774009337059894,-0.01718745608193619,0.24875878120787606,-0.0705143523276862,-0.023424766743749922,-0.00400458810274205,0.3570133222284863,0.07398017017731749,0.006350159733136038,14.0
144,-0.02528809397539666,0.008397861030868104,0.0919175560104784,-0.11641282276549156,0.010836615112239068,0.013667901194451671,0.06724402717651723,-0.07193813674465757,-0.06939066726420992,-0.02030047338551257,0.017030727212902455,0.06996152154165038,0.0026915352796616425,0.008383798065249663,0.12511418837301863,0.05674166879520829,-0.0229680996031371,-0.1996198463039433,-0.024948472651556405,0.024301923996321778,-0.20324321653709107,-0.015025872579287398,0.018205635780733146,0.20399950634295538,-0.06022138524444619,-0.0269342366397792,0.0035179370034350167,0.35933008546354367,0.08279502884958258,0.0030007450464726165,14.0
145,0.007004777670026605,-0.007396520196668993,0.08112263906078739,-0.12553434388176607,0.005660582128758084,0.027882663540356546,0.04826451313457766,-0.12569209548922874,-0.05859971423694203,-0.004550627596482074,0.006354032566726204,0.09668767320317229,0.03155610645933973,0.0007903039337364912,0.13887042371395858,0.046370771160330664,-0.0021633930809999455,-0.190455181407924,-0.06829895851575878,0.029379072760340925,-0.21854642716566403,0.006689515707001159,0.02094192947516731,0.2084517715678077,-0.07028915191536007,-0.024422625731412354,-0.005701074307652713,0.3552561231487732,0.09856849928075484,0.0027519757214180744,14.0
146,-0.022609540200496565,-0.016128882831257768,0.030721229631614683,-0.043668710164257794,0.01073027629251946,0.031214081664924946,0.10041435224951417,-0.09716964854265714,-0.056399771671136543,-0.016031827677645372,0.03632319252569008,0.04904120927946068,0.033080123115626976,-0.028607402386805415,0.10152164547910644,0.07946222499187258,-0.008728696601746865,-0.22778433317806032,-0.04006362835469152,0.034070501710178745,-0.21327187110921303,0.015699453113575845,0.004016125854841938,0.20844447016416345,-0.07712845749135097,-0.017871273791976977,-0.019594053279675658,0.3691949179437385,0.08170791741559257,-0.007284528994427048,14.0
147,0.02199977174376029,-0.008589784107666754,0.07212264196518717,-0.12883480899849786,0.001583530031069024,0.02759529395243712,0.04373011007399475,-0.11575056742542801,-0.0493974105333382,0.005667566517680014,0.010923751629944403,0.0744830121137212,-0.0004571582414430151,0.01048351583573793,0.169819241191045,0.04305125501428334,-0.009853762299951264,-0.23213341626169348,-0.054680108566702974,0.03022075034496386,-0.23052604970715163,0.0051689755521772225,0.028818140460049053,0.2036117453785449,-0.06854449337057253,-0.02601607108985136,-0.0005239794077918368,0.3867071964996934,0.08968836445226391,-0.002257312476827897,14.0
148,-0.027417770697624452,-0.011659127431966383,0.07303740371301708,-0.0899034078262129,-0.0016146188972379907,0.03429844953832724,0.06781288857723423,-0.0946520674625261,-0.030774876686039274,-0.022341807613353148,-0.007068495612852716,0.04657517739266486,0.0509496390501549,-0.0048982600844560235,0.12516722752689247,0.06181519933547932,-0.024965032496044332,-0.21525444316393316,-0.06815832763244631,0.057517658213963985,-0.21853039231414914,0.005218208793850472,-0.017270966031744373,0.23913066430156546,-0.07719907378191429,-0.028423417372309225,0.014804520914463855,0.3819719608114731,0.0791398246306692,-0.006492588205170196,14.0
149,-0.001986638043926311,0.014264875259348612,0.05501053795746599,-0.09537590329854578,0.014973935247150572,0.02191259142619439,0.05178760497751475,-0.08206575001975036,-0.0547206595231926,-0.03008431171348502,0.016131153579274377,0.0890176939186499,0.01299908625062767,0.002064963772947715,0.1404158746132317,0.0610026882746833,-0.03264534899490164,-0.21743816483170147,-0.09110447689081017,0.08310973754944623,-0.22072477787834774,-0.023795274545530473,0.00641297476462721,0.22238258798073007,-0.054162272282268824,-0.019880490455886024,0.0006024766204848291,0.36087823491818083,0.08427812946676458,-0.010289431936838312,14.0
150,-0.010608270072313204,-0.02421904336850006,0.05113423044517756,-0.09080297751128463,0.012704156448868778,0.06699695365692086,0.05442522912568567,-0.09786120110906599,-0.06025594936021498,-0.026757625416231005,-0.005810807256720677,0.04491493576808587,-0.015037033213841838,0.02412946616274665,0.15521516941252336,0.08639963772022548,-0.0336611499051082,-0.21406919916414513,-0.04137015701266614,0.03807509645461572,-0.1954879905132733,0.015402100479314715,-0.006518491498264981,0.2114418073561184,-0.0759299910350039,-0.03020191801814863,0.0033266930655811385,0.3924521137070551,0.07005859965680566,0.0006029641439425434,14.0
151,-0.029535521412518747,0.002886055153327346,0.03122429851624349,0.006134678925356906,-0.006159521352967867,0.01735055296729845,-0.022861900494084993,-0.04729798736994527,-0.014388561429007813,0.00897496642615709,-0.002033569051072065,-0.011678182218807294,0.00520430553820776,-0.006489048420464474,-0.010641657014228994,-0.021741641757108666,-0.038813500193137083,-0.045948496028287426,-0.007246872116523449,-0.01896378515137293,-0.011525287860545803,-0.0051525473502524646,0.018595642693344027,-0.00764322259953563,0.001278299298139014,0.01937224479173549,-0.028974808078722988,-0.0472407859429672,-0.008016831104265052,-0.03426628087509523,15.0
152,-0.027660233211461063,0.001969123113492666,0.02653161726379955,0.010031876144144098,-0.0061626962416923645,0.008804029394017093,-0.028586397783839607,-0.05592569879563696,-0.01278066133204636,0.016314227107316507,-0.00384289780215902,-0.005009791135065028,-0.002240690152029085,0.0012743393654466332,-0.007117446323591857,-0.019659807255117793,-0.038014766852051365,-0.04344970888432669,-0.008874523017597653,-0.023495948210107292,-0.00962610000211372,-0.004867619538740239,0.023899977772435778,-0.012969410715360001,0.002463928592310762,0.016150373822619565,-0.02550126316443832,-0.04760818466016215,-0.0016408379734843207,-0.027998414539897955,15.0
153,-0.022754343667900516,0.0022847344430419443,0.031826230524998986,0.00015468335361922873,-0.003833980867672952,0.01289671181163628,-0.02451759901438175,-0.052432099664992904,-0.008949327695311038,0.008027294986086517,-0.002987410603449776,-0.0156698433630941,0.0027631168185496737,-0.002465867896037449,-0.006455395926433949,-0.015311064476134246,-0.03434507394977271,-0.04375142091160025,-0.014475380385465517,-0.017180029521989902,-0.011325671852699658,-0.002794292547626282,0.016020952980819934,-0.008787298384794213,0.0017264629400181135,0.01729248543081498,-0.03113671255405227,-0.05334717326631078,-0.006371825676862621,-0.029348479874496087,15.0
154,-0.02374395426338511,0.0016548942573931143,0.027706505957093033,0.003421212649918328,-0.006875851574206033,0.016067698620478296,-0.02693727340337371,-0.051460612716081724,-0.010021117587096963,0.015683061180752432,-0.0013889488831582237,-0.01025680088505953,-0.0033352970680888567,-0.0026858099852783133,-0.009589896144274758,-0.014777366392803618,-0.03356615546665264,-0.0426340726966368,-0.0012734491508575687,-0.015118105145394238,-0.004252975680920018,-0.0038613818960830013,0.017213646249066458,-0.009410381570195782,0.0026552905419596077,0.015022617738054536,-0.02924480714348708,-0.05702471236880432,-0.009183176740363626,-0.03546368528614915,15.0
155,-0.026387225139541177,0.0021246066996102146,0.02759924496762374,0.006829890764380498,-0.005139939323307997,0.007495648036606703,-0.023450241746063905,-0.049735372286239254,-0.01396569928507201,0.010663888491860146,-0.0008450112462104486,-0.01293169184815173,0.0016883545975522444,-0.0086504135831875,-0.014160780055266008,-0.015236160189084538,-0.027489006550131107,-0.04063537695721946,-0.0025261882013564614,-0.016862357628453485,-0.004715010897523334,-0.004280226945129556,0.017001291975341296,-0.009685627419587289,0.0029304464033667265,0.01400421267476478,-0.0317843931979822,-0.04750056391546926,-0.006437368085048504,-0.031005506519466954,15.0
