,0,1,2,3,4,5,6,7,8,9,10,11,12,13,14,15,16,17,18,19,20,21,22,23,24,25,26,27,28,29,30
0,0.0,0.0,0.0,0.0,0.0,0.0,0.0,0.0,0.0,0.0,0.0,0.0,0.0,0.0,0.0,0.0,0.0,0.0,0.0,0.0,0.0,0.0,0.0,0.0,0.0,0.0,0.0,0.0,0.0,0.0,0.0
1,0.037932033626812016,0.018957238761051716,0.03427277000844809,-0.0020128714675313394,-0.003371857086985212,-0.0030360224022803624,0.023750803735003306,0.029129908663869736,-0.002973177375856099,0.013041333896617211,-0.007707863456316537,-0.005853671543984524,0.03190873003166793,0.0495955472282231,-0.006051260379897298,-0.01734581888496788,-0.0032159805015000847,0.007048122069141687,-0.00209449768680555,0.002542949140424648,0.09174783272975803,-0.0076666399115242366,0.026445624851358863,0.06417132311130254,-0.008339754427617418,0.018533874692960608,0.025904082312517188,0.08082210425878579,-0.0034622418360391203,0.007472980080175276,0.0
2,0.04291194949542969,0.012655485539870117,0.019566833662478685,0.0009962604271831301,-0.0020656433077008924,0.007215501979028282,0.03511671586705433,0.022368676468006474,-0.010288233916622843,0.009981785182708584,0.004395160794657598,-0.00229485820094323,0.04822678152897395,0.041938156103359193,-0.01652471480125831,-0.006478748192156466,0.0038835911711023545,0.003572144491102493,-0.011313778840661032,0.004587545124472608,0.08536641948061675,-0.005047916287200333,0.03735090779046286,0.05511520230077653,-0.009037899548250176,0.020385553216468164,0.034153806949258736,0.07408866547887767,1.5943640390707994e-05,0.003244798383528153,0.0
3,0.039477946098632685,0.014430173806592757,0.017387560714301597,0.004346615672312851,-0.008869551876147524,-0.006370375987729851,0.0278826131835952,0.034114524351070916,0.0004612269055059111,0.005037205409370618,0.00333140502851321,0.003070420511391508,0.028407171268907697,0.038664816805640066,-0.0021066937672155443,-0.010828465336818579,0.0007666379093861197,0.005110742948193083,-0.0032969029639654435,-0.006507794521181921,0.09537857153262852,0.006574794448667369,0.03703762537444832,0.053039184514130144,-0.012226347306454492,0.010403148601006964,0.034636340217506265,0.09016439799331696,-0.0005286564068476827,0.004534515300785138,0.0
4,0.04508432126710775,0.021284684859293246,0.03447551328748051,-0.0021641462546458244,-0.006663797370433054,0.003926815027233415,0.024511038723358917,0.025238621919728307,-0.0045791247343965075,0.0008952652865892482,-8.94496390098829e-05,0.008189007935345136,0.024919795606022713,0.049412283131631984,0.007074454521793152,-0.02115903399471584,-0.0037520135038825292,0.00894125341424788,0.00547192299068262,-0.003962697047602061,0.0920911434808798,-0.010092905003023782,0.0376556943911349,0.04692348164573128,-0.019235966948880936,0.01118178180365053,0.03858772222689626,0.08395404382598276,-0.00039933646273568416,0.00955873540500225,0.0
5,0.04441654943210164,0.025651694299342574,0.02021740571838792,0.0025287199073408804,0.004713664056622744,0.0035529670432958033,0.037380400935594735,0.025681687150024845,-0.004292636436748788,0.01133149504831738,0.008068258586457802,0.0029870399388511877,0.02654696487411525,0.03919726006610638,0.0004144155291405715,-0.005735348622190201,-0.002018396124430164,0.0021433412739502752,0.00722642075459942,-0.0007135508156540511,0.09346301392179704,0.0029004863173751,0.04093875538242848,0.047419203467231864,-0.019077706570495644,0.02268673535200004,0.02758442486623483,0.07433869314359129,0.004015959662684799,0.017754461644861812,0.0
6,0.04094664294000288,0.019312961193814156,0.027442054818198253,0.006238913109738506,-0.000651356772693571,0.0024882828048624476,0.03185968811570029,0.014716724767021355,0.0028578094368165957,0.009430588985997052,-0.008592706050205887,0.002607926405608924,0.029792834189598393,0.0491784155968508,-0.001572219122226091,-0.020861437449092236,-0.00314784983225983,0.0036585623358996074,0.007047714233039174,-0.0010806149772300893,0.08984029188242647,-0.0042552810751513275,0.0389384331880306,0.05213550465572696,-0.01157034796516354,0.00964807219801767,0.02320449720086635,0.07584042183306505,0.011435885638335084,0.004345979451101566,0.0
7,0.04502832628339776,0.02057339635072946,0.01935131670019562,0.003920004259685139,-0.010093981579201437,0.0012956407698791405,0.02588894803766443,0.02704101960431506,-0.0071833673408469145,0.017641277471204506,-0.002417610038757587,-0.004918134147563307,0.03316053769105902,0.04243246900077933,-0.010619719794186218,-0.02014462623554312,0.006150012286134397,0.00212864970832814,0.010996304384601875,0.000488976284562014,0.08540945017714083,-0.0038615958737017583,0.041889941658422,0.04636508471332742,-0.013209958960914281,0.022581854603886578,0.02816321110141362,0.07816346889438555,0.006251735848817325,0.006093069496366862,0.0
8,0.038419225789358184,0.023227822960825286,0.02165768940586491,0.000322956910716106,-0.011258506248887924,-0.0012344242411653596,0.031154168378269793,0.024067790185040905,0.009407998046460551,0.016422491743686936,0.0013820484934490248,-0.005394158826125691,0.02872483191975198,0.0469471488858984,-0.005491418708159613,-0.0099573924113474,0.0006954957140233324,-0.002784135496565081,0.002601264963751035,-0.003954360187554569,0.08710127960213628,-0.010897594135897007,0.03576974347752911,0.052799216471144536,-0.01026417568171952,0.030723429373310126,0.03048748394444916,0.08209016808497491,0.011754653662369129,0.014552542928103334,0.0
9,0.041613203805717265,0.03073407089838194,0.020790857964401714,-0.007800638800231654,-0.014282430278717069,0.009537174543323639,0.03128904113827759,0.03303285634108015,-0.002183389135094921,0.018036283528889266,-0.005586569423300094,4.721304773009419e-05,0.030729534023392947,0.05402485732102078,-0.005993058771526647,-0.020009037646432536,0.007330517805783266,0.011039542688096362,0.0013052785889498097,0.0015045729758842886,0.08551603023917238,-0.001544578304882313,0.03460234878100209,0.05296429256722083,-0.0055876186788901055,0.014780909168890364,0.014965107500443763,0.0725526652728671,0.013915165263341404,0.010701342673116336,0.0
10,0.036804135999303746,0.016909532987971543,0.014786924681550396,0.0030584497124710244,-0.015059235062098752,0.0015544041121806553,0.024505104952197935,0.03523914628222349,-0.0071657914866885015,0.00838410184614768,0.0037744823729437224,-0.006306734471127117,0.034904879791832474,0.04103440856984802,-0.008359965466392559,-0.014280716832123634,-0.004530373826220148,0.016307177643637025,-0.007933222952758796,-0.0040022563341574925,0.0897843231426465,0.002858663831685419,0.035003803615904217,0.0585631745468093,-0.012725330072376216,0.01304224662472761,0.03851388509908058,0.0741048970743528,0.0048972728514668565,-0.002907979065979396,0.0
11,-0.08233367816825238,0.027276191301816147,-0.08541081486354814,-0.002757967850986998,0.010271271268349178,-0.002829678730812509,0.02741399342065071,-0.010013202653759884,-0.0035750557803520097,-0.022123370564116146,-0.010446891049180335,0.005269786139914351,0.02210858346747421,0.033514304645890024,0.0017551677318264499,-0.015543210168400901,0.0014460052191389572,-0.002382186701514484,-0.01323392524749666,-0.011540640066263382,-0.021325447443417835,0.051882941915154565,0.007704123433116798,-0.00044229653263749255,-0.018099850900798336,0.028153445698816,0.02831509154398959,0.018033802703810883,0.025463931230513784,0.0034851703876089516,1.0
12,-0.07524231758696835,0.030584968169822844,-0.08167962316046613,-0.008470244187314053,-0.0035237027532738496,0.0050105714447778345,0.02444706140707982,0.0054441516901718254,0.0019314862924624157,-0.020535946780639337,0.003369372160930783,0.016659258485509046,0.030807831526275902,0.023826330386680094,-0.004592265740583341,-0.016746153271263973,0.002196779440331441,0.004468386938899492,-0.0072820107206878594,-0.005595571526530635,-0.025388273146842513,0.04888668670520971,0.004757313877574611,0.01099278653567356,-0.022569773861435747,0.007653921886850051,0.027929726961173816,0.008742716080243256,0.02746842284587172,0.008974788032444603,1.0
13,-0.08058968474626993,0.023394964235267823,-0.08893085324737053,-0.008538210219682749,-0.005307712642372509,0.003927051691002343,0.027422619442548226,-0.0076540284482332615,-0.001150991076685974,-0.02354795643919543,-0.006196712052909662,0.012925675481069465,0.02855647450390719,0.03349654500623017,-0.006412413834997212,-0.018155904143526982,-0.003006766930645492,-0.0006587741506033056,-0.0255720789138419,-0.007667330298411796,-0.01982287174413387,0.04047879433870926,0.006844604778249794,-0.0035358236849283037,-0.0069160351018704115,0.02029235053507147,0.028112441179357645,0.012174709461036099,0.02423429996157987,0.015071105654496758,1.0
14,-0.0786091112004536,0.0263930683180195,-0.10001266415512602,-0.0018086158999012516,0.010576496944588367,-0.002345247463329712,0.02053271937009023,-0.006657875796285989,0.0028809001319324962,-0.016489551449805195,0.008055131420970937,0.01949715419852676,0.039509769540376015,0.02948725150358762,-0.014215592950244924,-0.0165603983808964,-0.010028711105273673,-0.0033055685929581015,-0.0006888339986666159,-0.008111569604415138,-0.01740141015601875,0.04661471675530802,0.0018363220144729895,0.008841011385420193,-0.01282659213405951,0.01557140728574534,0.02942433892387274,0.010677195695384034,0.02475291001832326,0.012213943194298891,1.0
15,-0.07636669702166213,0.028328484958509644,-0.09024633523996982,-0.0004640037498742787,0.01081733639952745,0.0018099956445369763,0.025933110109591397,-0.009405018814744873,-0.003917261121484322,-0.013809833867693884,0.004698143875018286,0.0130927441537489,0.03267396420688108,0.03576945473938286,-0.0026554626081007984,-0.01705712224163181,0.00124759952935178,0.0018399106688401824,-0.004094667112607632,0.0014614762080666045,-0.01983547973719494,0.047839208396184406,0.0016519312400594354,0.004311021119874728,-0.010053126351642365,0.010953564500397452,0.029626472984280804,0.009214886168890763,0.03445133014884003,0.01595428135293367,1.0
16,-0.07330898948412537,0.023596672762847687,-0.09779171298003249,-0.00024601094638993106,0.005721115350418952,-0.0020586658594442904,0.027768608725831753,-0.013351715675069752,-0.005720227772481443,-0.020790619329614585,-0.0007318228570525761,0.0022898161517827574,0.034566952072998876,0.036444729593143946,-0.011182880485261747,-0.011091087419297195,0.003547736375126898,0.006537339501665062,-0.003642157194104525,-0.01025823652454935,-0.023029375025834964,0.05182164302215876,0.009457149384018466,-0.0015974819062811244,-0.004832246033369146,0.0311041942344133,0.03248393224172648,0.015719326580605122,0.02815752777329404,0.012983361810703472,1.0
17,-0.07838010425638511,0.0275374778187636,-0.09829181055584096,-0.001191618477433417,-0.0019709902076477993,0.012670430573804476,0.022197085077760272,-0.001695013340893483,0.0053333559810915185,-0.01791676591751136,-0.00044835778962607305,0.012202621299114518,0.02637460739826748,0.03678344281644675,0.002833919292325333,-0.021565278236406308,0.0020726966592178216,-0.006892761205432279,0.006999841044278682,-0.007014262306198649,-0.01595560796304185,0.04506528850142078,0.007070278269182458,-0.006361385081825689,-0.010935315420536265,0.025460124332890452,0.02619142800171135,0.009962449444788381,0.032962779436395584,0.0073036931302671694,1.0
18,-0.0672524224482387,0.03112342742570522,-0.0925991179538435,-0.012561974815003657,-0.005517242918431915,-0.003396331244125171,0.027727408502890488,0.003099137590094473,0.0018035922767659133,-0.02132975879771087,0.0025809867675983308,0.01205146943458608,0.03324628825060622,0.03212703725829128,-0.008176539784724374,-0.012123603407460987,0.002875959640146398,0.00010860506628220886,-0.01570437026409988,0.0014097600552854526,-0.02147020418061377,0.04911026206100323,0.0062069512725142825,0.005208179479506275,-0.015469049129403658,0.022171986000222736,0.02836575892279846,0.004973519091107469,0.039198776518621505,0.006221520388906344,1.0
19,-0.06981266123801026,0.028890270358117406,-0.1033417041481366,-0.016047103225471034,-0.0025580039394035737,-0.0009407897411968144,0.022936588863027647,-0.00046730399127255663,0.009645232814166096,-0.027686590661210247,-0.006986252306997882,0.014116461022927889,0.036614705434615244,0.04172901629157372,0.013616443631075318,-0.021707125510787746,-0.00801758125713918,-0.0016694446010513547,-0.007229501519507328,-0.009865984393171842,-0.022271122037329803,0.05233076489557991,0.006239037659784724,-0.00014650168097353974,-0.01071725661705208,0.010855978460060369,0.0253606460785643,0.009784516690501257,0.023477417136255115,0.008395955539397329,1.0
20,-0.08056670819957415,0.02512051696746182,-0.09631772498507221,-0.004486816899314513,0.009293569981623815,0.0008429483183530276,0.030481190597255715,0.004670392581913108,-0.005302738790328234,-0.017636832071742197,0.008562312393478821,0.017542446919679437,0.0326840957902879,0.03556023310193415,0.002844285742052256,-0.01077336608936562,-0.0007697996308942512,-0.009317050890618614,-0.008748314149657151,0.0004000565957441825,-0.01955280704052891,0.04886088841417773,-0.00571944417996824,0.005089142166922034,-0.012995144970175171,0.005738551199603799,0.04348765944753288,-0.0014541139887033398,0.032492272816669596,0.0061451120721269905,1.0
21,-0.004520049525350124,0.03909004185650409,0.025918702762901855,-0.011809932301183762,-0.010579816168604157,-0.003728129467476113,-0.01458819362007581,0.0005325636676031487,-0.007737742724369034,0.016621482228063103,0.004566338552361258,0.0031147071382814527,0.01987759917883192,0.033572104333952885,-0.00807727344369904,-0.0256774050409697,-0.002012170768573416,-0.00946329113933402,0.021700348715247078,4.187805625693274e-06,-0.012070898993717735,0.04010853491293114,-0.004671999091726144,-0.0066377389823184104,0.011426388465671048,-0.002041947696774643,-0.00907044664019786,0.006157437340152753,0.005331951000692565,0.006305051972906146,2.0
22,-0.005544038310301179,0.02006471806309265,0.03364278860189562,-0.0028835350896545043,0.0004270524460435556,-0.007841899684934745,-0.010605857595642965,-0.010671429493983491,0.0041331457984306146,0.010083650618291983,0.004651082692241922,-0.0017458773727254296,0.018156930912630063,0.030283481400881315,0.0061959775324258665,-0.004415471381960174,0.0026041451198257283,-0.005376816770927055,0.0010897833946548884,0.0012119950300124823,-0.017136413706491615,0.039910411528229606,0.010611886949851027,0.005614377210472841,0.015544356126450155,0.0011902896102885538,-0.005670403198684991,0.01571202784843576,0.008744107036881662,0.007946676806298781,2.0
23,0.002384001254503967,0.024197973162127726,0.01837216089566739,-0.000981841074301613,-0.008952793762385699,-0.0017964141613651399,-0.023942398222742082,-0.0032073287914680814,0.0031838428235271155,0.0019813378245980093,-0.0031358076907067774,-0.005936730410105951,0.023228463188779323,0.02867854037151507,-0.005782639134945195,-0.006933677645736903,0.004701662346021599,-0.011825197752619487,0.00030152407234832303,0.002199741217342271,-0.014289041424603301,0.052084342782550315,0.0031439543120065023,0.005249907406171089,0.01482855088247788,0.0051401437106799105,0.0017628064998997232,0.007145760788084469,0.002519577234262322,0.012003380749472376,2.0
24,-0.004627511470700323,0.02700875688020174,0.017667123710943654,0.0017547503192522048,0.0003669860192459812,0.0009266743980511854,-0.0051269032538536,-0.0014691689398607466,0.004054391676080716,0.006411421914882844,0.0022771169379960684,0.001707261373193736,0.026509434036285095,0.02526647221349804,-0.019151651439233107,-0.01510033040816781,-0.004986999534134517,0.0010534979861305676,0.008269794725562067,-0.00259292416309168,-0.028052071998933375,0.053866067643583954,0.0007655855316637417,-0.0019320700948087942,0.013496216098983995,0.005119073703053206,0.0031730868224172054,0.018112482865938275,0.005369606259038452,0.014071873099503312,2.0
25,-0.0020643240446172944,0.024996466479861756,0.026870459909803274,0.010841567957669438,-0.01462304872422778,-0.00434847577907227,-0.011538017339257843,-0.0016604221525669597,-0.003076751305776304,0.02016595364281728,0.0025369935157032327,0.0021500552432469895,0.01220668330536463,0.024004717688809567,0.003528122153734519,-0.024743825207364584,0.0008411980047129903,0.005279394804553531,0.015546143411277673,0.0009702064234547999,-0.01718506183602515,0.04970802069540639,0.004582015925525767,0.002759293814166382,0.005173447329047811,0.014593859498475284,0.013722139587145986,0.00474033421916186,0.011256379626746207,-0.003338006773176625,2.0
26,-0.00980859269742853,0.032358023278663384,0.031974224766819895,0.0030137054631968925,-0.012951117000960318,-0.0011143760625765917,-0.022478521322050943,0.006678008690386119,-0.001134091035441892,0.011880455119856371,0.0031287567444222265,0.005590710172219914,0.03078627032570883,0.02203281037725577,-0.0013819575932314694,-0.012795290229662266,0.0013362250374374584,-0.005871891898780351,0.0018708978920328168,0.004771679073378611,-0.021486506632298886,0.050408878999887885,0.006737789631125744,-0.0020602615292453536,0.013336118371085198,0.0009237653743506814,0.010619209729583898,0.011774437313113055,0.012083562674554614,0.02646775867110987,2.0
27,-0.004579063239273129,0.022793884952087288,0.02632622541525402,0.006541226974979297,-0.01877781910443281,0.0015322641315709674,-0.009002267409811299,-0.014978421629843159,0.0030088611691102647,0.014152662741538126,-0.0019011525869433038,0.00399287478771799,0.018874238563135488,0.03065731449508999,0.00436447434236494,-0.028441058756956565,-0.000534657201124663,-0.017772986953642128,0.00021443249056159002,-0.007362203720042628,-0.011630790167925254,0.06326705223919181,-0.0032307320073276355,0.006678128519203797,0.015035785604060173,0.008691501404316874,-0.003120929760733269,0.0017995253645907,-0.0028018184581359413,0.009006815760125717,2.0
28,0.00823933059338393,0.021978050560316105,0.028771898160365624,-0.0044198919181578705,-0.0044440774281408425,0.007818754932105767,-0.012218950221201199,-0.0041682117693548305,-0.0016879599239705138,0.01668384782837011,0.0024099460655005608,0.01245054322818319,0.017503079806527405,0.02452286549790804,0.0006624181119249624,-0.009111522800848986,-0.009849046257164044,-0.01476167393469475,0.004647449667363189,-0.010693960237083055,-0.018161279498605944,0.05356706869752187,-0.0017075860746537121,0.01319053173976199,-0.004662805867979912,0.0019001110859570736,0.0058600858589476215,0.010375832097311745,-0.003205037032880177,-0.0011331260357651612,2.0
29,-0.003835690441654737,0.0382759420239102,0.02777393475142738,-0.001967364682682556,-0.012525788403867899,-0.0031973972775939754,-0.012017817684876596,-0.006721992853498097,-2.1668689062978833e-06,0.004722458026340633,0.002400542948269041,0.005947748472562635,0.017591463345171705,0.03221504078761447,-0.016282566796838902,-0.00846600577263638,0.012088573886029427,-0.014472264010186298,0.011383841686017394,-0.008866657015860433,-0.023865381408421055,0.049800183114860605,0.0011035822152003383,0.006951910336985546,0.01239659387197144,0.006928748100182598,0.006722422846120637,0.0028532911701161213,0.005181142603245265,0.011857089476850173,2.0
30,0.0003232176704553586,0.032580614626351694,0.021621955036577933,-0.006332369185089498,-0.013409505646583832,0.0030664322070950057,-0.022013222507365163,0.003082532388495719,-0.002679313398310695,0.013100030979804046,-0.004636662475031904,0.008885838458377135,0.014158600378735463,0.030187629832015436,-0.007812989289038058,-0.007638618685573244,0.0036805001306114025,-0.017787786500640987,-0.0036070984696317835,-0.003072573816412154,-0.015502626039644595,0.054156889272255516,0.007167576059784535,0.0010531904847267946,0.019508124119460457,0.00450315486939157,0.00474067964177108,0.008502438649817895,0.007084139178640722,-0.0006140010765202522,2.0
31,0.03670884245194863,0.027380547528644047,0.02200301548973133,0.01202729498521801,0.0023960300213737252,0.0028807864986304986,0.024231145877650934,0.02628271220217646,0.004402232724778394,0.023797076850882667,-0.009918982505402794,-0.004080087706302244,0.01604129574042893,0.03486519159391533,-0.0028178886034313615,-0.003044568573201309,0.0008679526747533564,0.016656233658075493,0.0006562656521230032,-0.0031100045004050472,0.08548293988073974,0.05159624271070693,0.037884523812769605,0.049467947976600625,0.029569372290322065,0.020301588845048284,0.03689430237916947,0.0805254323995455,0.03618502171968802,0.006445276793101623,3.0
32,0.034768061807904385,0.022432756478223133,0.03529263764903905,-0.0015103895763709867,0.006448393578541564,0.0015708845998535046,0.02617483236363078,0.025686292299819096,-0.003135631030267368,0.009225617615006775,-0.008420937670347756,-0.003281839417856976,0.019298314670928126,0.02591711862770083,-0.0007631011758764278,-0.008003834557598923,-0.010958783253384749,0.005421382149893629,-0.0014241846185634214,-0.001183408654964442,0.08765713005056444,0.051376815481873464,0.045115668433062237,0.05357292298015975,0.025543164174882255,0.016564058106529094,0.028555176971840675,0.08700440501532633,0.036205835575651754,0.00637211006418845,3.0
33,0.041554955269531985,0.02789862059513511,0.03152907219772383,-0.003353457318734284,0.017973149208652003,0.0014092836534135846,0.031067043469110305,0.016234232062211137,-0.0077208727729718785,0.016973872277657332,-0.0026674648611725586,-0.018518857451732616,0.007444008195461881,0.0352969700349609,0.0037333370204442836,-0.006997050971769324,-0.017133510364416574,0.011108791824248176,0.009809842440341674,0.00555655947169906,0.08555148309436525,0.04116884357229861,0.04312064906788109,0.05205597656065745,0.02908528277893395,0.02415502577015572,0.024452873198065873,0.07023810753925112,0.02868041814039655,0.0061854169384219625,3.0
34,0.03845237746209094,0.018950751780328463,0.031036178541773506,0.00924809745992123,-0.0015491422125476241,-0.004499120325698736,0.03139890632818404,0.0326068952083469,-0.0012637097626764385,0.006101990012551885,-0.001397434176597492,-0.016244539956196225,0.025204495587266874,0.028465918321378663,-0.0077402592281856615,-0.017473885632372187,0.00991747270079132,0.0116313082011972,0.002811919983794324,0.007580285640107212,0.08643302341307926,0.04628218857540241,0.03892461101087187,0.0538876558581168,0.02335958750050713,0.01675846836394707,0.022068034841238888,0.08143179462312924,0.0228352233416,0.005246877449018262,3.0
35,0.03695410318399744,0.020045168208287133,0.033173269743584644,0.009102466222192261,0.007598357702498926,0.003335370340157918,0.018736684449383964,0.025756066470138637,-0.007348869083556571,0.014038277844370745,-0.0076667007741360454,-0.008486868392500875,0.014472986438730398,0.03155370732802341,-0.0028438137496219784,-0.010547689814916387,0.013431436793519406,0.003758348800103182,-0.0057101966100270895,0.006295017886310442,0.08633531081719735,0.045939293684156106,0.04028228816460147,0.05671111288357089,0.02750202685888046,0.014619397339424581,0.01893328835819137,0.08109426183180014,0.03311393516447471,0.007625365246043241,3.0
36,0.045253274344433894,0.0193365058537911,0.03139453545000878,0.005752519915288935,-0.00026184716343635283,0.0013000929612378355,0.02165746227979803,0.029678670062950267,0.0014406940914666138,0.014778118633707033,0.004094302386294433,-0.006972406640332826,0.01459079760190613,0.026766679282305157,-0.008559851506039357,-0.010185049422123164,0.008166883321071789,0.0018726932150363988,0.01268782648486776,0.0028979368136085016,0.09089562824162045,0.05187518027760709,0.034820370553705224,0.058271105532999766,0.018613741621075475,0.02479266841253955,0.03410659315124101,0.0807099128186217,0.034313401769341646,0.010213708634707764,3.0
37,0.03350366843498599,0.009257561222344153,0.02003684168775718,-0.003355627421988521,0.0034959594112004473,-0.0021596957451763326,0.018160203526502577,0.02228405902384072,0.00902932867137594,0.019084824705635512,0.0004188876089539802,-0.008665425774007529,0.009048749772188528,0.030942288337830227,-0.015395147114777722,-0.009743848890746785,-0.005149802211796445,0.011874844095473933,0.001896721350344253,-0.0011666921666219137,0.08672498094365905,0.04971280113647029,0.03592861538666421,0.05101421597684831,0.021753039103842086,0.014467200657203668,0.031182891332097663,0.07753357912938644,0.023018778240025947,0.003992659979044799,3.0
38,0.03785412066917545,0.021955161868611576,0.03471955940376892,-0.0009759142964329607,0.005183924094821993,0.009192059768215922,0.023464104103393578,0.01662837335789449,0.000742677674258244,0.0018548621694813381,-0.005313704285861394,-0.0067260651602797815,0.013492837495532256,0.03697052488578195,0.006716453272394196,-0.01402248898976147,-0.013064982791422207,-0.000772166898667883,0.002387092233468341,0.0007332372102950341,0.0840310866777559,0.05141408991897315,0.04092381371741761,0.04779238702723403,0.023444868514261783,0.030628917750602308,0.03725856725897421,0.08409723370664211,0.0293529414012721,-0.0037936446104922515,3.0
39,0.037085883745199416,0.012149915868337592,0.028593986004121694,0.002067246620803062,-0.0020690462770000394,0.0079208395348903,0.016452822609235376,0.0224696025679862,-0.0031574254967457723,0.00328777650326266,0.0023969273408741745,-0.011336778044628893,0.012707195476431846,0.03905007667838481,-0.005794443752663041,-0.012903477371175812,-0.00803190398856975,0.003849555989176546,0.007172895631624616,-0.0023711458680217247,0.09000159796022407,0.04338617533482643,0.02643571998430387,0.05683147706102031,0.023919786687040374,0.029217938837520076,0.02582712302459632,0.07948867405132434,0.023642304093385615,0.001946690149640532,3.0
40,0.04270638962631306,0.024250030136073426,0.027611965604971134,-0.004896463461118122,-0.00012021549439916786,-0.012060153827294591,0.017164381506587133,0.02730432429205589,0.00649897653491219,0.018000897690519182,-0.0032868951314770733,-0.006909972956793656,0.016143535125957387,0.021861813068882536,-0.004496940768401417,-0.016284553171672676,0.002848909767968815,-0.002441054586350473,0.013353778205696196,0.0015305884262042013,0.08855103986643736,0.049869296863184705,0.03610120965673603,0.06421251133081854,0.011995399799110979,0.011640963518627496,0.029658759070018345,0.07598342011176393,0.028423964541419287,0.01127347271313761,3.0
41,-0.005700700248892109,0.019522484075430245,0.01565367532690069,0.0038045619463182253,0.013219361601789248,0.009612755126501183,0.018647969480328097,0.03120854977066549,-0.00901041844410636,-0.01767779300953486,-0.0017548957475381484,0.016372428267290195,0.03791697370670837,0.03677651023275579,-0.0025057747057589314,-0.01453751589802842,-0.0036012071947588422,-0.0013963267453924112,0.006852415206698331,-0.0005302259459870259,0.08889915104701934,0.05225959439939535,0.04256132381064291,0.03277297308683906,0.023756884936163007,0.02445695659410167,0.018910440562659447,0.07509016317853713,0.03743908832416116,-0.0001462256969810383,4.0
42,-0.010808316975241528,0.022626317393632807,0.024425761553268758,-0.004643257610706138,0.002106952099974886,-0.003221389046007222,0.022671080923323376,0.01885447046948295,-0.006333988111230515,-0.021263372245817733,-0.004677215693689946,0.009255692093149501,0.03432197400103536,0.0432563365384708,-0.0008362955694792681,-0.010021830954132073,-0.006693242059369747,0.01301581315648064,-0.01259770220261896,0.0025374924963933315,0.08511066803912327,0.04115440556142588,0.0285732696999975,0.03618353957047573,0.03162646712397617,0.028856004841580567,0.03249185892002993,0.06968523774040851,0.022913010813602176,0.010461909816742842,4.0
43,-0.0037312858436018754,0.024534657860873207,0.030375841777426058,-0.003951968852005569,0.005446771711466145,-0.004317981949910804,0.031153413160327482,0.01863002559925049,-0.0031562326327579304,-0.022739961907286582,-0.006900579776412232,0.007708964116873311,0.035477917796368295,0.04175476887625795,-0.007912545376024016,-0.004320092454060992,-0.006006299153746927,-0.0008737342790253507,-0.00039522912240124347,-0.003298717440873284,0.08251065060669034,0.03787384461771291,0.03216559163480332,0.02356176484604972,0.021339887806506752,0.01156758068752374,0.022653512647620586,0.0751131541531068,0.02457484660909322,0.006583183669685546,4.0
44,-0.004518757362663757,0.01822886004871629,0.034258489194778446,-0.005161581512402863,0.003914946282689042,-0.006740665162767081,0.032019333781878774,0.025717511663663335,0.002733245807019568,-0.024012249738919866,-0.00710214106222411,-0.0014845904593332872,0.030119765538804424,0.0462393350925802,-0.0007122795982943476,-0.008007882390264719,-0.009359432038560931,0.013830839894759648,-0.011832362410686125,0.0032744336706381776,0.09678637083887359,0.049427431373254914,0.04103447812760013,0.03831870416446871,0.019415849724721945,0.012257276029716227,0.02280519765519316,0.0807593398060157,0.025226232973368786,0.012315548040013988,4.0
45,-0.010436394573630306,0.018996616110790825,0.025406286301702375,-0.007928890971475557,0.002431401661183872,0.0008263983480091649,0.02671952128711417,0.03389934476526543,-0.003374825248002496,-0.01732001158605978,-0.0034920408026906506,0.01795991880637616,0.03401485513760939,0.047700875655028036,-0.00539527356352943,-0.011135134679713802,-0.0046146029503254795,-0.0018470114323461532,0.009117782462208273,-0.005328485311811063,0.08223236575356403,0.051955851338377226,0.029884074880566113,0.03181721556116253,0.02281482125000742,0.025126870932941876,0.023399185846209234,0.08576544315175195,0.033144100541984266,0.004208615268660044,4.0
46,0.0012004620308814294,0.019186947436253265,0.028966469694416016,-0.0009701535790086538,-0.007297872338488076,0.005146413387281096,0.01569177422261132,0.029059598994208506,0.002138750637493747,-0.021800131994348056,-0.011747591338589687,0.010251954132811728,0.03501107853485658,0.046160050168029224,0.001815924000175585,-0.011724432633381274,0.00828301506936496,0.008789361906230659,0.0014185576486823563,0.005504443133492905,0.08701761446557289,0.0510409400578272,0.026302826271434227,0.02170300147623936,0.022390000878040116,0.01873598732268847,0.028074219380790827,0.08104388545875647,0.02090772005265688,0.0008438460538880933,4.0
47,-0.003581277515474011,0.022637598146397098,0.029776208523362793,0.0013025861035472208,0.008671329656207127,-0.0025882447429653207,0.029691049686923224,0.03062176894713939,-0.002549207062895943,-0.015806197399165178,-0.0043776729273421406,0.0048173490603034014,0.04282797641096391,0.05771968136219456,0.006721935220554008,-0.012550029493024115,-0.013757115916290544,0.01067117859949332,-0.0017079355386633935,-0.0037717062711423817,0.0839508283293391,0.04456885168617347,0.024707695820740103,0.027405213946548983,0.021436667028363787,0.011008085389457885,0.02309256630081382,0.0930594089395453,0.04485329035378444,0.013544440767632117,4.0
48,-0.005370755026672252,0.01211983325898726,0.013946102002277526,-0.00039609228625601245,0.008675344495482849,0.0024721952708435155,0.030918485177102013,0.014306898155256128,0.0015404203890875758,-0.026912066527830823,-0.006162943922949154,0.014321575691059268,0.03049939955976198,0.05019779920557631,-0.002756384988085924,-0.014889145013037338,0.0021721700698356964,0.020485078450702,-0.0027900860717009423,-0.006700250665269492,0.08303434968465491,0.05398335327461148,0.03711659174060342,0.034973714325721876,0.03478968000796572,0.01630886099857352,0.031060797105128525,0.08616146423789935,0.028889288341063753,0.005237499212278219,4.0
49,0.0029547581598052923,0.027397570477482164,0.03525064972496892,-0.008379932458657436,0.00419892812203085,0.005574010773480671,0.027965273012465836,0.01701332983707301,0.004241978922208081,-0.021092217595413222,-0.011265338382646834,-0.0019237428100004814,0.03629017587130125,0.04109270939453911,0.0016357074822410762,-0.02078195633390427,0.003288763189657538,-0.0005479430716809394,-0.0014670630270365013,-0.009185462494347636,0.09115743275707373,0.05288606526009267,0.03985884397898062,0.036922685772286475,0.02562396962478882,0.013632173640290643,0.025618139538924153,0.07538844963596095,0.0271914602880789,0.008450031618304155,4.0
50,0.0010913068365072066,0.026964877482570298,0.01745188934728095,0.005622105240035249,0.0026184320085407622,0.0007444736092443623,0.02138972758275916,0.024213981140624813,-0.003516559350205619,-0.024279539135182344,0.0005859866967086909,0.008859250915373564,0.032795367845186434,0.03601228289314446,-0.006491884870741286,-0.010690732098691461,0.010851561655151531,0.000106631191802348,0.0031992508723681203,0.0076448276148396175,0.09011850909747389,0.046625161254166415,0.03552095726706038,0.029803280614845384,0.03179523984618036,0.011850063828242314,0.022205135574874406,0.08629627208760961,0.032623790022179716,0.009717229309061992,4.0
51,0.03331337172503452,0.04034223109725225,0.03480519294090397,0.003757681014609919,-0.007975442622859501,0.0004013745206930305,-0.007098293566787368,-0.0018106629856952264,0.0027825359924536987,0.005331415733200303,-0.001785720940523601,-0.0024545178596922777,-0.01736240992371504,0.028658803801204346,0.008971789197088449,0.021912569306070526,0.006067316900369302,-0.004760253005719294,0.004688580331690328,0.014116529271905825,0.08841315119898273,0.04449909959548627,0.03447011775757524,0.04524546874160583,-0.023831426097043702,-0.012058610045968638,0.019645606808311032,0.010612830201131445,-0.002839429806598227,-0.023460599615569896,5.0
52,0.033201150912165016,0.024211625567988317,0.012849440098048354,0.006107252021961113,-0.010891353154532693,-0.00034901493001807766,-0.007752370010375093,0.0042695891791471605,0.010444365918886775,0.007253116150749207,-0.007824020694462261,0.0001487324298104528,-0.00853419505287638,0.03320172493794817,0.006098650328459936,0.003553322620644516,-0.002432405098221659,-0.01129935420870973,0.009782110641473442,0.013970750487702561,0.08129426940849796,0.046530481911219466,0.03860232365708546,0.05784543803042037,-0.022731150569370702,-0.0007191302720764369,0.03584149279207308,0.014349865404340223,0.00485937796071924,-0.024092676585207543,5.0
53,0.042574245967609226,0.028502018738425502,0.02423468756298259,0.011755520712282067,-0.00603034604648908,0.0035667253036036945,-0.007922849548811147,0.0033185209411893254,0.008745774819906856,0.013211291742220726,0.0015044384075047646,-0.0024851473598641455,0.0018815934111298318,0.02330274156510041,0.011687784101343641,0.011909096135634834,-0.006557512517716962,0.002908543705209305,0.00046863590761725714,0.002163924827048245,0.08284538445299235,0.044554573636472215,0.04409389755951257,0.04751947008039887,-0.023069505478060096,-0.0030058604426467846,0.02652503147677399,0.009713967852676749,0.00243227415889524,-0.020363467076048806,5.0
54,0.04605137146739055,0.029427345721578665,0.029696247733049567,0.0062394886527179306,-0.009102474410558236,-0.0012124557811588018,-0.008613434332338153,-0.012259522160667884,-0.013201737061851666,0.009865220199382905,-0.004938418628322477,0.002705068845875236,-0.001568098621960542,0.031898006342113365,-0.0011508783474976248,-0.005485848570680584,0.003840047805234768,-0.0029444257284278997,0.00902774924424185,0.018055163839713517,0.0848008335751048,0.043165020497667114,0.03406230219470405,0.049521016205367155,-0.027547110675228203,-0.015991881777472187,0.02881872456570531,0.0058751913777498645,-0.0017031775122523783,-0.02046290641766631,5.0
55,0.047405005175992165,0.034622053678012535,0.020759171652611652,0.009020834555056713,-0.016110914905991786,0.0006396712118119778,-0.014201306792992701,0.00020873946997060282,0.001947691669593615,0.022004570915182355,-0.005906199383279208,0.002923628894471592,0.0006924675712823346,0.03401734941859521,-0.004102900582724988,0.003085985048978606,-0.010084169324554592,-0.0011861061196288228,0.005736358748579923,0.03242380123965201,0.09117232880315057,0.05315948708016626,0.045632446669576734,0.04697218115535577,-0.02386957038050759,-0.011801912004260642,0.02484311829947866,0.0034497306490950414,0.0005881957127898348,-0.015583050215043056,5.0
56,0.04178295313384256,0.03283125328812293,0.024539324348822195,-0.005943096421503262,0.002300357407545276,-0.00195380502985187,-0.01179989855495536,0.0011076280588135942,-0.0027526354249011687,0.005336622375961128,-0.007184342330767504,-0.002102900760643105,-0.008367178485791354,0.026457070576675464,0.003700647565431342,0.016983303708263238,-0.002460868376679108,0.010598717289027336,0.004602282280302506,0.014318799438480603,0.08944258001823083,0.04465576684581942,0.036531056309136355,0.05072571368909816,-0.03606860140681569,-0.015667892170629794,0.033103623678072666,0.007435532238153293,0.006739103569065869,-0.030237071361212793,5.0
57,0.03363178550507049,0.03378198007564293,0.02825555870420142,-0.00036958649863001996,-0.005969081864719777,-0.0026871467750255794,-0.006070471616176713,0.006281249754448498,0.005985145319849667,0.01651416617359646,-0.0055620062540681315,-0.005752667342224722,-0.012905148953016142,0.021973833628538397,0.004574984475413813,0.008079853969719239,0.009567916780034552,0.0030288115152069684,0.013218569533616605,0.014814323936218954,0.09180565140092664,0.05609303379694087,0.03688723662492062,0.056094023746099786,-0.023554931653881235,-0.006366616297369675,0.02466246551063501,-0.00032137766196720113,0.013396726106681849,-0.024726046727948883,5.0
58,0.04670509707669205,0.028162860239300137,0.03469300769734065,0.006542258773745856,-0.006424085108677207,-0.01732030237680528,-0.009183039373778778,0.0014436987701824935,-0.0025401756631248684,0.0020723576810981613,-0.002183010914558433,0.007463164214634984,-0.005551779782494484,0.031985668243662044,0.004541955807611719,0.007453845887790627,0.008505786554957404,-0.0026274281255199844,0.004182438702329452,0.019857242893959497,0.09013136609788178,0.05236043738974905,0.031241611651962403,0.059651331713878854,-0.025825763295448657,-0.00870200718200654,0.02844514155114086,0.008753955239566588,0.0006903802315207533,-0.02435928473929481,5.0
59,0.04110059643741811,0.025691723557098645,0.03564682344095577,-0.007977844262213124,-0.0017614957427265644,-0.0060010233060456995,-0.01746508382125554,-0.00887394690337987,-0.003412165833577689,0.0116790972683307,-0.0036988631143968194,0.000519206673335176,-0.005902376357810095,0.032667033451170925,0.0029019776282217333,0.018572362675958194,-0.009100685121350776,-0.006003570637466294,0.016169576408800096,0.010549811787308086,0.08151344250066125,0.03292930914179836,0.035122614779707434,0.05607187859240002,-0.01713641731781975,-0.0036074551220341227,0.037917803666134224,0.001955226030200688,0.011263182069975869,-0.024153092102658796,5.0
60,0.043639136288902335,0.02390883561678637,0.02991276148341201,0.006281925032310046,-0.014308042984658601,-0.0042870775744186865,-0.009538830184374632,-0.001353197117562387,-0.0062415417574347406,0.007560008633181149,0.005898538382182372,-0.0026693809321764244,-0.0036089397565519116,0.0263049491624785,0.0017064320730966044,0.013548938918377064,0.002905227935902578,-0.008178691073384387,0.005082659434552281,0.018949817466006415,0.08593187679964195,0.04307408415654306,0.026286156844812076,0.05571955965315199,-0.025712199114092407,-0.022563021562328613,0.027148654962336576,0.0054418958811846,7.326367631841062e-05,-0.0269076634134245,5.0
61,-0.008861606455529426,0.02089519712119126,0.02703015016711664,-0.002561548590101758,-0.011083140107463555,0.0001806290978974955,-0.021179624239888943,-0.007335516284382986,-0.004567116646582679,-0.008221352175678305,-0.005092148925564232,0.00885232297717781,0.0004488317563663102,-0.012830580780351106,-0.004225582951820628,0.009830706350029344,-0.0009233129488867605,-0.006762716209198868,-0.005225733514352086,0.0023511827973658377,-0.028884431901082277,0.022305509520761702,0.006912544727744372,0.007217303574388781,-0.028106927276752798,-0.008777073039115285,-0.007642539692817042,0.011985789089200581,0.007908480681279792,0.011266389253037346,6.0
62,0.0020365352259852426,0.02166567852657373,0.014517411030937505,0.008722161473631742,-0.0140823508781582,0.008981466148917473,-0.01327972332842956,0.0017212666188906518,0.003343014993587247,0.0038238917512716407,0.0007624812720272668,0.007357284425184382,-0.005824307610283839,-0.003852105325778445,0.009781512772356898,0.004228777557393687,-0.003089620563328651,-0.010077669004510393,0.006981345242475452,-0.006940775733054108,-0.022370576561350993,0.01399286484505063,0.005141630070844353,0.00838248993791958,-0.020020735549225843,-0.0024159263325102182,0.004123800678694248,0.010411918227594557,0.006633131686270979,0.009352959743704396,6.0
63,-0.00788508781847656,0.017722728403251706,0.028180063289116604,-0.01362369857355897,-0.012975513599240731,0.00643124309708893,-0.006441962583070603,-0.005502959010751501,-0.01721168390171274,-0.017446560368574754,0.013106161178248206,0.011402706106204558,0.000955267061719784,-0.010184789578569031,0.0005254726287415658,0.021403621057346132,-0.004277931303765409,-0.005750373005104466,0.009454324958805651,0.0003841213641757675,-0.024157124671668348,0.026640989407919417,-0.0034770542983538553,0.00153413139019638,-0.01952340185247699,-0.01008818647440575,0.009022685980429724,0.008259090758003684,0.004323250384259905,0.007887403413105482,6.0
64,0.005956059610742182,0.015718060271310768,0.03582856272883929,0.00480959729385975,-0.013140674625310772,-0.006144261620915572,-0.007215450541681312,-0.0010232817380431728,-0.008396582975717154,-0.011919858880729193,0.009555852730522105,0.012524260752500987,0.0019792235379956706,-0.008654870984326164,0.004968435664791748,0.01536795307068345,-0.0021028366408056033,-0.02191645847511911,-5.645739381909885e-05,-0.002462982711176963,-0.025132228708006063,0.02278924827103453,0.002351934647737919,-0.002612018996719073,-0.017059237359986382,0.0056474567006786665,0.0062813640001205245,0.014686854733149379,0.0034703023215948386,0.006699861890577868,6.0
65,0.005011837020357833,0.02462522204063773,0.01860043961674909,0.007633437711164759,0.0016373932455802209,-0.007752302803200887,-0.024145674662499183,-0.007173179217039858,0.0006896648041754796,-0.004720670275025936,-0.01045184038242607,0.013184977577015658,-0.010054635211580214,-0.019576075509686288,0.0004890173698887725,0.0011666856628907182,-0.001067241888803719,-0.01176064651495703,-0.0021930492248220038,-0.0044687739739601474,-0.021513486909293864,0.0029898209511224423,0.009214531615500914,0.004749859129993049,-0.024298490266025256,0.01125062159392597,-0.0034938753383664356,0.008011784268186328,0.014398295152748526,0.009350462376048129,6.0
66,-0.00789311401064523,0.02447662523919034,0.025352686092060202,-0.0002797409878046667,0.006514812813695725,0.00040330128092975755,-0.008256930696597354,-0.011663315758934896,-6.655845867483025e-05,0.004661522390191571,-0.00424092934871501,0.002435786724350453,-0.00047113069844638975,-0.013807088588017335,-0.006037894162021426,0.018249084545631705,0.0006374704048047446,-0.005729036040819374,0.004260552952201907,-0.011628703799605806,-0.020169434344417397,0.0037908674836302243,0.014945577946580127,0.0064796309993931205,-0.03462145146750263,-0.010479330569931873,0.0018777238065618752,0.00635723348063434,-0.005812319339321647,0.007830438720952716,6.0
67,0.0007649921999668533,0.012311677234867426,0.022188362770181026,-0.0007338148231808574,-0.004167515521455111,-0.001961475047117566,-0.020571793304588304,0.0019121023008613943,-0.009212573276284584,-0.0021238529329333697,0.002892669488441452,0.020173593628307354,-0.010983676627368528,-0.009721608487015643,-0.0012288128561333187,0.002349954278632289,-0.0026512119885785564,-0.008515220292907483,0.008678629978615737,-0.002717923671697188,-0.030191838722075794,0.02811644606458083,0.002931971144577728,0.013993185841387739,-0.01422234014466404,-0.007093709430984629,0.013786569296302517,-0.0002702378518661049,0.005609213582333672,0.013104215794235017,6.0
68,0.004330023766299742,0.026930789255923827,0.026481867498883982,-0.012667257277409987,-0.006112222652289922,-0.0025685869524651726,-0.013569016754083542,0.011777086924768487,-0.0006253109480848694,0.005134686760932201,-0.00029544848925752406,0.011134818086086795,-0.006929789321694391,-0.004190808058813432,0.0008018216683642596,0.009465035915363369,0.0035358978522449557,-0.01065719599537759,-0.002844505675674978,0.010120344112750881,-0.01959919604555032,0.016197864012423416,0.01925837157186979,0.0036898017797319087,-0.012862810595584489,-0.010119670848886386,0.0032799276594982197,0.0061387702297619655,0.012416473468417682,0.010927206999432596,6.0
69,-0.00039945338747067216,0.010369225286874173,0.02309112582119943,-0.0017779188885189764,-0.005443288376392935,-0.002976611297058657,-0.01312848068456563,-0.004479165842807216,0.005199992874537387,-0.00498940051269437,0.006937144335273044,0.016705183185158533,0.0013798596145253317,-0.006465142702849636,0.0030462023610608314,0.007302938508273011,0.008604149626570086,0.0002934595404214788,0.0018688097934245554,-0.0009427352232861912,-0.017940850733388664,0.025014736849840458,0.0065795802714290474,0.012263442858809462,-0.02977156330942028,-0.011344388649181542,-0.0012532902784153335,0.014995436808553248,-0.01855877235607783,0.005793399927355847,6.0
70,0.00030556596328779913,0.026355776141979707,0.020045806726665415,0.007525884581017768,-0.013291506883951882,7.419917418720845e-05,-0.002049899077430943,0.003785892454488892,-0.0012389936148636182,-0.001358111478152293,0.003519686483019856,0.010054178645301086,-0.009907019382983308,-0.014097172894184795,0.013435583157438504,0.016981921554003517,-0.012122102250437222,-0.00423169329509981,0.009210672408178196,-0.000638977678362626,-0.013084309686529433,0.019724073683219538,-0.0028124136501756197,0.003376285653720789,-0.02140335993106616,-0.007363263134740727,0.007043449704508301,0.014803366821582741,0.00042799331618002747,0.006740994020634866,6.0
71,-0.035675607452180944,0.0006622597175942027,-0.02465261913187119,0.009116374152035797,-0.0001844471759952633,0.011334271476049831,0.01620522326604799,-0.00254451637036883,-0.0022657155835311047,-0.010603933227885836,0.0002699283690447054,-0.015067490910913708,0.010130430704817775,0.0044531344394139576,0.004151498913336023,-0.011125462792262944,-0.00792530603947635,-0.0029948544739264215,0.0038689918372576673,0.01232962817724957,0.016490582798258407,0.0022785345397988055,-0.011535360192984657,-0.0052241756632928115,0.017706873838668865,0.02095984623039759,0.0031393994094139834,-0.008890489432979062,0.04799171712793198,0.01617564024389757,7.0
72,-0.03514099990185061,0.0023379014967326896,-0.030882920762033767,0.003149796880108634,0.0051075384483352275,-0.004846986050348434,0.013652836722322453,0.003581703375441694,0.010922645897854832,0.00011229819349219944,-0.00011222232410992623,-0.017754613130858913,0.004598660675192121,0.013289916713373484,0.001560389268310121,-0.01722709451700675,0.0013532414617275874,0.004595669946635436,-0.005085487833951271,0.00821143573460336,0.022548331264011776,0.00046329411461158135,0.0017740679342668102,-0.011756307971991557,0.027928485119143986,0.0030978599677771047,0.0002901214113511591,-0.008881906202142267,0.05127235660766628,0.029575313607763613,7.0
73,-0.041277363339579695,-0.0028460593602335294,-0.028448854726769977,-0.01214334351263906,-0.002593380705319771,0.0035168368838809755,0.013106818791063865,-0.0087330924880491,0.012260357196574813,-0.008511467546103515,0.002841223548671256,-0.002045477254555697,-0.00485002906446199,0.014638568694363143,0.0057598266221896965,-0.012063289779103934,0.008511424611097934,-0.0016067810732838224,0.004098642094426889,0.011055550777548084,0.026224118180340535,0.003961638124449624,-0.011392530226849705,-0.0020447406055727558,0.027482184378922234,0.017754579526905387,-0.010277420853100851,-0.0042724759324716316,0.03991280224584849,0.016913286296459988,7.0
74,-0.04048998877308362,-0.005334291650603783,-0.018318272614188853,-0.005913022439765103,-0.019124359352085254,-0.004242791202720419,0.014653954808378493,0.004602801136815631,0.005519890816730376,-0.008424161292806908,0.001054370058326255,0.0024145938994406323,0.014594216679333877,-0.006290306347351846,0.002042714593861096,-0.009324223341020916,-0.004986708668406036,-0.0022424275326342314,-0.01393602405714723,0.003988411732188613,0.010433142155292332,-0.0034857573627084843,0.006298637275749361,-0.003987959609235288,0.022751514604035197,0.0030416909419010603,-0.0024038163274246235,-0.00832744896019719,0.04405455654078345,0.0326103449060399,7.0
75,-0.04276723434307822,0.00346815495539554,-0.016199439921743962,-0.004992738229973866,-0.010911622744506506,-0.0017726195732363516,0.004455351238208422,-0.016853714648154355,0.008631033331112025,-0.004717265574739756,0.00900823988867615,-0.01810495395970246,0.004673253454012198,0.009403510671673797,0.0174667913046634,-0.0006085332631349379,0.00613661420333273,-0.006670472412939338,-0.005139950167807164,0.0013225102310067713,0.03501502377353953,0.013942365037819112,-0.0031543330534850754,-0.0005561608249342778,0.025815000497685574,0.014455902660447875,4.3713274873978855e-06,0.004546183026374947,0.047988370241826395,0.024773447004388403,7.0
76,-0.056296376676035584,-0.00017453238070794228,-0.022427784664764264,-0.010190208154511196,-0.006491326769038596,0.008776129437044838,0.015288962621549114,0.003296767925481612,0.00891893498042295,-0.007595007299858308,0.003078695394984576,-0.006512422511103104,0.006065060407659898,0.0037520568963682363,0.0007510480262132182,-0.013014939894489824,0.006685566090013449,-0.00413206753347766,-0.014813144736616221,-0.005682913861474055,0.02399944373582748,0.005227617637926116,0.001966004212557583,-0.006808887262038643,0.0080592302719465,0.009954400172212578,-0.013846814152709205,-0.012956688756374166,0.044150220405479605,0.018712159473775983,7.0
77,-0.044660701692781885,-0.0026634655155190643,-0.010134589558874776,0.0020755578635382153,-0.00161426760591296,0.0006071125571342326,0.01951485403382403,0.000458373707602902,0.002134795004182751,-0.015971342958024548,-0.00188206423245786,-0.014390699059694144,0.006251602733480028,0.0066531426774438995,-0.002108365746669201,-0.0123428556990451,0.009996237151985004,-0.007770963030487427,-0.0055710718336920905,0.009656445094811356,0.023669053534867986,0.0034479019329084317,-0.00968090964735822,-0.00538120973954679,0.0219919799144098,0.0179176179881655,-0.008767609341625902,-0.004927230360957441,0.05514744229834875,0.028175332455990715,7.0
78,-0.026862882321327646,-0.010765750233036196,-0.028626113252303645,-0.001998866098456464,-0.0050842149263499595,0.00552512707825173,0.015142996125682056,-0.004723213986082428,0.004900419817797371,-0.019365653624736,-0.0035522006758772796,-0.01142350458529782,-0.0049760901690531715,0.005146907137396833,0.006981281138365592,-0.004751229604115344,0.00018461904278326065,-0.01024263006079943,0.0017233863482309607,-0.0006643817565142642,0.02593429436204937,0.0064357544321410895,0.0006119075007960709,-0.003531248518882462,0.02495783831357167,0.002628428641713641,-0.0004889291169117179,-0.00979133731283311,0.047535177326720274,0.023051177256493395,7.0
79,-0.03539536418060561,-0.005177470869796899,-0.028983839673757585,0.00421783360071169,0.004803620463954432,-0.004098517260222747,0.008592924326452865,0.0009278728673047528,0.002123612806693307,-0.013779892603428965,-0.008678429150060025,-0.016651102693160186,0.011101919740147998,0.010703171073642746,0.004199066214914563,-0.017631813341664526,-0.0030554871345985094,-0.008052708294996139,0.01026111990199767,0.0011570421774406332,0.017072348454001116,0.003202098224879787,0.0029401145984901886,-0.010188128835572345,0.018158229053237766,0.007529750144786653,0.0028228867248434267,-0.009445839593531196,0.053059485891516434,0.02491568792735137,7.0
80,-0.03283123480764632,0.0024620923628566613,-0.026520756681090656,-0.009387138402982971,-0.0036866110789224166,0.01170485008292507,0.002753066391225167,0.01071106438185165,-0.00029213651188389386,-0.0046314963099618875,0.01024716197974912,-0.018792962310652892,0.005064887486331874,0.003408216565466623,0.010039926428307032,-0.017581505153835487,-0.0005731589162462158,-0.00753966578012719,-0.0008753728775272287,0.005109882536176578,0.03687963486187248,0.009194140551796992,-0.0054796673903906214,0.0011315714016627975,0.013055176508083225,0.017984048685080425,-0.0006572371682141364,-0.02035105531809995,0.044670840007628755,0.028632773545481296,7.0
81,0.05096284087036966,0.01674710396858619,0.042135829980061414,0.0057110084016989285,0.00027483634933754607,0.0031031318808331905,0.029326515818167784,0.017139904375992703,0.006388972871899019,-0.012241625935764664,-0.007632433486470819,-0.003526659673635289,0.036418906909497256,0.045136987729236314,-0.013364211511499576,-0.02024816901481276,-0.00570520374205503,0.0022202202225392914,-0.0040879646896434295,-0.002001909256588618,0.08518574732407123,0.010191634928940593,0.04043909451472938,0.02804593477874378,0.025626280055650826,0.011608290441783584,0.030849854649646697,0.07388941445047392,0.03324788169623586,0.007110621661109907,8.0
82,0.03741391495455212,0.031432196538604074,0.036566027139419935,0.008535014284312964,0.003631387645960621,0.008057741697069729,0.032377643382888406,0.019330056114980156,0.005382809320854008,-0.0025783699713213567,-0.004327039774110362,-0.0036320288302668117,0.0362018781785422,0.03491926316556235,-0.006075512766984879,-0.009523033715061299,-0.001078435784565546,0.0116323477704959,-0.010617426776181275,-0.006988024772090375,0.08165206818774236,0.014133812374290587,0.044052088908648146,0.027118289472941634,0.022710503618021884,0.008693007260250133,0.029056296429006243,0.08889172291727047,0.03765203498212993,0.00461220830574627,8.0
83,0.04047098928533293,0.018102465143195186,0.04350056081106882,0.00569872122419899,-0.0029693230292544485,-0.0015511592643133324,0.02255556990094512,0.022222549468247813,8.29279017833077e-05,-0.005580921608330168,0.004668946223094624,0.003523090907446792,0.031233462577496523,0.03710321296021937,0.004687343107098844,-0.012063755284697272,-0.003189278316211843,-0.0016554313358662469,-0.01837015621001175,0.0006210221484861573,0.08875213136308724,0.0207949499978128,0.030500207064298197,0.03051062973064362,0.036045043375043995,0.011272270862208037,0.026978047228037323,0.08265644383909122,0.032223153815045265,0.007866782888514601,8.0
84,0.03545088534618657,0.020131663446901243,0.050235910341964306,0.007000104883047419,0.009350661823164415,0.005577168699660823,0.03040655436627664,0.025240380346728215,0.010728006111140578,-0.004185558820975937,-0.00457028965532085,0.0005190039981622873,0.03325143762934377,0.043297246540416716,-0.0023087067502543055,-0.007883690651136735,-0.0069073964699328475,0.009525209199891794,-0.00720932318210881,0.0032392860833768216,0.09181162915460345,0.02114327791739993,0.03990691133543561,0.034300454725844594,0.025648643245374112,0.021412531238503615,0.0349330179110215,0.08025815476391786,0.026704868197514022,0.011519324892280393,8.0
85,0.04616105550958109,0.024827952875778787,0.043402063036019616,-0.0016223968440984028,-0.005783810164218697,0.004665403400803777,0.02481390153347255,0.028168278579674418,-0.013757597763178406,-0.008211892549235334,0.004648330077751939,0.0010625968027099491,0.03598850150454013,0.04187581899351903,0.005516906216375146,-0.009047410354917584,0.0030734734080411245,-0.0060955064629737155,-0.007020596980701003,-0.0032889412852837104,0.07358504426620918,0.019933058700869866,0.03815077920783051,0.026075757357224203,0.029618244397573486,0.009494241154155826,0.026584167322056085,0.07047045920886888,0.030143517341885796,-0.0046722484704925194,8.0
86,0.03979213048173836,0.028154577335541678,0.03496001113776026,-0.0041408661886682034,-0.0010680166860706534,-0.008795212851941561,0.02494085308864195,0.02794003454289278,-0.0011743664907149362,0.0016231213333110198,-0.007811874240874745,-0.001666796127333811,0.03684513038528687,0.04298494282826633,-0.0034708937505650564,-0.004290324068253898,-0.007360877949551203,0.004694331851478217,-0.007375774350492963,0.008815165400254022,0.07213409358738701,0.020342232120300008,0.04307153170895578,0.037117477281516605,0.028495283405216024,0.012092172260080906,0.021960993438928003,0.0804641119276467,0.035917016389583244,0.009021854595869142,8.0
87,0.042168114432190554,0.019985411301141027,0.04422607650301179,0.0058117987990245965,-0.005174853563122818,-0.012965315338131294,0.02579938690867413,0.032166656751587655,-0.00956534597353049,-0.008133439078602391,-0.0010435894306214896,-0.011362155910105093,0.03759791650541169,0.040275343615302904,-0.004787305464352799,-0.007967503752943717,-0.011367998855592134,0.007018832422654787,-0.004575994769140764,-0.008482538231972933,0.08453821723225295,0.022481302455265945,0.04636756115750126,0.02592536241095861,0.02685495045922207,0.007296285126665307,0.022474417656246175,0.08167523967572106,0.025838930111972205,0.007746543680309263,8.0
88,0.03788945076488462,0.024730171652432954,0.041150648905636134,0.0017319157579915015,0.004007737240496825,-0.0034581078515791225,0.0282472206636546,0.020336672242472948,-0.002014378662718286,-0.010301042756128118,-0.010012292332559911,-0.0002700594295040801,0.029533545625368623,0.044148404182408896,-0.008541526931551914,-0.003194797167364275,-0.0012436950993859974,-0.000858526297030921,-0.006659192492122877,-0.010672156826303377,0.08778311617358947,0.0213622794025256,0.0448922205727026,0.03188287343581521,0.029408887701476608,0.012059558386083385,0.023551067784381825,0.07862770188009499,0.02207652573303484,0.011965129637888467,8.0
89,0.039927799821185335,0.020055516145738386,0.03854462952969555,0.0002447538638580354,5.582344536927688e-05,0.013622763064218201,0.020025466094908722,0.029293922246095703,-0.004901247200934827,0.0013065146374721974,-0.0074751459778498435,-0.0065675678772378334,0.028964648764258295,0.04562455840028362,-0.0014722707014683785,-0.015400509317456703,-0.006003158553266042,0.002056358752273114,0.00037392839445694024,-0.005904250295508556,0.08747023189338379,0.018172578511216265,0.041800054897062316,0.028398975474095825,0.022044036640339167,0.020883853609493228,0.02622756123373847,0.08144767462959683,0.031989052849332913,0.012806661603610362,8.0
90,0.04421841955447397,0.010736478662527395,0.038985937139777216,0.003874813978656359,0.0038639238100529262,0.005388081238153346,0.02326647655151104,0.028661640319286093,-0.004471496949646302,0.005442006117462031,0.0016163769640846046,-0.001786054300779663,0.032253901654545114,0.03350347212588003,-0.003316840024993632,-0.012849988236753205,0.0012080606048011802,0.007322688510084297,-0.011863060538379757,0.0065061549963822555,0.0852678010183384,0.017637740199939876,0.043092410926718,0.031333794560998426,0.024921817860577854,0.015455010468425222,0.034583218609281444,0.07626644458933049,0.03472099672181297,0.0012223016947209332,8.0
91,0.044912722826900384,0.019886923961961935,0.041486018269153824,0.008097149744733032,0.002491819085565725,0.0011920852261200307,0.0258892602803749,0.029156654051973048,0.0065187739205437465,-0.010047468847041083,0.009768558731705682,0.007859321228222934,0.01557326712400531,0.028438271720013248,0.0013208618120963155,-0.006827645546457387,0.0049713079862463,-0.0012910814499278887,-0.008317857509922501,0.004338205483992335,0.08658792578692427,0.015706240991688165,0.03522335152702745,0.03297203893748513,-0.012484628106470785,0.008427810289823326,-0.005948385547006358,0.07732401371889977,-0.04188159224682213,0.0033094525184855323,9.0
92,0.03008598886196009,0.017568681025970433,0.038626265042114,-0.004260700220737515,0.004919579979182628,-0.001091940479220824,0.016822955119022907,0.02812721385057592,0.001214574599884417,0.0008583355430778509,-0.005227108342868212,0.018949480312140308,0.016907297199877505,0.027974438745217482,-0.010675026903191324,-0.007827797568598053,-0.00211021077052463,0.00342476385195587,0.004015111664765544,0.004901313070766437,0.09571175998551203,0.01536094955171825,0.023448361469674325,0.03714846230359894,-0.007991136624701961,-0.00388742309732221,0.010697045162098446,0.08507715558575134,-0.04062358465635876,0.0026202700273512906,9.0
93,0.02775232210731839,0.005945842543830517,0.037649977672798776,0.00747942498199284,0.011042820520052992,-0.003391588783851562,0.025164452692381333,0.021108187963867184,-0.0047491658477337925,-0.0002685899895659229,-0.0016374934300274553,0.004425819429668175,0.014133020596958814,0.026595092496186544,0.010018289846658195,-0.009423439876848185,0.0026805718912697213,-0.008025182596839608,0.0003045437931634581,0.0021267846383061706,0.0864838936004297,0.018252818881089594,0.036913173920288506,0.02309795094793051,-0.013179110555173476,-0.00013626506602430153,0.0028843230465220374,0.0812501053335005,-0.05573423929577622,0.005021500162721581,9.0
94,0.038169528089155816,0.015197456666747365,0.0351147879484802,0.008908610012196446,0.0030903297576704496,0.0027747134681198223,0.02601420584801443,0.026930290025250887,-0.001577246387522246,-0.008890083854483526,-0.00032084894662510305,0.011923009087488641,0.016259260249849167,0.019656165210455125,0.005302350101906168,-0.00872008442357479,0.000967909008403178,-0.002862497083631166,0.005120035596949547,-0.0019768233521174957,0.08875409600356698,0.009827156020344186,0.03640726844364583,0.024232404010091278,-0.006704694584883579,-0.003994479080529056,0.001996066461155328,0.0786693619386768,-0.049434276589452625,0.004773555639427401,9.0
95,0.03432889011850174,0.010018097755634017,0.03751862146953854,-0.004694142075415653,0.0035573268075709454,0.008421956924692964,0.025444876546178857,0.021583779807910743,-0.005889697123381692,-0.013040751147809448,0.0018254531209192433,0.008070012403457066,0.022337681235795548,0.031057477448001643,-0.0012242569100227119,-0.014543089866820064,0.0028794147448549185,0.009495209847212591,0.005729655903856743,-0.0029282918030173245,0.08738588809071049,0.011779824830102918,0.03537360900127813,0.03137089285647723,-0.0045103349924611605,0.006102197193329576,0.011631860739818421,0.08921330803573907,-0.04762851993748375,0.01516934133847766,9.0
96,0.024247758134037893,0.022050699872271963,0.04472589921253946,0.0073716905528313755,-0.0069084416558220126,-0.0011910797001712286,0.026400387446953583,0.025316024267761725,0.0005246539338717624,-0.007719568018206472,-0.006269888483813644,0.008060476090516792,0.014616901062303827,0.03234785195804035,-0.007739361215147371,0.0004541692979153254,0.0008257467149959652,0.007551920354722813,0.008867634792018641,0.00340634219229197,0.08991882614226415,0.014850824263569202,0.036484226115392634,0.03286807095307498,-0.0017085167045296312,-0.009226632551504035,-0.00014193170803158207,0.0794352525111081,-0.041783486399311655,0.015018590845576909,9.0
97,0.03248241757760854,0.027442428030877413,0.04171356273608348,0.006475867693654492,-0.005347470201040636,-0.002274842607820547,0.022883363107812967,0.02181161030172374,-0.002003506198003718,0.002288150185755051,-0.0013589100419648897,0.005353097173573612,0.010623337351574558,0.03452201043094507,-0.003915819590855999,-0.01208675364039897,-0.0037965618208406844,0.002529426301314262,-0.006129213166068433,-0.009140704908322746,0.0930633455320902,0.012622397607963963,0.03179444671593422,0.03200034494153802,-0.006730997472483809,0.007319414306169687,0.0018563684045410412,0.07572141798138052,-0.04870966211445449,0.017553039162920482,9.0
98,0.03957375817004779,0.020578118571419324,0.046936917443857896,0.003942308041330181,-0.00034064657534924416,-0.005336172641957794,0.01742801660811187,0.0306574820455089,0.0017096976915793533,0.00017037750775941872,0.009591181310648839,0.011642427740200386,0.014403521430379755,0.03127261648563448,-0.004423840448014472,-0.009166814286641541,0.0036491906483667427,0.0056643829733249405,0.003359291069093391,-0.0016008864090696956,0.08352712772521267,0.024481658583750506,0.032267055082072824,0.028103535403346532,-0.0069027702555308655,0.00018978134483550673,0.0011610359415887737,0.0828241136963607,-0.04732239856809524,0.00532537517190141,9.0
99,0.034953841435343476,0.03376704228336931,0.040317473542400444,0.0011604617624545177,-0.005118866476912934,-0.005484043530440629,0.023670455388109465,0.02329597856581189,0.003898787850638711,-0.018932852752668462,0.007111635697009116,0.007249754930858222,0.025359442623478543,0.024741150611777004,-0.005364770760287717,-0.00951298178472019,-0.00661823255496359,-0.0012379022228117718,0.015053383072432426,-0.003084501055666855,0.09511364627364903,0.018036877511325496,0.0373484097132765,0.025651425723048488,-0.007186759987958225,0.00061191001011512,0.0049619844468141465,0.07383820986578105,-0.03847384325615245,0.016150740672326545,9.0
100,0.0332660515972569,0.015354860211226807,0.04758454633432911,-0.004326992798104,-0.004675483862706113,-0.003213453446097189,0.0174829013330984,0.03158587812268921,-0.007835738561756069,-0.004215185712251099,-0.0025977178402656546,0.004932479910475944,0.012421821313386306,0.03897901226074593,-0.018621529738513217,-0.013456723705716113,-0.005499332839245486,0.005466200074926715,-0.000555831041801463,-0.0017929600692194927,0.09336965879908536,0.01641399971949804,0.03467925151380952,0.03363072779755273,-0.021745438177607365,0.01141449947901783,-0.0035248012765491813,0.07769375575329951,-0.05658441240379895,0.0054451054487903335,9.0
101,0.08285750050443913,-0.017513952687643827,0.09329830626457605,-0.00037182937068149115,0.0020307641559241104,0.006558230427049059,0.035227342665443265,0.053817467740750725,-0.0009982185381920174,-0.014472983718499921,-0.005773964505530016,0.005198527314400496,0.04420276200976859,0.06777523742576744,-6.645743758010646e-05,-0.014513324978835104,0.0006432039958056069,-0.006133489403357333,-0.003111999583447729,0.00320878130239611,0.15020560297971627,-0.015154823559595694,0.07472231657054536,0.0769185696731094,0.022831395301985493,0.008338736736795888,0.002127279038663541,0.16872946954235465,6.715080598172874e-05,-0.0035572901112611824,10.0
102,0.07505398611798911,-0.0249610915239921,0.0951290178339524,0.0054270592548775086,0.011728353224166991,0.0004965975950875402,0.029887188059944874,0.03594326533189388,-0.0017655661350029852,-0.0137063260630526,-0.004117707304397202,0.010410814872482901,0.0367695207628778,0.06762105959680023,-5.778421210734487e-05,-0.007217487544574122,-0.002896146524333114,-0.0005346086664928041,-0.002216143734832922,0.00882031915890961,0.15323283204245902,-0.014440191631195197,0.07197509058189025,0.1010599914143347,0.02544223873464677,0.0060400768781616685,0.0006180863343655628,0.17392039811028331,-0.0018309311460703325,-0.0035652481254461145,10.0
103,0.08025845251906308,-0.022762384284780033,0.10250205342199531,0.0028371071528858287,-0.00012753310541590624,0.001193738478042441,0.034148492677703236,0.04505072119247801,-0.004734180283207966,-0.010418839438178897,-0.001090184030032869,0.008530078678738139,0.04417796381351695,0.07256766783394777,-0.0006279548244185716,-0.007896467092914267,-0.004062676670934244,0.0030623423627586374,-0.004137006485683205,0.0011739697551034353,0.150619352437662,-0.011741082898586875,0.0721678141829508,0.08178998296549314,0.028780029930376046,0.007041664761630065,-0.00041537827470288137,0.16723474035203417,-0.006928585388130644,-0.01253936645032608,10.0
104,0.08804854654805598,-0.023836945896091317,0.08681037332433916,0.010216482852918023,0.013282465852299486,-0.004664443096192577,0.042994991009056176,0.04486731145521144,-0.0006119459095199154,-0.009284924012738461,-0.012101535405995447,0.008373457497274318,0.03581607603456938,0.06965875894006092,-0.0007414398329523883,-0.0006800945218053757,-0.0019172310157931853,-0.0040020384315666655,-0.003769916177325328,0.0062289788365806524,0.16327333203230324,-0.018904282181843955,0.08298617451223224,0.09129489134272024,0.021875795650276725,0.01666959625507632,-0.011036425487055787,0.1611611419240771,-0.006611729784650489,-0.009451186854686764,10.0
105,0.08438386407480471,-0.01861952722319706,0.09568408691067393,0.005625884389445693,0.011495210974344167,0.0026282326593443975,0.03814295438313096,0.04139111282941633,-0.004948057385338605,-0.0032292916161992496,-0.0002713347675295974,0.015493183467728598,0.04623456324911687,0.07707670937493048,0.0014857788334904708,-0.01684959371626989,-0.003991865812326306,0.0022640692350770304,0.0040971239365194725,0.003031407238766614,0.1448172353899595,-0.01939740786188089,0.0687242818529548,0.08366748789656465,0.019900116467417905,0.011024603588438748,-0.010442984665070923,0.1693634305304396,-0.005744509039952622,-0.01168027386526021,10.0
106,0.07198997233096104,-0.027929537208175,0.09296415944315924,0.015811286622299622,0.007921649084691444,0.0028849782628672664,0.036880720407835924,0.04209342656352574,0.00011880093053061122,-0.004078235653624284,-0.003973206555376451,0.014262842636118345,0.04324087997739121,0.06240511921004331,0.003688565945336585,-0.009570093043972919,0.00602376996686172,0.0073195518520492355,0.003012791039859679,-0.0001469761701032801,0.15462227765121944,-0.009829462682553927,0.0729859999657735,0.09328830581988543,0.019616062782058814,0.005118745945070999,0.0011246334652624034,0.16590936168344816,-0.0077853123948364985,-0.0031004074546639284,10.0
107,0.07343755455921915,-0.02099744563581928,0.09166712216130735,-0.0017495796520624635,0.005785231951308969,0.002398331815021016,0.022470449597488198,0.04949014981304907,0.003934361287764609,-0.01380435434888933,-0.01300648192972305,0.007735226481186874,0.04780252531400365,0.0627705286246796,-0.002259316226514205,-0.00976428030951203,0.0010559678278826662,0.008343473768045413,-1.532258313430471e-05,0.0016739369082235732,0.15890775749542646,-0.013152181158421402,0.0679425258170437,0.08828254344707102,0.024955746552609324,0.0050921374400347864,0.0010845876737578973,0.16349384734364333,-0.0022817778935889455,-0.011649644034295461,10.0
108,0.07590341655069158,-0.021865772519143362,0.09241090918815441,0.006272769969415163,0.0019199653579096499,0.010530906804200222,0.03484152470844577,0.0434330290025512,0.0004994123173241053,-0.009144159927599113,-0.00125386774871816,0.004954044638667438,0.04723605526988327,0.06517948049550738,0.0018108395287332426,-0.006119169597167286,-0.0022021649922216707,0.004939938852421156,-0.00807200062792991,0.006837208244168411,0.15453408975003324,-0.009534852477934024,0.07671098312318377,0.0936052683781193,0.014720531149925293,0.007349016973896872,0.004525748330020905,0.17035221378216917,0.0010128284696203113,-0.011807167028774122,10.0
109,0.07028098445249092,-0.027602590914331867,0.0869498017077663,0.0013041916446985317,0.0034199278849329287,-0.003707740468567922,0.04032361854757554,0.04397729675394559,0.0009083888623187241,-0.002102481974815063,-0.0004116685510484536,0.009497123636487586,0.05195008419966052,0.06698555546796621,0.009795702625535856,-0.011922459198939883,0.0022461793288113393,0.009541188029270318,-0.0017980035850209076,0.010795420919269995,0.15316134970660422,-0.017244001783657384,0.0702602087034918,0.09888053951525318,0.021202267797169886,0.006911808265929727,-0.0038403741094418823,0.16761984475220895,-0.014277996373426957,-0.00787363162426243,10.0
110,0.07323634659688899,-0.02492833245639952,0.08734870544691321,0.007254860167226196,0.014047137473494268,0.00434062147617942,0.03790277690398102,0.04785349505602046,-0.003732190774719109,-0.007724531383821344,-0.0010415112910354793,0.004171478642159102,0.03997960108611432,0.06964502197012862,-0.005632910610009692,-0.011406225297039335,-0.0020571585923618374,0.0027948927999255613,-0.005589829021221091,0.0066008723891246585,0.1549733407388954,-0.019166759620550984,0.07517531926160455,0.08478417399840144,0.03127821375173853,0.01366445760074175,-0.004820962160761259,0.16964017477957324,-0.006166465913286088,-0.005105716988006174,10.0
111,0.07809373486090113,-0.02404436888936871,0.09448230430186592,0.004864785624842434,0.015141042865521764,0.009654918534464254,0.034876555133270246,0.04703783793470657,0.008260831045665615,-0.005642417481243673,-0.0015713211307195481,-0.0018696648423466584,0.03769114599456412,0.06899859530261973,6.627782317988275e-05,-0.0007651258295603822,0.006867292786206929,-0.006416111758821016,-0.009454625828764626,-0.011362962588769378,0.154381183364956,-0.01822681331978331,0.07819276872836266,0.08860358630047337,-0.011515308858732122,0.009917874415846649,0.005738990889792688,-0.006641741176503472,-0.013469080888863734,-0.007232641730545105,11.0
112,0.07406408303050348,-0.020131287147995815,0.08761766110472541,0.008027274557859313,0.010751315518315197,0.008316588453178956,0.042052431772993865,0.040556003249996475,0.0012574375799511799,-0.01005940022442094,0.001402943241106764,0.011922356402148872,0.04161359463882636,0.06429286990475697,0.003889037229512791,-0.016424252890355057,0.0048873034684483955,-0.0045980777745774385,-0.010166992162814132,-0.01995907527216303,0.1532483968443365,-0.017787277424580705,0.06678802982426417,0.09454510257257445,-0.0058658705797696355,0.0018963749997102097,-0.008927863599290948,-0.0035750004976472186,-0.006770983444633922,-0.000834121851724089,11.0
113,0.08026979561354154,-0.02153493416590733,0.08087984137170662,0.007396262052245148,0.005379295428393206,6.300326343469607e-05,0.02836123926162601,0.04118591255694101,-0.012384981569044553,-0.013485385742995227,-0.005640945157327242,0.00747714968966518,0.0464011449519594,0.06054710227512504,-0.0017651814850802488,-0.021674755872552232,0.002435436749592109,-0.0025467782318114654,-0.00786212976476175,-0.0021124997798066887,0.15194605722928073,-0.018118348060859584,0.07143697245492531,0.08162167167374841,-0.016633353768337116,0.01629745197363429,0.0004807044762346973,-0.018814811687903478,-0.007120959295699644,-0.01726391707464282,11.0
114,0.07809036180990316,-0.017937305068382623,0.09227013395584034,0.005533089767875769,0.008072410449389559,0.004072714928743348,0.03183341018499125,0.03234473513567356,-0.004076539822419731,-0.01712323342985028,-0.012658445466853175,0.005942072849465452,0.04684248276671843,0.06411300190076231,0.00497188978096786,-0.00564040448521113,-0.0020684559561400012,-0.006959600374040137,-0.007540159960556649,-0.018642740048780682,0.15543060779402768,-0.012091855232893857,0.06383606675396586,0.0912762255202052,-0.009618605106520012,0.00997550793419746,0.002011891911332181,-0.003522455929251178,-0.016953890358955104,-0.006151594091939861,11.0
115,0.07681977927915952,-0.02652569974444086,0.09352290480762285,0.004693982815735563,0.01092104702023177,0.0005698959640902862,0.04363860228972768,0.04349026104111262,0.003465669708998669,-0.019007274495994184,-0.0030203648785955594,0.0008945316882904417,0.04300313814553559,0.075258577052315,-0.00421789729754599,-0.008747849426018342,0.00621093347104946,-0.010490651476277051,-0.007266427474949745,-0.010186729666872524,0.15083839850409916,-0.01661294416166878,0.0699385276641388,0.09318732564806541,-0.018634629692806916,0.016777182967420964,-0.005368242774251518,-0.016714147259561073,0.001420531871592013,-0.0033114590210219555,11.0
116,0.07942473890549694,-0.02802579155470664,0.1002504917258314,-0.0024409004566843372,0.005145990533809555,-0.008999728302574644,0.04468639026208829,0.047274511054064695,0.008560980950658156,-0.0004597120687795081,-0.006918321982511391,0.010119828477726321,0.041843329964089924,0.07067612336650722,0.006771953025132557,-0.00520371233779352,3.9065222096822175e-06,-0.002894110711929254,-0.004967797046141947,-0.005683349520965888,0.1419693763981715,-0.02228541755272787,0.07545010276022633,0.08119346812621916,-0.0072992931753680015,0.01564574394139071,-0.002158960784295477,-0.010090349605087033,-0.0009282243226129736,-0.013493540340168647,11.0
117,0.08174645510545456,-0.016165448942980814,0.08373478215756316,0.00846325571644096,0.010282694052113982,-0.00037397508444359634,0.037190234668897426,0.04724382976209266,0.007308103352134398,-0.00735048488826496,-0.007658058937900466,0.0020334590905270043,0.03265401098503576,0.06217286465644156,0.007630639082788906,-0.013705476325965176,0.0006642165421475134,0.008401524481650454,-0.0002742752784937603,-0.013944212822262124,0.14526119372230403,-0.02206814344618386,0.07487276915555065,0.09663841850142006,-0.011219549855897711,0.009560247241311931,0.0057868537232044345,-0.004763421851283537,0.0076828573389215215,-0.007879080889860932,11.0
118,0.07333755729846751,-0.017042164196945816,0.0973752233693448,0.004028552262197508,0.008862738288368824,-0.005459828798879457,0.039981074241994104,0.045092090454252415,0.0008894809444361561,-0.006839831845480596,0.0012267684359024659,0.017276200507359382,0.046719596228846125,0.07466747614435729,0.0017934465433449595,-0.0004998311357300827,-0.001408845767297613,-0.00980883927755597,-0.0038837473376558355,-0.012743493304730305,0.1563007183439466,-0.021899311035078313,0.07370606329845722,0.08107164759242803,-0.016621581906560698,-0.002269456546102656,0.002179917529225748,-0.0152277136848089,-0.005347011476794605,-0.00881350765077114,11.0
119,0.07798097228436401,-0.016569904178258,0.09913270123607813,0.005346055232811541,0.011501118882828953,0.005494975691819955,0.040220653044677465,0.04655790172233338,-0.0029470824012138986,-0.013384004820504348,-0.0026278804062410646,0.003950964641281432,0.046232303689139595,0.07397791534245797,0.0011660520210414983,-0.004072185237894646,0.004901318957250691,0.004187503394817036,-0.005855079556665005,-0.005692154998128315,0.14662507254882748,-0.017140798484940146,0.07496675335645309,0.0916865198846637,-0.015037972419963297,0.0010233685516001193,-0.004125428438976845,-0.004277504361970478,-0.000656616517716064,-0.011029012397596636,11.0
120,0.07114743445309876,-0.020654643987373073,0.09667302831694348,0.008909219471954574,0.00871002709296257,-0.002851332449275051,0.04037091023584671,0.051329183173840845,-0.010893201454785157,-0.009101267729049862,-0.007410857360789693,0.007054488556179899,0.0441384225125151,0.06537142479539551,-0.00950138695920863,-0.013427712979405114,0.0012731087843846772,-0.007372780972977273,-0.01034299597147131,-0.01136772854229253,0.14741931594406696,-0.011025446269467828,0.07805123305316844,0.08732763413686227,-0.014279538200962326,0.010670742341937952,-0.0018733074770227714,-0.006635368051841512,-0.0016824915002150462,-0.015305234680843292,11.0
121,0.03379902114702083,0.024562408267343776,0.0257473755361854,0.010891460933918379,-0.0038072178795300385,0.00356513155322595,0.022950174855369796,0.010080224369877063,-0.003932976011517132,-0.007103034605301565,-0.0012453026831306638,0.0041118725740598265,0.026458805593252126,0.037733287589127286,0.0019108180824237056,-0.017090743367921053,0.007954944080080554,0.0057617028819390214,0.011796688780950148,-0.004278853286225081,0.07739584518312241,0.012750059818141151,0.024024059902444734,0.04985991540172357,0.015001691939418249,0.02430760956254251,0.025920370476500892,0.07982246532800336,-0.04611321096561951,0.005147123167297305,12.0
122,0.04030724804881314,0.021722994100055473,0.030055476825559695,0.004335802767700263,0.006807654963486437,0.0010834939747961742,0.022690835245487234,0.034782198992111664,0.0068942122460712045,-0.005278647200390419,-0.0065923739368440775,-0.002088705320188808,0.007784973367127249,0.04410914019658315,0.0032711857792953754,-0.017242623450732394,0.00331181202831301,0.012259806279396764,0.009164277171840509,-0.001653681628551863,0.09456640189507703,0.006201125126137525,0.039257126804621484,0.05486368902755987,0.008486884254776582,0.008642492050509862,0.022169157727719026,0.07840659252702252,-0.038085977433882645,0.012242958667615211,12.0
123,0.0466744916295553,0.02752057202931073,0.029533155529105064,-0.000769658965348908,0.010999469849090051,0.0016422531470811608,0.023758056718392352,0.026006387711198536,0.0022030008008251606,0.002643197185384079,-0.005210518481450306,-0.001225533107061288,0.005340353820535778,0.0311069516851119,0.007371147933341867,-0.015597200457797711,-0.008048246381239037,0.0052832314459298705,0.009637322448472797,-0.0055424608141240025,0.08482436363424627,0.014435973442490892,0.03225305036822779,0.05443765270281138,0.014138658773046504,0.0146893158967756,0.015186134294398426,0.08030170625984304,-0.041535808833950805,-0.0006741880647058019,12.0
124,0.04610564448870938,0.0354661559264692,0.019493964847631755,0.010263786723716608,-0.0020803270230444117,0.003548085469940525,0.02769032847273714,0.023290755809807735,0.007885626834161965,-0.0024621755744535377,-0.0019109749348258872,0.006048863483340556,0.020214582982063446,0.035066466147644054,0.009085830896184328,0.0016848838793751331,0.005689321533739338,0.0027366062933027375,0.005294031073408417,-0.0014202309108882574,0.09110924990678836,0.02258903661823853,0.03213197667577124,0.056019141889486215,0.008946282114912562,0.009769860144781786,0.020135564413314246,0.0769085272951569,-0.046826827650035124,0.014326155811818125,12.0
125,0.04267875232784614,0.030662978454781133,0.01922928514787073,0.008669498879358195,0.0050457042273709335,0.0029235267304176054,0.028516972698052652,0.024559494205063342,-0.0021147112286281334,-0.003180762710235927,-0.0008381089378839018,-0.006771404556076297,0.02340840381962646,0.027316637221140274,-0.0022778491473538277,-0.0031292825033839796,0.0030057946537919203,0.004666158169392618,-0.0022533830401678945,-0.007529953652586876,0.09261203600675422,0.016822985547740324,0.03614362319297684,0.04875383519553918,0.01548877240749128,0.021092901065891796,0.027069787170406954,0.07345278852836075,-0.043235372559186996,0.016542376394201298,12.0
126,0.041756728347504435,0.027570816146892333,0.027740178010387945,-0.006020462503619848,-0.005390515484333349,-0.0006327054026717094,0.023138909474988104,0.010748700397209746,-0.0027736416490953867,-0.0032690425174252756,0.0019434031685236803,0.005950228252883208,0.010127024362902583,0.028337910500061285,0.0005957828255813441,-0.010108767278822359,0.0006542100541828646,0.012028721985533496,-0.0017561870664610036,-0.005182856274359893,0.08588891131956694,0.012011622730588976,0.03479547866889478,0.05700382586457363,0.011233962781448493,0.013719256362262957,0.02707592349491649,0.08359135424346643,-0.04260035119690182,0.009206352842824101,12.0
127,0.04148598234689289,0.018392091129426243,0.0293980342231177,0.0008984721214298267,-0.0007438948904308261,0.006003977168067663,0.020775402428137184,0.022244684387844618,0.003331749559482656,-0.003043198300198037,0.011583645233824505,-0.003589681192527037,0.01237374473747175,0.028593015502462626,0.002429042837634236,-0.018556886357231604,0.007208600502318863,0.009660130700682225,0.006142460047640306,-0.0023468562169708554,0.0877043469620253,0.011882914761267037,0.04079229659893403,0.06117727599153719,0.012532834152006551,0.01784227547365363,0.028370658878564478,0.0783545874158236,-0.047805153548357876,0.004483292053774027,12.0
128,0.040519973751183394,0.02549178417276413,0.030723103830764036,-0.0032554943529413106,0.0024208700974451963,0.005577495050646709,0.01846045803417063,0.017996910177978605,-0.008933340363290172,0.003627310460919449,-0.009235218077717983,-0.003226015441876138,0.01714173132927634,0.03697790946488909,0.005818316679819087,-0.01409257101855565,-0.0005322237487707079,-0.0010860178339662167,0.008012247460223635,-0.005713701319355933,0.08533805564125273,0.027512398661857024,0.02938924332269157,0.05031223315466485,0.00045862692867461216,0.010624905641516013,0.017395966117437038,0.08377479357334007,-0.055107001880392616,0.005075993094645615,12.0
129,0.04283940126620996,0.015584192380768027,0.03852006761588436,0.004127856584857193,-0.006640420757265246,0.004724536067004588,0.019571415692125657,0.019678551724549596,-0.0036486027871988846,-0.0029369200484882793,-0.005771635730595606,-0.002174425366265317,0.021135052007171563,0.02560526485702227,0.0037927265658844337,-0.006057483005528697,-0.006720538940089112,0.007801945183936929,0.012304870433339653,0.0030993221417632472,0.08346046620821754,0.022478393293442565,0.03348533387437596,0.05444127573661512,0.009857291401506731,0.022052953026768695,0.02900907136728503,0.07970750282840641,-0.03885796295209826,0.003219345427408542,12.0
130,0.032914086607097014,0.020620211731156694,0.02587303960305647,0.003704165114906015,3.658126430197959e-05,-0.003267854339570491,0.024291028073703338,0.02254467258366007,0.007031422915934447,-0.010113145978456375,-0.0023240620420657866,0.0024214689806325205,0.02106881165782162,0.028267913426706023,0.0009130593642410486,-0.004643334199944412,0.0005616718852409916,-0.0036745245174649947,-0.0015225268600429934,0.006480508322604379,0.09377645883315615,0.01590075057690192,0.03332361470955485,0.05467462778795109,0.010557534272415028,0.01492732360731039,0.031263074970826976,0.08252667652192971,-0.050070491490344274,0.011450635111631476,12.0
131,0.0828270131729342,-0.0405636461665155,0.08945079832000417,-0.0015814337714962188,-0.01265132581847554,-0.0023528740147761413,0.011280062320062232,0.047058302928779265,-0.006948047120496339,0.00462381719506382,-0.011758250652265835,-0.01724420231575236,0.039019194409862776,0.06628868830486559,-0.00888669373697876,-0.0015074308764853998,0.004920591408791001,0.002928731144605791,0.0022886817970111696,0.006447675674483108,0.15380787878067215,-0.046429116919022136,0.07374221310253015,0.08969679909209002,-0.005333842323941353,0.011432579817268801,-0.001942310389702918,-0.004837531636770798,-0.01534570229383201,-0.013943748763176597,13.0
132,0.07923193300135722,-0.030007042686431517,0.09512426248864604,0.008110840016394864,-0.0033045474207596998,-0.0014584123476185798,0.010190580575123443,0.04979560567762977,0.004062984106734149,0.012109397549226705,-0.012935275673362277,-0.020279297690841244,0.04754709543237301,0.06361580901389896,0.00025242759639900104,-0.014708231013508415,-0.006040673926941568,0.0063462108980349005,-0.0064644784548291475,0.004796697373566008,0.1432815438410436,-0.05278746441049164,0.07958267856105351,0.08262690009324415,-0.004768434878086112,0.011679646909408132,-0.007245392920878058,-0.0019025868357298035,-0.011909031448481511,-0.00990245976508084,13.0
133,0.07542837704422613,-0.03125288889397301,0.09169399765179705,-0.0003630677553089935,-0.00833384943994155,0.004571477983490226,0.017110964627438666,0.04450673167293906,-0.00449374086278148,0.012373561080847816,2.5379794304456537e-05,-0.017821349373877637,0.03435766113702598,0.06559230167751492,0.005948867569109969,-0.0018177573467314573,-3.507011043516621e-06,0.004749901978571878,-0.006960598085133455,0.0009482583820690185,0.1528920058675708,-0.04589143157151981,0.07026003997174779,0.08389631397115738,-0.00972896602843707,0.0067858514960765,-0.005297737884496381,-0.008396654004202045,-0.021357219676937506,-0.008650692195323953,13.0
134,0.0758563979201025,-0.019904190206674117,0.09255857502998852,0.0038368792690713655,7.60354392439252e-05,0.00180541484785153,0.009241901512098957,0.04484115609660559,0.0018497060017898107,0.007651452427289811,-0.001991680752808277,-0.017308878868730865,0.04113522673399858,0.05854557802540317,-0.0014600862459612197,-0.01123908050439579,-0.0023626522549662797,-0.001099394564707165,-0.00588956502153254,0.013864084661463837,0.15459738000759712,-0.055618841481795626,0.06962292938362509,0.08878502655940582,-0.0009049956819528431,0.009426785374684127,-0.003473089497775041,-0.0014667947350583603,-0.01928887307523915,0.0017038120083845232,13.0
135,0.07785435130011308,-0.02769834058653876,0.09624096904456746,0.0013542147336634905,-0.008834725221715415,-0.006735339864508629,0.015844062910134946,0.04605239916153483,-0.004080662464122298,0.0024614464365068384,-0.004514782613292249,-0.011691083887413843,0.05317166049270335,0.06475976784224398,-0.004678425031326808,-0.009721263605236055,0.008967750670325321,0.012158371634510038,0.0022077088596663607,0.005977709485846702,0.15247141803867223,-0.053489938550199345,0.07292684735766092,0.089526879908667,-0.010332241040823836,0.009766930812120675,-0.007405786452044647,-0.006327240354857624,-0.01780381091665436,-0.004525641513172814,13.0
136,0.07282261630370404,-0.034311888864995255,0.101538375177611,0.0004837205297310127,-0.00204326891983986,-0.0055309704307795774,0.011804584619659423,0.05407268717367864,0.0024164132782532443,0.0006830501252812949,-0.003964609625535613,-0.016693880733716603,0.04548236764765212,0.06968882688801716,-0.0004629671499061952,-0.008603628574084995,-0.0034093650149920173,0.0042950803330360715,-0.0011720740652494048,0.00610801385707551,0.15696032736930807,-0.05555087788381887,0.07662065482175406,0.09620010412565562,-0.01550952993748919,0.010850412721190174,-0.008980710299171255,-0.017622667971121945,-0.01285282932697884,-0.012375858873660857,13.0
137,0.07665375254383239,-0.03189632890635207,0.09620575651075532,0.008285187509019916,-0.007972782212582142,-0.0034538147341899557,0.011649293315440951,0.041396144403349634,0.0012454065559658982,0.0037200678010819153,0.0021969877538106333,-0.0037995256194397332,0.029501566009709226,0.0693299806065213,0.006564686544786393,-0.016746881260682227,-0.0036883238510788847,0.004141167254219388,-0.009373423404788105,0.006804596321899493,0.1472385571619535,-0.0568168979679452,0.08154243726394858,0.08386129706777394,-0.010112790757206223,0.009978316623942569,-0.008403873123844517,-0.009922328852063053,-0.01791660037351755,-0.004245047777220075,13.0
138,0.07107298554255753,-0.02235411675512993,0.08832887769356554,0.008555916318922965,0.0019868989904325987,0.008492409715947457,0.0078061497999279365,0.04060794663357132,-0.007422849388922073,0.004153581420133197,0.005971191605444515,-0.017133129596239888,0.04251051154653406,0.06431546945416601,-0.0005263980299376516,-0.008586892377658804,0.004155334798359331,-0.005733800741056083,-0.00594096702326955,0.002627904955477613,0.14137814705706872,-0.05592213580154665,0.07867203516800977,0.08096724064026735,-0.014080245389466041,0.008020124526694067,0.0011702970389313564,-0.017758210192111087,-0.02171616093040154,-0.019601968974789653,13.0
139,0.07030271974147281,-0.033173327631777105,0.10064110716490866,0.009359260565544208,-0.005655470139184877,-0.0005970837754502959,0.01025695438875405,0.04839578055463565,0.009741808679908046,0.002733242665095418,-0.008927636688954951,-0.011593880378036608,0.047095678974439226,0.0554446350325113,-8.119877243702758e-05,-0.01886621994814067,0.006118502553368377,0.0067660106127213826,-0.007488373137736438,0.01205734387731136,0.15149367304732725,-0.053088779354364506,0.07446284003239613,0.09613865884900948,-0.014906553348343173,0.006541304400140919,0.006898652716944412,-0.004168208054798714,-0.02034870950337926,-0.009340305266421595,13.0
140,0.08070407426027065,-0.029922390119866905,0.0880666462984236,0.002451315259322018,-0.0014442947508297214,0.002556800825376923,0.007174743862723491,0.03250611225159554,0.0025969397763519536,0.0020214505248947034,-0.008549732514525406,-0.0053788099809409734,0.03760187387914811,0.06408711752031958,0.002603352130150014,-0.00901099164657929,-8.01247467723826e-05,0.0028391542584553296,0.005543616867660884,0.0035751158298199213,0.15337963044783154,-0.049448675283352395,0.07274539422001727,0.09211822887896133,-0.009174242077918292,0.01075382507134263,0.007281392673981914,0.0003593634503416793,-0.008208261958877562,-0.007571539956971818,13.0
141,0.004812716449401067,0.04841526056518462,-0.020662429935987752,-0.0012534789683885986,0.005678849318235677,0.0024631340352574893,0.0025094360355970634,0.037702672350437866,-0.002468867129464964,-0.015006015196042744,0.0033374747666683135,0.00435713273164478,0.006344785774605661,0.004960815416330397,0.008390254308491045,0.002734294937388148,0.0006632969956756207,0.01112118873323798,-0.007042891420839663,0.006047979335343555,0.02399609259088817,0.06454892274501488,-0.01720518761513151,-0.008818225531176052,0.030707245796619525,0.001872494149359679,-0.004321095817809881,-0.004416680390852769,0.05260607291458879,-0.01509100531058799,14.0
142,-0.0029352853862235494,0.04726412689860373,-0.02475926516199534,0.0076778725844986635,0.008116164405897302,0.012008644271372671,0.008619351131136651,0.05139470640200077,-0.0026188767658846344,-0.007878135876147425,-2.23381394205391e-06,0.004110649468336799,0.004484158015660778,0.00837905007392158,0.0067786812074932205,-0.017715208261959305,-0.004261736723485403,-0.0018485714981499866,0.0028208755252334206,0.003332805260137595,0.032420131773550964,0.06164598119523339,-0.004561919285287934,-0.002153888679053112,0.027407040168604884,0.019707327882523266,-0.0025838495465485725,-0.008567176245035798,0.051142398241180644,-0.006482790995634814,14.0
143,-0.004587824411553408,0.05248652031331433,-0.03417273183626371,0.010666434748339535,0.005321605695000436,0.0036305835239054014,0.021873933625448594,0.052690063377453814,0.014352750085998324,-0.010491970668551382,-0.0007534062028609893,-0.0023588008351040288,0.007975775462142898,0.009304727349324336,0.0006952537570086172,-0.008592866387572909,0.010157071751300201,-0.0017484186028759513,-0.0013302013029840812,0.004010099040933795,0.02525816999878463,0.05954473557961044,-0.002168940745999789,0.0013892336810420762,0.03017360960735419,0.015292144334469345,-0.006871993339486955,-0.010537198530666264,0.05268530686747562,-0.0014061066532984267,14.0
144,0.0009220075643195726,0.05242878439986029,-0.020207510864770267,0.0015550789612950575,0.002553605822481446,0.0024531171184528594,0.01816460217942404,0.035686166092821214,0.005914665671583994,-0.01046248143038542,-0.0007190594618196546,0.01049058754670602,-0.008694384922400612,0.019894973251614118,0.004946438704996881,-0.007402052869923902,0.012156380910319231,-0.006200822229414711,0.0013257233087703665,0.009803610427514393,0.01698401923191292,0.06774884298037093,0.001845820680869078,-0.0040780189215815785,0.02742532333334208,0.014029848376175581,0.0011467277143098172,-0.010112352599259113,0.04869270154606243,-0.0012868532794000965,14.0
145,0.013081015432042578,0.058477239878978585,-0.020965331153424614,-0.005062378887444862,0.008519743132414824,0.003639135714777203,0.00586870013210287,0.03861635688915686,2.9668943430838176e-05,-0.012650692710803517,0.01460504503028152,-0.003907547489362325,0.012691992979254293,0.004960865575970216,0.0060877191150078116,-0.010104588500811586,-0.005702735798216298,0.0018980576139087638,0.009158027736755147,0.015206592866033665,0.018621921461986858,0.06457020668660954,-0.00021148092144281363,-0.002844529606903262,0.02726493537006455,0.015117848375312475,-0.001122330712791499,-0.00114641223051604,0.057974237943090756,-0.007930806960800842,14.0
146,0.010550244164598464,0.04296902891386887,-0.02717042964519933,0.008927948888908604,0.00671290379331518,0.0008311848357285888,0.008662986531229303,0.04130341047913934,-7.350955310118901e-05,-0.012149653299285123,0.0009034539717070896,0.004848625488112153,0.015889101206614294,0.012869709417185456,0.004278641188266959,-0.012505137035400444,0.013351648355987256,-0.003705206437520129,-0.0050900662571496625,0.012494104167508749,0.015965634325076,0.05288406644985514,-0.0025672394962497802,-0.00860617185415839,0.029868471617262655,0.009136205999467583,-0.0015267634202151363,-0.013080186273092428,0.050598040070775875,-0.009128288996383599,14.0
147,0.007409162974163221,0.042715473367917096,-0.0163497513019738,0.0039383493903125955,0.0003168730065016161,0.002124260802865428,0.006384721515220134,0.0464081274477245,-0.0033238469055903754,-0.021993603749416786,0.004026931244580773,-0.0014338659285707963,-0.002509972845717526,0.0057386162466139985,0.0056900714265481584,-0.015864560347414944,0.016214444126131225,0.0075309366653428635,-0.003512901541514299,0.008664516191005589,0.024008618861821512,0.05652094410756963,-0.0016682204436569946,0.002577758387775211,0.021859621778220196,0.010753513769757618,0.0016979581657555116,-0.015498565321067656,0.05070320071669307,-0.014551946659032835,14.0
148,7.851842691418522e-05,0.04866829365357177,-0.02487301017466294,-0.005823352026244851,0.013717053989008682,-0.001370874279376744,0.013243020041913318,0.04822616041442023,0.0028172795752421523,-0.015170680435586172,0.006791956965209667,0.0158335875780726,0.0016440040671439609,0.007025430195656628,0.011481518277537626,-0.010049465298945558,-0.008628303553893702,0.0015549886932160392,-0.0005851722642539079,0.006261453849277546,0.008629112370923165,0.058221717599634945,-0.006714089457852449,-0.00611167138735027,0.03381726050530824,0.020704523771547936,-0.003037770666226066,-0.010323146105575087,0.05519113643914907,-0.0058957350445122,14.0
149,0.012351514355655773,0.054407188242215895,-0.02821240683403051,0.0020541664915450122,0.007376830558169506,0.014408150550722039,0.01508185579954321,0.054098160202469485,-0.003441719745262302,-0.006356795879136236,0.009620379784634337,0.00941655768638352,0.006389236334348751,0.0017728671934123287,0.005784886020755316,-0.012316157979149691,-0.005576552568445195,0.021537534559187173,0.01030388334874928,-0.006060009988275127,0.01643684284262303,0.04996844245981281,-0.01741479966318092,-0.00016861755005871852,0.02451326709781596,0.011655483597835373,0.001989504355739202,-0.00966903182967375,0.05377340400446502,0.0016731460972323694,14.0
150,0.003022493175479677,0.040769448904436414,-0.022022164970540145,-0.0010699735879101723,0.006896173598761645,0.006363735506007139,0.006499095158626141,0.045270148361768826,0.001978635752905766,-0.01825356148598755,0.007733280967487327,0.00941791198349919,0.006378777801889025,0.0007712665333193742,-0.004716384425842755,-0.007946794625704039,0.0013845600972993354,0.012610031200102772,-0.0006070571215161277,0.012207313345976608,0.016489086783638293,0.05095978654124756,-0.00946116113111792,-0.005290848251629857,0.014204792592168,0.028218808069910884,-0.002666310950655391,-0.00703764609544358,0.04389452995033977,-0.0010860440323028886,14.0
151,0.03544924788984567,0.027298409704782544,0.037149030411226275,-0.0007867608621902716,0.004908543972284158,0.002630298039210882,0.019996297241738757,0.029883282843827907,0.0034043664989569316,-0.0014499746983250186,-0.004765081223549057,0.013286211254336254,0.03160775850526729,0.04239500043687648,0.0007977496130930488,-0.02430325121017438,-0.00335223861109506,-0.002630382315024196,0.0022295974273930626,0.0030171570872021187,0.07318981756922668,0.0390805502860222,0.03197713733348127,0.024038679928529073,0.02273055851589801,0.020623456432604808,0.02238045767277111,0.07748357099176277,0.001106088680008781,0.008341336695725992,15.0
152,0.03486675135786962,0.03191544013967282,0.03972860720052019,0.0005665003486535146,-0.011496206093183832,-0.0018720760702768033,0.023620241101577292,0.030966740887310076,0.0005230239962986484,0.006820331148535895,-0.0035529158019106917,0.008444894321092885,0.03463151411670964,0.04534501957195981,-0.0046046371437856275,-0.014457593338922554,0.0018418947913455175,-1.5624984588159228e-05,0.0025602187779438495,-0.00404454501503304,0.0847760564640246,0.052569183614016385,0.03742765016084931,0.029041883099257093,0.029623301921348114,0.012743500623242166,0.04154767382911446,0.08127084991578443,0.006548608483230167,0.013904124644473895,15.0
153,0.042737151475151704,0.02617053823085035,0.043662511803958054,0.00789085841149547,0.014091612636053895,0.0032015568890233054,0.019342846489702654,0.026062576245605033,0.0016533815354560885,-0.007443772108437963,-0.012496195077358685,0.009690373300907036,0.030979015568861193,0.053897713099006435,-0.006747496611126283,-0.012291718314580096,0.005086538256705425,-0.009610101884843819,-0.003227086202098255,-0.0010893990072109038,0.08344328433463369,0.03689596785748947,0.03453594885760354,0.03597408663569886,0.026906246281080515,0.014050654346023867,0.027229018092373658,0.09013747779205224,-0.004327760343800998,0.009386027560598914,15.0
154,0.03608478098816935,0.0247166525665558,0.0458593566370628,0.0003076024748059083,0.011510521775164328,0.002795173792833006,0.0185155011714475,0.02344977177487704,-0.006888703070444889,0.00020327040072865352,-0.007863642231518222,0.011092791603778044,0.03149278763808211,0.037705546675961786,-0.006542096451511855,-0.02145150421301689,0.0008997291774240842,0.0070682794720626765,0.0035993319834485282,-0.006580653017896854,0.0818982890174686,0.04286558751918758,0.04310565754448188,0.024751933749370448,0.028415075534752858,0.024243321124465728,0.028627464771086287,0.08139663309743915,-0.0006654189360757031,0.015601362474480948,15.0
