,0,1,2,3,4,5,6,7,8,9,10,11,12,13,14
0,0.0,0.0,0.0,0.0,0.0,0.0,0.0,0.0,0.0,0.0,0.0,0.0,0.0,0.0,0.0
1,-0.00639121875209644,0.238498312903463,0.0011156211262238099,-0.05216506954414885,-0.011846080778061976,-0.028346512909517597,0.05416415957755347,0.029609696996907322,0.03171368701177523,-0.00010297711317327155,-0.017708577222799775,0.01029837648505641,0.004138015576181668,-0.003564381285421353,0.0
2,0.0024927628901404296,0.23554478999864917,0.014788289487610915,-0.04991063755585965,-0.013232077312045542,-0.04399518944176997,0.03900465315285369,0.03117071635698839,0.03959604001010732,0.0072863293005207075,-0.011849952161719555,-0.0004584153840892771,0.005244383188409436,0.0030577208388071022,0.0
3,-0.006957611649264293,0.23093505729541067,-0.00736630742388966,-0.0518510745847248,0.0051568767341907025,-0.020646758330523974,0.05426976029515916,0.04544771352903134,0.018646858349436617,-0.01668173984846934,-0.009353712980967484,0.016575772726899706,-0.0002773935365331902,0.007452170360451633,0.0
4,-0.0027557286191752612,0.23653205712616057,-0.0038239542677130215,-0.04933082386896464,-0.0061224795672285715,-0.045423690269729006,0.04574190350787709,0.016582357832335026,0.01889628402735048,-0.004242578879960114,-0.0016902766944180225,-0.00720410879387124,-0.00872657739315963,-0.016809597722668296,0.0
5,0.0010954551697879573,0.2316136128158312,0.010645700182398436,-0.05670124155487014,-0.013573169854689838,-0.02793230412604167,0.04502546576807738,0.02453327721110278,0.03422981342232124,-0.004264373814824872,-0.008571446762436943,-0.02224638855493909,0.0010831050100749574,0.00886941549500321,0.0
6,-0.005607086535918116,0.23215939954538206,-0.00013437864448130732,-0.06630988173681476,-0.013819102440737545,-0.018037082167296895,0.037876377555157464,0.028985167541352223,0.014684050042823289,-0.007098909493219445,-0.0026328946108373796,0.00784609177631155,0.014051334087913418,0.0027692110157186843,0.0
7,-0.010908926698561113,0.24491872486460126,-0.0050128172232029155,-0.03615803127049224,0.020711784743297323,-0.03318289846639762,0.04548740831069811,0.03852831090314893,0.027429548380171198,0.00834072946550983,-0.011537551306164809,-0.007072972402084342,-0.014774115232668205,-0.008269665445672229,0.0
8,-0.006607242683128408,0.23393005778316361,-0.000624547741492196,-0.05056616169573758,-0.00290729112997869,-0.016141259813812193,0.04230948569056133,0.021776938478217035,0.003953156626746263,0.0018078331338999302,-0.0015529915305831827,0.0017827836200710323,0.002483222883860261,0.0017961960078182219,0.0
9,0.0005914679151488919,0.23093400925558888,0.018383390802065025,-0.05029742816077075,0.006037263873868643,-0.020940916888174056,0.0417536051520525,0.04354550632399333,0.03602927128640525,0.007845966075684557,-0.016166315313618774,0.006122513834707636,-0.0018340456629181924,-0.00021448454135408122,0.0
10,-0.004995024222928958,0.22930305249862826,-0.0017218456740387999,-0.04989265779143754,-0.021875894206827683,-0.017660215613716196,0.0474751347263525,0.021548233896512583,0.012525093270228728,-0.008114653922567034,0.005375377496878171,-0.00932316199035151,0.006473336544408719,0.0053410577852827075,0.0
11,0.00309820285968376,-0.1281887861621222,0.09013335593402794,-0.03017702187688113,-0.012652837338783626,0.03621347909483621,0.08157160616935255,0.026648218497818985,0.02852549883108989,-0.004020338795268288,-0.023942289168250412,0.010740629259957012,0.0038205969075485405,-0.003201971761754044,1.0
12,0.004839853323436018,-0.13270832466423962,0.08975388717975702,-0.023961792724292764,-0.009245915094342399,0.042420286723894904,0.08833678758419074,0.028114238597875908,0.03141440991157668,-0.0019305271397025427,-0.008252977005588405,-0.0037846143097106837,-0.015837018983204245,0.0017554273196558068,1.0
13,0.013535768396320121,-0.1394700612404845,0.08673797146748813,-0.015625444042417207,-0.007828385457336093,0.04401309667422566,0.08831154824142028,0.02781749360527516,0.01344610329971492,-0.0050436707308851485,-0.019664852472990914,0.007931134977083818,0.0076501619757661935,0.0031947392005507586,1.0
14,0.0010071275814718136,-0.14461064806660623,0.09075883219209474,-0.021901008707502573,-0.02154798861911865,0.031815254674798156,0.09537909928368168,0.025047472067260268,0.03150940915290765,-0.004229064447362612,-0.024967543297112992,2.7879884164182548e-05,0.0030050647162663305,-0.0016553025766519126,1.0
15,0.0015591056635490723,-0.13540549727046497,0.0786910575457052,-0.021178967745044595,-0.005773072939153587,0.017920160419163226,0.07769493145057457,0.032141202824600444,0.022613534244803883,-0.0060092643380950704,-0.009766458096472926,-0.004819199756762712,0.013720343966317636,-0.00997544483528481,1.0
16,0.007811177389349808,-0.13564539600708467,0.09011297343035755,-0.022899135658233857,-0.018490879984974364,0.041007746103321585,0.10611482122664148,0.020889920891441073,0.029065380802363625,0.0029583614129124673,-0.0030612152709523707,-0.005087223819230852,-0.004224193119068486,0.00666614043184701,1.0
17,-0.003432608078385994,-0.14336077725074078,0.08725853754187711,-0.015301060426775934,-0.019568228801546947,0.04166905521169931,0.08685665532007115,0.05049657771942987,0.019100190375207382,-0.0019793316825561236,-0.006192177679460258,0.006026254275605098,0.003999208099180266,0.012954689844492277,1.0
18,-0.0002852898310552174,-0.13158315512965205,0.08470849066032574,-0.012945669695776625,-0.013489419254034449,0.038833895688718416,0.09804651533520616,0.030023262977511758,0.026530273188441204,0.0032211598466145457,-0.002775235402545559,-0.012671199088010413,0.0032296318227046246,-0.014521011449239696,1.0
19,0.00916214431070573,-0.1328286958527347,0.08788814225387784,-0.02608480044401476,-0.0034074123080635997,0.03250377656095498,0.09185889513335516,0.026715460491399723,0.022409403574179927,0.0006123780868603723,-0.023984829557111655,-0.007929142414276356,0.011026964010822173,-0.0005574193458363503,1.0
20,-0.004044326562499753,-0.14113313070502223,0.07853636971222307,-0.020239130331647176,-0.01022216094331292,0.031077213913872304,0.1052430469562312,0.0050244751884738,0.028912867185009728,0.004685396348454622,-0.004158469783470482,0.0034975361347854474,0.004491420457975425,-0.002152994216549678,1.0
21,0.006961396834344512,0.23187286545217495,0.07648827632809002,0.10110318253885425,0.038759071900038265,0.015575019813474764,-0.029009023560674797,0.1991671623346478,0.020390712240633824,-0.003590232958634321,-0.016366525673066543,-0.004098261128583473,-0.0009057586260402496,-0.001189775989822537,2.0
22,0.0031328813076814386,0.23755543775229798,0.08725821110604663,0.09591577895338872,0.04693797926934697,0.013625922583760245,-0.01997337700409164,0.1808750123048685,0.02627856137851974,-0.015933001105380973,-0.010779005908600174,-0.007893005468724167,-0.01554005776554474,-0.0008770705423695584,2.0
23,-0.004423247296473784,0.23241534402976394,0.07280557140263054,0.07870839627379343,0.03494738628893883,0.00874759257827958,-0.009075883805061297,0.17097779665549787,0.025377633059179727,-0.00545180407221459,-0.021099459388228346,-0.0007544125604065962,0.0059394682897534285,-0.00569964133005241,2.0
24,0.0033856027318532075,0.23656830396858441,0.07404101478231657,0.10496621557112078,0.050974242662835206,0.01618797279805095,-0.025885765382353505,0.1772841381213684,0.020041232734984482,-0.0018361934348919988,-0.012601753765871708,-0.0008955126871414071,0.010660764863021619,-0.0064384850589073225,2.0
25,-0.0038519142078271267,0.2259510750563697,0.08183983823105778,0.10325881673989176,0.03148550546700005,0.016097764512617133,-0.00485761990446492,0.17528318625446312,0.021014527899282227,-0.013198914923746414,-0.020763561116703914,-0.0035273057356835463,-0.013982368085735932,-0.007357404803261271,2.0
26,-0.00631349387939391,0.2309459506045733,0.07125895611764241,0.09653345687946287,0.028570141366836485,0.014298199164934706,-0.01887423565737604,0.176778913968757,0.025342604021958436,-0.01928155740092957,0.0045444946490040125,-0.0016759127924372056,0.002376088596934373,-0.0010160600166134411,2.0
27,0.0019425876093863343,0.23488797745726162,0.07963217945471941,0.11151588661968524,0.03273147496688488,0.0017736904695898315,-0.013512695602515022,0.17877930057923896,0.0072716486975329475,-0.018700950462092407,-0.011706251554365527,-0.009083188787548284,-0.002917448564470491,-0.005478833244455695,2.0
28,0.001841540447937489,0.23051768405078432,0.09284199658145005,0.0944875124006783,0.023266837435240193,-0.0036133046387001712,-0.014079310809496886,0.1738709546698709,0.031901736975214874,-0.0019739826786583227,-0.021847067554633372,-0.00044285442654057257,-0.0031252262800730225,0.007468338034422528,2.0
29,0.0019265507481915408,0.23071525666543705,0.07242679226748484,0.09752964922857434,0.01695745493754642,0.006084786431457641,-0.01686669868332215,0.17096895500947973,0.01848861828813308,-0.018791738526302143,-0.004747029573391117,-0.0017843891253360663,0.013864357249952742,-0.0010102364300382243,2.0
30,-0.0004609091228853641,0.2410681501302392,0.08021767185040497,0.09772312320099565,0.047608731559202026,0.014213171803820255,-0.003866491071650841,0.1811230364964297,0.027272658750855033,-0.022268359431277564,-0.016353039953652605,-0.0028697076349311124,0.010159279690548119,0.0011500166883300028,2.0
31,-0.00664036026312843,0.43460285782495733,0.031028445952496906,0.012610996012793923,0.009961949000311441,0.013523876788936212,0.07517505265896278,-0.18714716884590163,-0.028499554468198733,0.003467318245210897,-0.016055180943487693,-0.004345546931741709,3.979327591924403e-05,0.001247542107631039,3.0
32,0.005771927823877509,0.43150808407117375,0.04436978598286897,0.03010791974159835,0.011719740408221721,0.012345790857685713,0.06531790645503348,-0.1819804417175084,-0.02765852738220079,-0.006748637447925121,-0.026147732233520658,-0.0013899512224799504,0.0067972754786246705,0.0034588778704847598,3.0
33,0.010259810760392264,0.43934903547773796,0.03251232329217338,0.015745501951107424,0.02764508389906361,0.021279874252471475,0.06833135225280319,-0.17639956298778514,-0.028612914075151884,0.005857556996428443,-0.007548148334506452,-0.0018153496922675271,0.009074490884534995,-0.003705445546928772,3.0
34,-0.010293593897285536,0.42969467825597973,0.03486012575877948,0.02026753679001535,0.008388355807108306,0.022507048526069863,0.08152383565765269,-0.17950436301072278,-0.026094234697171936,0.006427867209254619,-0.006830751972717017,-0.0043766038336632285,0.005167841307215193,0.0016354110083987208,3.0
35,0.004140473712884088,0.43862531059970605,0.03639241153492321,0.027098897530292248,0.009242548245095466,0.013444675421538297,0.07929703545236928,-0.17730022779236013,-0.016965159474317856,0.014645111678964222,-0.020740961236327588,0.006366233680609122,0.011767992891382688,-0.0012525844469202122,3.0
36,-0.006295178551962176,0.42244160231981237,0.04119615902476482,0.013271160436977751,0.0017796205475187705,0.012790664355742958,0.07087127228858471,-0.18100088268766515,-0.024565057581644536,0.00876501306931753,-0.0020460217585973124,0.006599910846181481,0.0001127274605668341,-0.00305259572433039,3.0
37,0.009738627141947637,0.4342412397457133,0.03650615495126318,0.021537606225481506,0.01778195003127187,0.02542126843082635,0.06521414165988487,-0.1838599850551916,-0.027538679139477305,4.1612723884052826e-05,-0.011216393589517535,0.0066479459417591045,0.010381275133145537,-0.008394450968114062,3.0
38,0.00019581304557061556,0.4316870392085361,0.03133443255485082,0.02110937201791703,0.009457533537477796,0.021636494718145556,0.0751244378264307,-0.17466906857690534,-0.015575278070421346,0.01187086251407546,-0.00628383975071906,0.006475524972470287,-0.01022239516216846,-0.004148636623510218,3.0
39,0.0032017691043901876,0.4362460973486301,0.03972389344919841,0.02466552348480462,0.00924469491410839,0.020604534178194096,0.06765749126272466,-0.18072625932015413,-0.031822665727112946,0.0044869955981661725,-0.020955756539962598,-0.002717296295657667,0.0043926709253561255,0.004799450910386147,3.0
40,-0.002067907684919879,0.43908091270462585,0.024707357803574494,0.02055296249624195,0.013662245060957952,0.011684928291289134,0.06447850599802567,-0.17592509955068836,-0.029178729616964032,0.0012222069147372024,-0.004732550380065737,0.013595764275098107,-0.003937757992851329,-0.003606203001646219,3.0
41,0.0113672421128945,0.12296125494155767,0.03852526993603439,0.006887051871565763,0.028270548674905176,0.013188479400143845,0.06841449256471548,-0.023017034035250003,-0.03126408599556191,0.013641682778354333,0.0066688155754347864,-0.011962485893127196,0.0022867331419463574,0.003293046832209522,4.0
42,0.023061583740013165,0.1534747243296143,0.04196106836210553,0.012478856457945608,0.010411719968070535,0.027766523367782153,0.060429782537775596,-0.027908446228957138,-0.021311039327227378,0.007863024697347175,0.019983875742684218,0.00876435851408771,-0.003309775035363355,0.0032247939738948785,4.0
43,0.0028892065895659695,0.14023263974275987,0.03544154852911992,0.03448386244745629,0.026753691123229395,0.019251469075056055,0.08269695686663517,-0.02776440346788192,-0.020002651474671125,0.0019856048041123763,0.00633685945337646,-0.0008391355123083589,-0.022829478919751494,-0.006116720691445856,4.0
44,-0.0006092247877741052,0.14002400789525646,0.04437009469803284,0.028929812431038985,0.02764697698404473,0.030008390697836066,0.06312733457356544,-0.028565442996302037,-0.04558377240151259,0.005058424623170983,0.010439281204249367,-0.004486146902237944,0.016169684714195293,0.014117138411997802,4.0
45,0.001067159830969076,0.13969521885710298,0.04922524273402891,0.023264086177519065,0.01837747918002312,0.03464739564677506,0.05461088565401256,-0.029772608443732477,-0.028863325748846414,0.021998091426485476,0.02058398384775758,-0.0022528860902288083,0.009547639659773817,0.002098062283380763,4.0
46,0.012858120945001723,0.16515423533316523,0.04176302740287851,0.010821347081950584,0.018781055783710615,0.015290484048586132,0.06770418203200715,-0.03443165670236868,-0.010178458730017426,-0.006760050924430388,0.012026111966822807,-0.006488109846078371,0.005029426856966164,0.0023631041695375086,4.0
47,0.010112107843151159,0.12069072714679374,0.037885483831437396,0.023991058195215995,0.007561510289230143,0.027846491261475665,0.07203914992267196,-0.025990599709474076,-0.015862290153050917,-0.00014044909401195342,0.009888972789843211,-0.001603974353687786,0.01018409024239202,0.01955580734431571,4.0
48,0.004860009370596482,0.13426325806253642,0.03613888603145225,0.0257258509156577,0.027273273588653623,0.02192187924436412,0.07384441027514804,-0.03703947817416383,-0.014557336144077117,0.007077445105596742,0.03151654596293462,0.005157439499114337,-0.00920629387383134,0.009440435880772981,4.0
49,0.01792157091794716,0.147689624493358,0.05572476012902747,-0.0061553203129767675,0.00866088948008083,0.012517884883783264,0.06907344944378124,-0.02741238795343177,-0.02609929089256813,-0.0020811292764500735,0.013306547626058427,0.0034331115258428575,0.0025044970826964244,0.014553393392563539,4.0
50,0.02608214371257444,0.13420859611829505,0.04020973923692169,0.02201304111862474,0.01508873088607441,0.031545412231938165,0.07624392716973225,-0.027664604538555838,-0.020885431639101306,0.0091783752756319,0.03198702936387468,0.004737878177480758,-0.00186031358603666,-0.0032209325293116125,4.0
51,0.0024077296350256978,0.24051582033659774,0.08094162253600805,0.0921738426860937,-0.011488557097979739,0.02241848072644228,-0.015141450735217256,0.1670280878932395,-0.023792966952883153,0.007692233672910788,-0.0262744259953909,0.0028794856460462293,-0.015315658061031181,-0.006379572036348485,5.0
52,0.009170459083312201,0.23627563939783341,0.0798234618622414,0.09488605074401303,-0.016379874048272534,0.01138802928280948,-0.014669804913674462,0.185085018438224,-0.02144538804318846,0.007756258533366156,-0.009538900291219513,-0.0015216072430999986,-0.0006799277572575038,-0.008877093700054921,5.0
53,0.008158728122402028,0.23088040007186117,0.0742545284434164,0.09472744422892052,-0.014056006288118384,0.00707414906726456,-0.02491200366640059,0.1697296016764556,-0.03780915659970071,-0.002790445441771764,-0.01047071723730961,-0.00331130856052779,-0.0026434008030175276,0.008716978111805765,5.0
54,-0.004205913573892746,0.2364156167028834,0.08398640376309442,0.0928617550542103,-0.005843186409272905,0.005269195718468546,-0.021510083786802858,0.1803548974350197,-0.0029309482160158272,-0.002622750414819494,-0.014186365703037987,-0.006891754699601542,-0.011245778337265061,0.004065046637769985,5.0
55,0.0003289746212655344,0.2342777592637567,0.07354610614199517,0.1066366385173812,-0.009581102908091596,0.007454872618056865,-0.01003731173854315,0.18155165140127263,-0.03314343411423347,0.0015674760919607178,0.0002591883755026594,0.003150327612488385,0.0001189304123569118,-0.009734285888499866,5.0
56,-0.005127114167888976,0.24462047766572323,0.08530097922295214,0.0945384272272226,-0.01380388491613218,0.008290864043216186,-0.016218472601589966,0.17395646534831286,-0.018825618118304344,0.0007260090999234162,-0.012957733184738019,0.0012928098068379907,0.0027908856926861314,-0.0046026648141642154,5.0
57,0.002193710139582861,0.22677392388423637,0.079868229996351,0.08387533464193664,0.0002679788270301452,0.004072617361600851,-0.007943378263042904,0.17703941537721146,-0.02249102418656309,0.0028846629358237003,-0.017909602076714822,0.011088651477758076,-0.001093966827125977,-0.002729971755693511,5.0
58,0.0057157313843977,0.23381974354252608,0.07702232202484491,0.10424353904899693,-0.013641838027987841,0.0011633287786995852,-0.02806132412858276,0.18464800635405706,-0.022356668598239197,-0.003959037427849654,-0.020918905345572072,-0.001756454196496261,-0.015414033896255078,0.0030357643251567464,5.0
59,0.015580271939477657,0.22845630295526417,0.09772457889369751,0.09393486177711312,-0.0022891420100387026,0.0014860686972296459,-0.01090669321623984,0.17054644697885285,-0.01088062647684631,-0.0066209005578655835,-0.008532577376461119,0.006584042696260783,-0.00430814120815689,-0.007050495481092531,5.0
60,0.005614535315242978,0.23221575851998055,0.0724316979460063,0.09677999497754212,-0.001782260638339374,0.011147182439811004,-0.02389720418687132,0.17036090679970795,-0.024352638354784312,-0.0029923992274091334,-0.00480199010405125,-0.0057913330788679175,-0.0007183071787728538,0.000482435148921765,5.0
61,0.013680113058957302,0.438383708349363,0.03665281896154753,0.03800709348995547,0.005306289595869931,-0.010841488297891593,0.018482613497352904,0.06791458829305813,0.014740206629716743,0.011723629298192413,0.0122354049022772,0.0008639394246286814,0.0038430922645749763,0.0003076775423005139,6.0
62,0.0077927740164417305,0.4411122655519574,0.03839150430713528,0.04329867144625387,0.0005279819602773103,-0.014153791906037357,-0.0003716240654307341,0.0833576235677284,0.03152639359893185,0.01635951386605475,0.019559019473263193,0.017660233362796998,0.004596470145968751,-0.0006666999809665641,6.0
63,0.015179392965009418,0.43428899235065527,0.038714206001470554,0.03699658166084575,0.003063284442702777,-0.002410122838433716,0.0005508206839276502,0.06274039549978255,0.017622971612835794,0.003704514131257516,0.015458446362507726,0.005955349967008298,-0.00768513842548337,-0.002125600129620838,6.0
64,0.0002619853590042845,0.42788673026548724,0.04582449485951108,0.03953735514131994,0.00936194632224127,-0.015054927772572349,0.01734974328211697,0.0759293603825452,0.030169969592581464,0.01533352058390117,0.0038163857660263685,0.0014866397697445902,0.027648856552161247,-0.003754473103144997,6.0
65,0.008466263583149666,0.4322362990047147,0.038468754827485796,0.034552307360795544,-0.002931927789918886,-0.009838412796507911,0.005833857669323936,0.07443987226342387,0.02485085176145167,0.01767890978570629,0.01754647654955622,-0.004182020440453678,-0.0010548188951193375,0.009273771772005704,6.0
66,0.0010881409425222536,0.4365216660282074,0.03468198209860466,0.03710649652166527,0.006613251162319963,-0.014208592503321947,0.017748792017399224,0.06592065338462672,0.023532934811023268,0.006762197441976974,0.018881578993100185,0.0013198086066970416,0.010724111943807301,-0.008825892347401007,6.0
67,0.01028885358738236,0.43803896323957164,0.0427852400920969,0.042488809983426856,-0.0007858008454254063,0.0013466053741779658,0.01619608346610621,0.06913849469144052,0.021979917160708014,0.008541077948947977,0.014693276702446748,0.004351959763280149,-0.011003840546577734,-0.0034788499726332673,6.0
68,0.0156422277147404,0.43108702978474744,0.050621406579960906,0.04334776396633936,-0.009845458775871375,0.0072756498478185935,0.005132625942641947,0.07668492913978553,0.018153271567193846,0.012621299915195741,0.014251744208216517,0.000617375509037496,0.001290475625346915,0.005723867283707708,6.0
69,0.001783049432584315,0.4381559159881202,0.0372183172513376,0.026680593041365844,0.004171042927880455,-0.005087412113480475,0.009668690306171221,0.07743689894699556,0.015050200142968598,0.016387070957583114,0.005027590012368115,0.00805829039050747,0.008196765862137703,0.0012930054167741827,6.0
70,0.012751027148774628,0.43471558537417354,0.037020366650406145,0.03542964752032416,0.0028430820242957805,-0.012330891302543084,0.016250214259258475,0.06978699819648425,0.020524291879706006,0.003873137756630214,0.01609122409586556,-0.0015044159512667974,0.004474511806792341,0.0021678791616114032,6.0
71,0.007849892682534608,0.43204623051836105,0.06878626790508997,0.03931170264429551,0.0009175988924076563,-0.002597283692705229,0.02587610268930105,0.07929691118861085,-0.019214199286879615,0.003257711305302107,0.016346404228773037,0.0022647244351674755,-0.0021787946346294193,0.008246111035225039,7.0
72,0.0199606280159601,0.4349512958803118,0.06642926605509829,0.03622572795032306,0.01634601397542532,-0.002557996450162376,0.011760645741648689,0.06891610797090732,-0.021752476457357877,0.015337913382954668,0.019984038126886018,-0.002379560067876599,0.0012511398223880653,0.011532320405297562,7.0
73,0.0005147371455100229,0.42814617174719566,0.053745009478835794,0.042810018042862226,0.02790973179250403,-0.008263295020610188,0.019698241921920007,0.07602019233207573,-0.0307471476101656,-0.0014597856003924915,0.0027655964476913635,0.00024276320407483,0.00803675091281811,-0.009369318803217288,7.0
74,0.009630831580962586,0.43823186079652543,0.060680814422884845,0.051077909709138496,0.007047185711212414,-0.0036834924076577765,0.01927378026063549,0.07805885121470162,-0.025502459686752,0.0012710421233282435,0.016497599559143542,0.0009355786594393721,-0.007455878557948903,0.0072473379634984325,7.0
75,0.009971134732723055,0.4391076257651891,0.06066551273549118,0.04573860865333505,0.007477287016208417,-0.006225946594140978,0.012212478565648463,0.06445365514750989,-0.021803931474539417,0.003617581172369214,0.013797612009909192,-0.0018476939236322224,-0.007175919615765062,0.008187749361087881,7.0
76,0.009859980813529724,0.42514941960481095,0.0604252079290481,0.044397034959664905,0.006697634329229865,-0.005810731996837242,0.00896165564946617,0.0793893545661883,-0.019420296228224658,0.005259058339954211,0.010894491843370293,-0.006405936672531429,-0.006208975211423991,0.0044870461633879175,7.0
77,0.007711504582020987,0.437735555045879,0.06407467446077171,0.05064408427678527,0.009307321431166441,0.002638435901181727,0.010368454767755669,0.06939588331803495,-0.020729420801827558,0.0005007341757135892,0.012232265582183158,-2.800127206403661e-05,-0.014975498660304494,0.014175882586343481,7.0
78,0.00847348022875558,0.43359253355818683,0.06301503898927736,0.05088318425923274,0.020272725408241554,-0.007718879312275722,0.020543458182905254,0.07430875819859557,-0.021028284536000957,0.00242152935412131,0.013692034032343411,0.0028006558756902724,-0.004437305990932387,-0.0064652683997743965,7.0
79,0.007093647353276768,0.4337545058872837,0.055812632473886875,0.04727882040202113,0.028781226296470553,-0.011583701567962864,0.011741435213383482,0.0724389797467349,-0.024919632200162464,0.0024642231367161885,0.01360127194035463,-0.00921550008262024,0.00815636443916385,0.006387159237340005,7.0
80,0.013707209653644083,0.44066348625467777,0.05422181940294394,0.04910318377880481,0.016785676330062307,0.0025417358641320266,0.01796191321436087,0.06999742343643495,-0.032073576794491916,0.00555063763765553,0.020903885477748452,0.003420848909567401,-0.02297440108795962,0.0008966292108824588,7.0
81,-0.011038271467651215,0.3680590339320998,0.016903983670009816,-0.050519026967959534,-0.016436042434011713,0.007981709432283044,0.03872609110985862,0.03027029088257864,0.023892276089664155,0.0037086141198066683,-0.030652469023369242,-0.004079009707166925,-0.010240339797447663,0.0035976314523730873,8.0
82,-0.005655469701314822,0.37311841697798803,0.016176169720586595,-0.039888709374514546,-0.006468678818360898,0.008040684197581392,0.04905683838621239,0.03160287880958946,0.01959843092837309,0.00158973543808074,-0.012571694426084275,-0.006763961400112225,0.005385476768183527,-0.011136942273213678,8.0
83,-0.0027110411127473522,0.37219729188020506,0.01261659273752635,-0.05427989151028229,-0.020862126466799184,0.007970733888938465,0.03810512375927874,0.02240325233402911,0.022779924514209498,-0.014344812417960831,-0.007815422102687614,0.00175237500387247,-0.006011912726332616,-0.0068356605612916715,8.0
84,-0.0040399734958747255,0.37377513267904006,0.014753645332905333,-0.03779809788877421,-0.019397134960383013,0.0018169625648757528,0.04774687659828716,0.03379908387199483,0.0173721199696211,-0.0020334712449165517,-0.019014299440226163,0.0071964537990758404,0.00040213058435573925,0.001343960437982768,8.0
85,-0.01313134965495221,0.37017131279258114,0.0031780917534233225,-0.045418497343566726,-0.02399115272140541,0.0028129567670018164,0.04536889258402203,0.033206785950239744,0.02135061078830032,-0.003437242603321236,-0.008052529104486165,-0.00885860929408695,-0.003081803122319668,0.0016985960297260536,8.0
86,0.0022422009110419487,0.38165462317586535,0.02288655403245661,-0.05229238785504854,-0.00806617486197645,0.00931635134189736,0.04458200385693179,0.022285190724847387,0.016812871948902672,0.008769851535671423,-0.005293151886130239,4.3833890423669515e-05,-0.002873749378701713,-0.007298002059707324,8.0
87,-0.012613315580221546,0.3804486712428392,0.001855540474295143,-0.043983044105762474,-0.0265007657517826,0.015720771715806114,0.05011686030100538,0.028718446546536366,0.007218441407504253,-0.0055709379404704894,-0.015576950870331884,-0.004101188824535635,-0.0058401091548485875,-0.0065012701756918595,8.0
88,-0.0066176160538506746,0.3673634545532168,0.0068183452549107244,-0.05280146141728093,-0.017882351942737275,0.0053641625743832844,0.058809715854764626,0.02212062229836947,0.031020950726930372,-0.0027592461936952026,-0.011495203670813203,-0.0014375704962741812,0.0004256057816637451,-0.0023612594886083856,8.0
89,-0.009940334720966169,0.3768345500329648,-0.004855051657504161,-0.04682158541965655,-0.006190279022450634,0.0009453701350431975,0.06082643570346323,0.04318992246904156,0.026231570856868124,-0.004062543929913672,-0.0015297480773891294,-0.005039878066745199,2.776329659067852e-05,-0.004323584228622365,8.0
90,0.002695870166470144,0.37909404294973786,0.0007594582646969314,-0.048792492912766154,-0.01782399946297428,-0.007945637184339667,0.05981637480457936,0.022654491485796974,0.02134408585995425,0.00643958525277895,-0.018273406353076532,0.00030882530615832003,0.001629802009432854,-0.0006668069944787113,8.0
91,0.000956049971391931,0.22875337108835642,0.011272839168188041,-0.03733339171296565,-0.025686334421747312,0.007599755692565005,-0.009288533918030648,0.03154278363159224,-0.022975821901756267,-0.014447602504468441,-0.0035208194395754686,0.001245595956294041,-0.0069643574219883375,-0.003217522375275037,9.0
92,0.008344983844899396,0.23405933484507027,0.006227247152636363,-0.028773174372091103,-0.015666262967596767,0.023969923753261152,-0.008014777349086365,0.022606313046383136,-0.024228484206618214,0.005749985646224821,-0.0071636149980389184,-0.0039363036659225865,-0.0030698600755144495,-0.011873266333247975,9.0
93,0.012265017800171158,0.2383202589217581,0.027485243011965962,-0.03561565997655222,-0.023524919208918676,0.008717322232377847,-0.007102762113770669,0.030814951527164475,-0.022425763134407705,-0.010803319302198446,-0.010058378283515381,-0.0032369739421306545,-0.004742279304832207,0.01469127957148798,9.0
94,-0.00995315367956064,0.24565382634200364,0.013112237305312517,-0.04799741566432505,-0.004752606653530561,0.008768356570689645,-0.011953983634746429,0.0221816415825985,-0.026127945329781584,-0.0012451882700026493,-0.020590791976086386,-0.0029915608107374506,-0.019153544502124968,-0.0006078120528437364,9.0
95,0.009755046231020633,0.2365514400105019,-0.007263453693995873,-0.042088609331060664,-0.004606359999821945,0.012900126221840428,-0.009454303006126681,0.025196918000133794,-0.01900625402028159,-0.01582301518529749,-0.012372494584925519,-0.006163054056416983,0.0013572911108948953,0.006970218214501195,9.0
96,-0.003944136026586138,0.23547144245464974,-0.0025205375006924287,-0.04514724289341982,-0.02100694701552109,-0.0038115803267903636,-0.03239156163870386,0.037406807291180906,-0.020927412514545198,-0.017128866894300973,-0.024845853133803227,0.005058364871004521,0.002535027449710036,-0.006301007202348048,9.0
97,0.009223156720728556,0.23978811170633355,0.025478473065362724,-0.04602573604851225,-0.024773590933816897,-0.0059601020864558495,-0.028882156575734362,0.036264010380225066,-0.027280739278457908,-0.007695289695997251,-0.004090740022543337,0.0002168793991746128,0.006462580124510926,-0.007720614929908271,9.0
98,0.00823099274241165,0.24925373829373118,0.010901744972043608,-0.046771142565227394,-0.021694485651769395,0.00027434594546386925,-0.020993642109998687,0.03619331480659399,-0.027237857658891636,-0.015865298061073146,-0.012614674728728813,-0.012196821743808267,0.003236634737462965,0.00976679183196073,9.0
99,-0.006422767408149067,0.23018157609746615,0.002891243378231519,-0.056426198771617704,-0.017062233902329502,0.007157829492855522,-0.008690977865231318,0.021885928131410687,-0.017487600933716735,-0.010961551294523789,-0.008610831297132646,-0.005117350103130181,-0.0027265655069255474,0.006219786394074212,9.0
100,0.006204274793319605,0.23806803198819418,0.0008727352878775234,-0.04887113258445573,-0.022171712136192134,0.003836431908026576,-0.021277055128898024,0.0398064205052752,-0.026771585622211408,-0.023283201611729958,-0.02317306396304575,0.005849876982243387,-0.006971392675750916,-0.009525022840538955,9.0
101,0.0006210972162743315,0.43653059944971306,0.06422491010542615,0.024144591942295835,0.010093320670313077,0.027484057952252283,-0.048402725729469145,-0.026594526882810613,-0.023011539510651453,0.008991232093135813,-0.004531372649863941,-0.0023184106209099657,-0.002391423296565002,0.0010191105285698953,10.0
102,-0.00415542770295007,0.42330643420631203,0.047648773132338604,0.016537158296431133,0.006631826201225561,0.020274965026064535,-0.04311500538776131,-0.03104248269870549,-0.027939632024076615,0.0019864706616278052,-0.014988507130453594,0.003034753759918249,0.009071063784566787,0.008744211399865347,10.0
103,0.0005197619144505197,0.43875594497352766,0.058683126609293014,0.027259954813565097,-0.0015084919299632074,0.014958024882364198,-0.03974164152172236,-0.03308327594519323,-0.0312651454616248,0.008405436825180013,-0.00486590086079411,0.001124704168739703,-0.002201352979961972,9.332870908721383e-05,10.0
104,0.009414140787239724,0.437190780362042,0.05497815753753099,0.016569069739817786,-0.0014916498538455256,0.019896508914037214,-0.03779407534377227,-0.02345343407306655,-0.016211073409989746,0.003355216404979358,0.004403031129075584,-0.0037971187293032675,0.009661126612285279,-0.007482712328656193,10.0
105,0.011040512566872458,0.4449993405747955,0.05030915295696984,0.026858046189734468,0.0009733412595011281,0.01838043410037288,-0.04167420472039574,-0.02076468041913877,-0.010797165410637646,0.0028097660634338866,-0.004210084838736407,-0.00012383080369760585,-0.0009878502590503673,0.007301122876866529,10.0
106,0.0005838490902647644,0.42605468152873305,0.06893709473429036,0.016483404072346965,-0.004749776806855489,0.011646780580617761,-0.044832744570476195,-0.026273273010176523,-0.023863637923962216,0.013377163218912401,0.0024502319087255633,-0.00024624124598802933,0.0026699674725352684,-0.004659501948158251,10.0
107,0.014288485470716058,0.4262606905048096,0.049401949853766246,0.026111097512770663,0.008156943784626123,0.018695631002136944,-0.03852881415212514,-0.023829797759592555,-0.027868178626239047,-0.00031724919940827296,-0.011105064908450818,0.010222884629676438,-0.001662780343634024,0.006909356344037895,10.0
108,-0.002773540666814649,0.4354044016025564,0.062339297916641036,0.0242261582571853,0.0026324292378446393,0.017055379424897932,-0.04690110270652323,-0.02595099722665322,-0.02153982574597019,-0.001482351055745851,-0.010387990864080964,0.0019471320949386842,-0.005685331043295064,-0.0018897523316784,10.0
109,-0.007218903946863721,0.43333531731276553,0.0569861168432582,0.00761616911674678,0.00040522045880103425,0.004521764567642281,-0.04055919048436662,-0.03869736635475915,-0.018950594779587236,0.00015845342892717603,-0.014885870773648616,0.0014747001115132463,-0.007996818418408725,-0.0009161985064216417,10.0
110,0.011909941986398177,0.43874630663011127,0.04932104262058257,0.006976948436557435,0.006481308634439289,0.012269990751495785,-0.04894612582535291,-0.033774715938178365,-0.028510132730660474,0.006014850095488806,-0.01205789295229979,-0.010507738994345928,-0.003991455104809804,0.002775221532100658,10.0
111,0.009054325689862176,0.37775656347148057,-0.02783434576462941,-0.04666361628329519,-0.005134471574556907,0.010752443371461808,0.036991515512859764,-0.10457333342207127,0.024289568851880296,0.1057512294944727,-0.01742638823111373,-0.00376108488848085,-0.008133004600049653,0.003073223364688668,11.0
112,-0.009422189106620382,0.3742337568282238,-0.03927374771935799,-0.050212170306170506,-0.004293564382286344,0.0018109900766030559,0.03174604565455042,-0.11221883075102512,0.022260798088214025,0.08812144534336552,-0.011256687506773569,0.0007968269894132317,0.0054192718314522775,-0.0028668344025292794,11.0
113,-0.0009423962987528464,0.3764988813920361,-0.04818990819255684,-0.05374494691326721,-0.009240295146825074,0.003950399772101051,0.03387349785185803,-0.11328838548716874,0.02278229977816303,0.08693708881687782,-0.0104121949871676,0.0013423500801213737,-0.004146620013486242,0.011104349436956045,11.0
114,0.0040738619843875955,0.37820063760176287,-0.03482461098382445,-0.05697668946114546,-0.011556681488384011,0.0024941764636792654,0.04087529460634312,-0.11613413732093357,0.02022082806637688,0.1261751860432145,-0.0022112167810248557,0.006940842078144076,0.00394784609185899,0.009056681964709235,11.0
115,0.008232186347365595,0.37557817976349067,-0.04565821193248958,-0.06297170829523933,-0.018056629107603635,0.014730653930418662,0.03733810776867187,-0.10444004040614063,0.027706834739502674,0.12501434897563074,-0.017443447054108163,0.007985922210568683,-0.002400350601442985,0.005756700369672855,11.0
116,-0.009720773471337362,0.38138492813447944,-0.035711522060005794,-0.04032730451191146,-0.012556330473753326,0.016111791236260675,0.03128260021663551,-0.10761451638724447,0.019494069259224443,0.12428289056767573,-0.011396855654977356,-0.002438622901864472,0.00013222827858585384,-0.006916357720191976,11.0
117,0.0020992987088286194,0.3743880948961867,-0.035307796225241266,-0.057460081837913,-0.007693590556153214,0.0026153006594082824,0.04558587959092528,-0.10262487122109115,0.01687530183167914,0.09329117516956273,-0.012922865825299884,0.0050723792050300755,0.002100538397704079,0.002077478578259066,11.0
118,0.010261253330359103,0.3787392626488372,-0.039576816447046956,-0.0481309712749383,-0.02707811474160172,0.007113789618857093,0.04936292229286112,-0.10413081294841321,0.009986899730265817,0.09458430844437929,-0.020005809823757936,0.0020646500543861127,-0.0017503906261101536,-0.00404324902977804,11.0
119,0.004388352572492636,0.3691948335963502,-0.03889136414614508,-0.0405261299290716,-0.008046035618337092,-0.0023661840624692432,0.03265385187656205,-0.09430789535970814,0.0178933951529015,0.10050404814766586,-0.015958888684997112,0.0025505727992863754,-0.008072838418532463,-0.007845661962101094,11.0
120,-0.0046189697574004806,0.37695635078334283,-0.0412771979115693,-0.04600653330346546,-0.008748340100358033,0.006864643612990986,0.039736739162904135,-0.10326567949065035,0.015279974908638376,0.09739324222167275,-0.01982035021704292,-0.0004605244128631082,-0.0007111560675826491,0.0005747183084865501,11.0
121,-0.0056837395318784,0.37172866685665007,0.08003342121627921,0.08896871454548624,-0.005990135967356191,0.0302390715421757,0.0430800875343849,0.1823038393815707,-0.010869777991007782,0.003703603382589967,-0.01173237451428567,-0.003087456068380417,-9.551389541045256e-05,0.006127926220395021,12.0
122,0.002987402569672076,0.369971985941388,0.07850004674751045,0.09718776668280807,-0.007673827608242954,0.03554047456730198,0.045042809166158264,0.16601221407962283,-0.020923585617308928,-0.00166735734731263,-0.009537276873635233,-0.003140778920252517,-0.006125227335337566,-0.0003379526026367548,12.0
123,0.00762901004995226,0.3668035268554628,0.08991639573304379,0.09727221605492573,-0.0019825049833327953,0.038282449989010814,0.05393768609644662,0.17099431413449978,-0.016322151258304954,0.009822209484838794,-0.014354611457356352,-0.001034866923861317,0.0002554562975674974,-0.005252088375814483,12.0
124,-0.002964901819728827,0.3691700571194861,0.0821906194181658,0.10044353224702149,-0.019085054338853737,0.031168519392873004,0.045610415674141216,0.17658192016572438,-0.02132308477047393,0.0027477965497896477,-0.014167029528555305,-0.0006885341198199447,-0.0022329665443978283,-0.0022207622055434757,12.0
125,0.010519719999842305,0.36660524025377844,0.08560332306544821,0.09847219750854493,-0.011960908155921424,0.029694440082675907,0.04883294278577987,0.1789511463007264,-0.023442432395932238,-0.003286110140905171,-0.011666944473512731,-0.0047319921097956595,-0.0005592172516393344,0.004274920470543467,12.0
126,0.006968155250898799,0.37004716371629726,0.0703265208973623,0.09088607635922206,-0.018062081488615832,0.03560332748752744,0.044223216354130304,0.1715241877213465,-0.028248207663390323,-0.00957090945798677,-0.0095107225602893,0.0024738645315970863,0.008794312803022395,-0.008063919312009797,12.0
127,-0.0006172051046625547,0.36453797850840325,0.08703411707930309,0.0935973607108604,-0.015618376551584415,0.04461357330907051,0.04269212186285687,0.18103894090872508,-0.022781835246911453,0.0031307637297276255,-0.014898297960085509,-0.006395868296676686,-0.000877805536596448,0.02496247097643145,12.0
128,0.006788566747730251,0.3682561145610397,0.07850815527902452,0.09718929498910224,-0.011394375507339027,0.033149599347654345,0.037032825602323446,0.17274225567753912,-0.01843405442426748,-0.0004960405402729764,-0.013026464740259551,0.0044125104580079386,0.00274196809082098,0.0017211901049551711,12.0
129,0.007482585718481319,0.3669048124480125,0.09061561615086426,0.10538437263302868,-0.016382441678968074,0.038123049573431544,0.05146730059730818,0.17630208972609843,-0.022710932944252287,0.0009979108826775628,-0.0036820020373207448,-0.008492003445697003,0.002549664596246135,-0.0042828162058150925,12.0
130,-0.0011736198270073158,0.3652036510500587,0.08033749326919587,0.08963514701033973,-0.006844393185614717,0.02502255017174618,0.0447974862773673,0.16425433368566392,-0.033238336980256,-0.0034049745973403103,-0.014299164397183177,-0.0004162303444230032,-0.012768723964248578,-0.006943887534555252,12.0
131,0.02239854967653976,0.22970375507856913,-0.05110448172354136,-0.038964309692959526,-0.01847113272786353,-0.027094050319295685,0.04325192625025988,-0.07218391690137675,-0.03113295014325219,-0.010615098008475949,-0.006119432769478974,0.0011907996603372714,0.00837108339774299,0.004504452402362117,13.0
132,-0.004911910030478924,0.23199711156591826,-0.052996926529866595,-0.05245324715126817,-0.0013354466012025102,-0.021512447985927493,0.05275954008569681,-0.0595227767176417,-0.023177991809168585,-0.007788540097663127,-0.019648888690868005,-0.004255795886062764,-0.011417437330149764,-0.0007084123380835933,13.0
133,0.007303275916315485,0.23220861904444695,-0.04409833473403491,-0.039122102078217494,-0.005308931646804814,-0.014008850447141858,0.041231907115724366,-0.06859980240740747,-0.024190370621849488,-0.016745236179103253,-0.006930695822809898,0.004482442298738163,-0.010069428839113465,-0.00023683424434161528,13.0
134,-0.013602968014499695,0.24694610764044378,-0.048605539615079095,-0.028055197056164008,-0.0003579767500716804,-0.02209153723230867,0.0466979585617309,-0.06552934468483246,-0.018836622395284934,-0.013654343224307156,-0.029782564032100323,0.006495415913293174,-0.0005773695054024196,-0.007013422714171792,13.0
135,-8.874444204431767e-05,0.2401532563565992,-0.06643681940755054,-0.03926922839987762,0.005647657042241318,-0.02755470060935464,0.042524634542996674,-0.06598961176306725,-0.02555874956242715,-0.006440563619231523,-0.005340751703241106,-0.006329857964378225,-0.006313275798319984,-0.0023146486304117466,13.0
136,0.009601763683575099,0.23355265813864792,-0.05358935224780043,-0.044859202966484366,0.0061192083607463,-0.028633501445800826,0.04307993834119361,-0.06916294930120212,-0.01470155910336847,-0.004216371430935119,-0.015368096345751559,-0.011245707687016366,0.007039805354891465,0.016157056953263034,13.0
137,-0.003482532525039937,0.23474927487546823,-0.0642801116450005,-0.03289453892171809,0.0020338366095518493,-0.02354746259056378,0.03350316288736482,-0.07485333735431698,-0.02609774362475793,-0.016058097369778652,0.003748951748962173,0.006512503450415541,0.010861235178466632,-0.00342438564554972,13.0
138,0.007821826149982683,0.23227684611187313,-0.06438124831240584,-0.03867587134922964,0.00423030307329272,-0.003272652547745337,0.040996178675082345,-0.06840807943798424,-0.015263470535123651,-0.01036992088869239,-0.01595453385585926,-0.002623928980153005,-0.001859394115100648,0.005246635850090226,13.0
139,-0.0020484287393487117,0.24035569695476686,-0.05185761028638635,-0.029765086660372305,0.0015649041515291434,-0.012092397866170373,0.04783038695745479,-0.0705364073986007,-0.019193869377775168,-0.01591714201505974,-0.0077693642876276925,0.0010705603110863846,0.0008931152972621946,0.006923410608911318,13.0
140,0.011068880283646656,0.2352526484631761,-0.04919400990447179,-0.03947419753817725,0.0007360023103425374,-0.043882631988268445,0.0470219694315373,-0.06611498933637722,-0.009601461291855172,-0.011692273852851381,-0.01958438529283383,-0.00033639267821093617,0.00247761368373056,-0.0016959672772617943,13.0
141,0.0028145228729797023,0.3681071007076649,0.07616498265054297,0.10428372793531034,-0.011002311747223752,-0.0019502697664287752,0.04884324804103184,0.1767679285376139,0.013953099207446997,-8.752884797396907e-05,-0.011544379408992006,-0.0039357653247915824,0.0007630749700921696,0.0003726149084720499,14.0
142,0.004552516143760902,0.3731734444562252,0.0766997201205319,0.09760241364823138,-0.022667264445807075,0.013060425793908278,0.043390472310578625,0.17821119566471344,0.025669131578114266,-0.0024270980565773963,-0.018048679930573457,0.0014976674298852967,0.002558663100540412,0.00721241637294035,14.0
143,0.006590581673385418,0.3646778884774296,0.06897454076624414,0.0927910611688079,-0.021204571711545453,0.016158811471670864,0.0365525029149034,0.16789168607811264,0.028811722458488787,0.0013094424975699595,-0.010453944379709838,0.004636145327770942,-0.00014139567486791407,-0.0011982324245644182,14.0
144,0.007472203387370155,0.3693679009281995,0.0707404150349996,0.09820585248803072,-0.01793764788020364,0.0005851619210653853,0.03997497849343286,0.17111780135873347,0.024395262652011262,0.0015182597271399818,-0.014184258543926034,0.0006078571635708766,0.010390645087686804,-0.0030910114809887114,14.0
145,0.009142196271888038,0.3745273811362212,0.08808167820426165,0.09000020596199947,-0.029337991189001295,0.004818272907268014,0.05334091986121019,0.17669693237255388,0.01710134991533883,-0.0007327161839328531,-0.01787701026125457,-0.007805802331383801,0.006755283869074372,-0.00368389316141877,14.0
146,0.014300629986521415,0.3803616601372918,0.08663000397446624,0.09684219473302934,-0.024031330077022853,0.018131344764291603,0.05046457971567108,0.18001432672266435,0.027716505927807552,-0.002143380808925788,-0.007040103980888859,0.007363008770884596,-0.0020383713004665464,-0.0018387017486212972,14.0
147,-0.0010087751296161598,0.3724836722137382,0.08059912160761525,0.0989230977638428,-0.015956887104619885,0.011460863513954598,0.03853049954383494,0.1760966041992563,0.025222926985956517,-0.005239923016160896,0.007034446634097334,0.00021182334772481344,0.0029945661959361477,0.004956776414297864,14.0
148,0.005734412592734003,0.3694603078385573,0.08747721012592494,0.09371150814090382,-0.02000057664141325,0.004660407716824731,0.04926682353430554,0.16541998923079432,0.02089994231244996,0.0008526046363271697,-0.013786568564072448,-0.01566476155863265,-0.005642523563325963,-0.005668462219329506,14.0
149,0.006827166577067431,0.3689966795131121,0.08470908564242603,0.08648167291619857,-0.018140563020980705,0.0035944107903128153,0.0431234830256298,0.16854069917084588,0.02028458730710252,-0.00456888129023532,-0.027080663933975752,0.007893306971063448,0.0025095547696825406,0.009729530534403593,14.0
150,0.016304271082212614,0.37008892514328556,0.07862233662321165,0.09285871037111472,-0.021367599408487228,0.0051799805519794585,0.03682072654446829,0.16595750463640035,0.026440190975744068,-0.005052594747128715,-0.007383566118872559,0.0005926236731968852,-0.001614004610258985,-0.003609910413897613,14.0
151,-0.009378303728948484,0.3724473985210547,-0.029062468385306944,-0.04275275116516084,0.028179233839963572,0.00910030619722683,-0.02135987480173672,0.17751509161936094,0.02326783020888681,-0.0054856737058521215,-0.015916035722845986,-0.003287038140802735,-0.0006462622552140498,0.001363339619051692,15.0
152,-0.006391548762880601,0.3707321550254048,-0.041545274081705615,-0.03623157695901694,0.03841246335393141,0.0013208980849384725,-0.005591255481398902,0.17817176494230205,0.028511696604432767,-0.009940304644539603,-0.0010483026574412272,-0.006092906062356698,0.0012853886108955632,-0.002157288893180092,15.0
153,-0.01169617353961003,0.3759188583063322,-0.041657442855084235,-0.03996874076270823,0.044577531372455445,0.0002847800216964857,-0.004229257289038931,0.17885099472896754,0.024514349403203493,-0.010534827610368988,-0.011724896817090474,-0.007116363717053387,-0.014681360593593155,0.009539314967057854,15.0
154,-0.01851041410523739,0.3676698909374903,-0.04955921290539076,-0.049698682202348195,0.04501195586679097,0.0007926506745486848,-0.019389288706662913,0.17675772618323643,0.016033667534068832,-0.0033864131605707806,-0.022827206723724854,-0.009296397078849,-0.007058815554230948,-0.01252029045598741,15.0
155,-0.006537591172796749,0.377021867430062,-0.0374944987077353,-0.039351237523996684,0.030323062451441608,0.002972609439818772,-0.008228909179627715,0.1658581657832949,0.024685767630970603,-0.010042820835596085,-0.006578963930888854,0.00042977231955204816,-0.004285250662027269,0.006557673551944274,15.0
156,0.003126667742302427,0.3760147250386123,-0.03820081233309735,-0.03199286728461576,0.03152325417531778,0.002116411498119893,-0.0006795232363280249,0.17893989536995367,0.027379336219986637,0.0044681020629672675,-0.020220207713379183,-0.007673606171920617,-0.004542809715660463,0.011400957027984902,15.0
157,-0.009643445628993327,0.37805949935794547,-0.03445605600078577,-0.05146820909152441,0.0255514801179359,0.0015582866957239677,-0.006613503610965429,0.1875651470276526,0.026504251383139645,0.002419638899553178,-0.021602833352430822,0.00031909715253440027,-0.004249569522673659,0.004592253590811026,15.0
158,-0.002201517889635553,0.3780786489412729,-0.024398406363036067,-0.05190542836662816,0.03992370994397273,-0.002631297167764141,-0.02505983734370522,0.17968597108407083,0.025549264296200927,0.007038853420216351,-0.018281184954193105,0.005785927665252976,-0.008179679607725388,-0.0008576661060809665,15.0
159,-0.008803581186863908,0.3715753515370258,-0.03851055646954468,-0.04243001332907953,0.04159190130422673,0.0007559688262357074,-0.013530802710150407,0.1708694113937686,0.010550629348674732,-0.002820472733199377,-0.0077960903630188965,-0.00683089192850035,0.004863937560509224,0.009595961122007383,15.0
160,-0.006137242177909805,0.372113860871678,-0.03173502728423442,-0.03606077269184738,0.027907399075161137,0.01631703812259891,-0.01251401253770307,0.1665061296452474,0.02280985629581992,0.0002560835771102622,-0.007846770794302542,0.0007236707584223329,-0.007104758970068134,-0.004181063202614736,15.0
161,-0.001178555227820001,0.14069057184860298,-0.07466916896264403,-0.10428969315682933,-0.03850439159972297,-0.011423370443918258,0.06738208422761684,0.10458079121488012,-0.017076431151798382,5.40619652421146e-05,0.011999686140679356,0.004316754593242861,0.0006975070054981316,0.0006445955388006292,16.0
162,0.014578267747132926,0.13347731909324048,-0.07645265057954263,-0.09546519210596913,-0.0386223330042289,-0.016586320427501737,0.07873460818754802,0.11030769004329691,-0.012910769839608092,0.007504925298786943,0.010922353314183822,0.004613289010853603,0.008217494552738416,-0.017229005974342685,16.0
163,0.016137520703548763,0.13912450744235474,-0.08565032761765529,-0.09298370859093277,-0.025702347997293463,-0.018906101445214714,0.08105410870038003,0.11148630710375433,-0.014409143997958824,0.005242411885055688,-0.0045377946314300215,-0.001180355088211453,-0.006180138121551004,-9.209212939220755e-05,16.0
164,0.0056992536970774015,0.14066997418625427,-0.08042334966842166,-0.09659594805239365,-0.03341892620165187,-0.0011387143445900653,0.08090772154650806,0.10426734584558023,-0.03126375018181282,0.0053147661449181195,0.0174613883118252,0.007753918846115764,-0.0025078480994684,0.005448214664692354,16.0
165,0.01570321253983435,0.14163855613962206,-0.07838485941242028,-0.10217124434469839,-0.04244777985561461,-0.009203670910631966,0.07184042283704811,0.10355432014028369,-0.02296690001222579,-0.0007637469784010891,0.022220061007924573,0.010216389851860769,0.002936791090621225,-0.004757022198356691,16.0
166,0.017103091205062412,0.13743393304358736,-0.07084135472188169,-0.08090144253482609,-0.022610936704775587,-0.002299753727794594,0.07622384001278526,0.10138953631545147,-0.013597541002204352,0.009347291079651255,0.023812566216298053,-0.01640763232470949,-0.0043782058132102175,0.004403103051644342,16.0
167,0.0036457552760319014,0.1451593543231549,-0.08563011764457128,-0.09738062395942321,-0.04615544482672965,0.005237161847171213,0.07936381715695155,0.09034525082664839,-0.02361757793547479,0.003347621820519637,0.01667263291506351,-0.004795799497708165,0.0035301654433479487,-0.010448340791222272,16.0
168,-0.005952543215616887,0.13292175171943035,-0.07394801186617288,-0.09566833570726661,-0.033653106957946814,-0.0013247562176102994,0.08077369347415081,0.10639204811125595,-0.03619341377779091,-0.0006853169202189082,0.03457560992545505,0.003256402790272603,0.013457098435934445,-0.007044481158459476,16.0
169,0.0020438051991211277,0.14791115401818902,-0.08469760184244672,-0.08912615013499829,-0.040258729994763945,0.005057095142140259,0.07443812453743336,0.09983597290923663,-0.0325043533247601,0.0019384794991078997,0.016244939520309167,0.0021830145851946064,-0.006192814450490508,-0.0015357559258772,16.0
170,0.017655451719123232,0.134555917214463,-0.09857862841863496,-0.10018215553812182,-0.0351891024472366,-0.004658027676337509,0.06506412127930736,0.10378310177079156,-0.03723146755500068,0.00011189162119332967,0.004446683962471273,0.009362388084603592,0.0019810985773468757,-0.002782155787762046,16.0
171,0.006886515560518915,0.12931297375877546,-0.08102745160745316,-0.09266144934986939,-0.026006491541621272,0.004561759772406807,0.06679210241765157,0.11246121253287156,-0.011395322463893093,-0.0024056311825183434,0.006123403855025078,-0.00956885186870326,-0.011325612114265294,-0.0039724092059223864,17.0
172,-0.00033402069826029304,0.13011273760784126,-0.08336966943497383,-0.09979088741546516,-0.030810501744159034,-0.02129514893470885,0.07196962072224146,0.11396827757881461,-0.034405310485057,-0.0021179362869515,0.009598023060126887,0.0025404326830604255,0.004112243244167522,-0.0037693015232904982,17.0
173,0.017332249977865227,0.1389452965778853,-0.07653443566072138,-0.0952690558439234,-0.016733893519726827,-0.010430643838171431,0.05939185922924024,0.10785196820569351,-0.02444057080812348,0.007518214515085326,0.022511603177864332,-0.00309666293022523,0.008936559962910724,0.00825334710034307,17.0
174,-0.001306333293605083,0.12877785154654,-0.07715258857940704,-0.11348430299271633,-0.021916159805272954,-0.019803623065340906,0.07352419085645363,0.10303028010741229,-0.01752529940789899,0.00198515875864187,0.004564157855428281,-0.0032445183030289865,0.00586469055925117,-0.009491769842829867,17.0
175,0.015369924216850768,0.13247928828634936,-0.08229518171739982,-0.09757957630146745,-0.029956445426311377,-0.013295595975096849,0.07032926054832353,0.10965807011532087,-0.022745476727492334,0.006478895950699719,0.02808348359296174,-0.0008700425838747117,0.0016655930743981753,0.007627997049971033,17.0
176,0.01047395346919021,0.13174404004817505,-0.08400545930147252,-0.10459163436676178,-0.0302081697240025,-0.007031187768600589,0.06984081253553434,0.09713166400097874,-0.03380444808229063,-0.002268024337816845,0.013680262040400152,0.0033489619419376743,0.006260974775960474,0.002699158225503519,17.0
177,0.01141474198383187,0.1472890785142385,-0.08854303245703442,-0.10962223257443089,-0.030467285073155846,0.0015161682358470151,0.07703658225948344,0.12553481786676635,-0.02486900235152198,-0.003936389053081086,0.012154586956711113,0.016458195642859254,-0.0005549685279386824,0.003591177411312877,17.0
178,-3.938547063486224e-05,0.14665751473403393,-0.08300516116853415,-0.09627696727986254,-0.03039151508202617,-0.021945796348955098,0.07501589030733626,0.10381596143237261,-0.023389664807625502,0.0024359811288431044,0.03744764029966007,0.004612126935253687,-0.001833301249878509,0.003882373117200418,17.0
179,0.007308221732675968,0.12993549995082346,-0.07960752132641,-0.10198415552826534,-0.019124658865532697,-0.009375932611410127,0.0632654139258213,0.11156930771568904,-0.022244362517450433,0.0015201938011482016,0.014356797333075936,0.009654058729385963,-0.010655579506987388,0.014117510142016704,17.0
180,0.006545659177595982,0.13186381152993978,-0.08841768980079955,-0.10412881571913954,-0.039115880480392294,-0.004044948647691411,0.07716016798722235,0.10817461447331626,-0.016599802502138914,0.011399311428587015,0.005076950211624538,0.006387122450809344,0.011912934046515495,0.004969406152333144,17.0
181,0.011022686434823802,0.4350713852924068,-0.005468139141845668,0.057204780250034455,-0.029539325287804244,0.030430886413430225,0.06720464661180962,0.11249802876258638,0.020793731856607125,0.008179554568524993,0.020949871061239956,0.0011274298384078283,0.0015818788822966638,-0.010074529004614977,18.0
182,0.012350259858911097,0.4449174275082146,-0.01608996751571873,0.04217608895384426,-0.03361751455263443,0.029437320959801748,0.07295444113864102,0.10334962621676352,0.018102168933965258,-0.0023013770064265696,0.009983883793888872,-0.005327008606686857,-0.003034893808835809,-0.003001088695871719,18.0
183,0.010046385059372203,0.4297678633481178,-0.007393695237313298,0.050549070751681545,-0.03179155951312151,0.014154644402418287,0.0772107341863165,0.11682740773960137,0.03448346565430655,0.014147572698193032,0.008001774846721165,-0.006478715138867437,0.001090451582152813,0.0001292024204299655,18.0
184,-0.0013401957258539635,0.4328723417314427,-0.001708058317260304,0.05282499130749694,-0.02877420868589058,0.02826565747010742,0.0735360060216659,0.11926486012908416,0.02510569430705148,-0.0032790411807057697,0.018585941909122067,-3.917570173425058e-06,-0.004774442757553052,0.004844112813234281,18.0
185,0.006640836560283694,0.4328783604938514,-0.012750587527450548,0.04039850281067557,-0.034710969347797965,0.029074892051509937,0.07275395590788217,0.11475655541405735,0.022305005484227966,-0.0008565477781474312,0.009988547597934513,-0.0006276682770703334,0.00038174431669544287,0.0030993596702905985,18.0
186,0.011613089556463143,0.4345748239169662,-0.011033563675490167,0.04248967069325833,-0.04040202069667406,0.026742045776354223,0.061817853755286645,0.10996710904976251,0.02394713725339024,0.004023245720604038,0.01590218439443345,-0.004410420299569619,-0.003214894128913487,-0.0076728221706121955,18.0
187,0.009868668887800846,0.4333779072714203,0.0012013566763334816,0.050447453842246234,-0.03257500935323113,0.022961957228387796,0.07593641587870548,0.1079646361535355,0.02910871418570934,-0.005214426380134471,0.013664887984985401,-0.004105360025791859,-0.00023456712721221768,0.008516652666137124,18.0
188,-0.0008269561276332683,0.43761711136382087,-0.01275550890086243,0.06008384552692401,-0.0317039117948784,0.01762688979263857,0.06741148061340056,0.10401005539582903,0.02343327245407387,0.0021687866285582625,-0.0017969286936373667,-0.01019044298879258,0.0018337873272875102,-0.0024405154438557077,18.0
189,0.013254676476158394,0.4316614148913368,-0.005036423063378268,0.05297081999166856,-0.026751215858074294,0.02314543501527511,0.05901407114789427,0.10498066873922055,0.0281393049347924,0.0070170768820973645,0.006831817254596771,-0.007662173241622589,-0.0030266666492824706,0.009820880250113758,18.0
190,0.0001791533940147282,0.4315698370723682,-0.015568308646104131,0.046084654780936846,-0.04165778086741268,0.029182507673334423,0.07327578140232857,0.10177457027762707,0.02162115147934085,-0.0015788818714144736,0.023305172102693686,-0.01183251789184488,0.003349688613270296,-0.008399450411848803,18.0
191,0.00932031729890063,0.3746359786795683,0.07362492029792643,-0.014287484407130617,0.002263052779584022,-0.02325152535215005,-0.07733759628918725,-0.11099914775349748,-0.02407182212493582,-0.0003240900592777497,-0.012601143597035324,0.010823932033876623,-0.0007812249380325007,-0.0012151099560698709,19.0
192,0.004673998742815202,0.37806333321238567,0.08114788192756371,-0.026164432187959892,-0.007676798069246709,-0.03312659952700419,-0.08060990818428852,-0.11775229620108069,-0.023857552826110632,-0.003885657920481593,-0.012289548258130731,-0.0038053280939466727,-3.8774811389245714e-05,0.0049113897886071765,19.0
193,0.0003326145383833669,0.3769775743639131,0.0667415925613697,-0.014526588935287747,-0.005667323228048936,-0.02178266089056322,-0.07903818501755028,-0.10964770552665537,-0.02613649119143703,-0.004291282513380495,-0.021971394588182626,-0.011667477631367565,0.00745835614890412,0.014713030734785098,19.0
194,-0.005233819072271186,0.37985212340668245,0.08976336874531185,-0.019902964595374828,0.01148065909003291,-0.026024566088021835,-0.0655231101945361,-0.10595754380506577,-0.034718107797844185,-0.0019257110815996566,-0.0015834701484001878,0.0017015569591456096,0.0006341553780313393,0.002136458469359236,19.0
195,0.013990338699394766,0.3792065358520353,0.09219781244754138,-0.013019383344614542,-0.00819960390123423,-0.02936274620712147,-0.07095012732434794,-0.11101540874981175,-0.024414631479531462,-0.0023069921963084924,-0.00585639906861519,0.0076136081081197345,0.0009902528657597617,-0.008019586915997223,19.0
196,-0.0026906429242961744,0.38670496721040737,0.07964735312345672,-0.024299890317748932,-0.012433294818186811,-0.027251527685293032,-0.06820346967559392,-0.11654979049466885,-0.017189419417845974,-0.0022103692943872305,-0.011251340445093332,-0.007501132293557314,-0.00873231342487998,-0.002111328067691038,19.0
197,0.0057209410903591084,0.3819392091521692,0.07726634493827685,-0.025624531708131913,-0.010931387269767969,-0.019986367855541365,-0.06034696922652798,-0.10764252895500051,-0.02827727680675043,-0.01038410107277299,-0.022441060174623332,-0.0024735932969435948,-0.0032766385423547988,0.004884419357531764,19.0
198,-0.005149085730034148,0.3756611505836895,0.0872543740763301,-0.02536521678114773,-0.012888082673518129,-0.026518899162569227,-0.07318890253908804,-0.09285860319541615,-0.019211454595598823,-0.00019823241673887692,0.0012368010705442224,-0.0002972446463078174,-0.010298730721640219,0.0016186747748674873,19.0
199,0.0029819315979428542,0.3772857043671531,0.07720791314679999,-0.017982559684770052,0.0026764936644194273,-0.022170105463408835,-0.07041806435599188,-0.12057818017604287,-0.02270323118850686,-0.001262453050692024,-0.007066500896372731,-0.000912431182529181,0.005729170927891855,-0.003402986487566882,19.0
200,0.008218079110193118,0.3704716733933511,0.07679890020572876,-0.006765262669995242,0.005022925397290229,-0.026163981125158626,-0.07335675315922494,-0.11307686580962302,-0.02670952215563254,-0.007390287020051534,-0.0019080183032661074,0.00038207003065776065,0.0073640230332283185,-0.004730182630972014,19.0
201,0.0026056854419370208,0.14222598601308412,0.034527154857826134,0.02894860881915135,0.019154952143691856,0.029371472332850628,0.06106377226121022,-0.17491186339331624,-0.005897990598157251,0.02272087775879038,0.034686150178632906,0.00050829756865339,0.005636011672591929,-0.0036723085011252294,20.0
202,-0.006096510100559452,0.13029628565157225,0.03820086726606376,0.017176781538059543,0.022148125748512864,0.018237629202026456,0.0837446677114626,-0.17600910356806782,-0.035510351759279725,0.011472303032404152,0.022358573051720718,-0.0009867058498025862,-0.010448678238600921,0.008507903419161493,20.0
203,-0.001143412426910188,0.13548206397798224,0.05411181006475364,0.017809707478232305,0.011110263546560585,0.03325192527099402,0.06109316898163775,-0.1896533573563343,-0.035175338936863525,0.005956030929878587,0.005171504055563296,-0.003083078017531957,-0.013034725044136853,-0.0003180122184847168,20.0
204,-0.004638551209139607,0.14162396213452713,0.031498947918966076,0.018464972968664072,0.006755185847222556,0.035797136409408965,0.07524337293552992,-0.19577038998294552,-0.011993907526021497,0.004665223323360496,0.011133632730645441,-0.011612484070320206,0.0016398924683164013,0.0035788183511784965,20.0
205,-0.0008340922288713216,0.13878461847298248,0.04365015223768213,0.01352401239877728,-0.0006309506553176655,0.03422691743248676,0.07266242771782291,-0.19004883605031656,-0.02504213077800113,0.01099638581190125,-0.0005841833049974528,0.004984559417205015,0.0018701373493520725,-0.01121146124278935,20.0
206,-0.006626288353225796,0.14502078876090574,0.04945447045163352,0.03188911321788508,0.00885791279904007,0.02192681667639408,0.06499103593288472,-0.1718486169487457,-0.02533593684613881,-0.0059801259256488945,0.02436003076575428,0.0010604584964703492,0.0065697980375300806,-0.003831333859778733,20.0
207,0.002694627019978862,0.1473345240688955,0.02954630014493293,0.01714184642676708,0.012119682270697008,0.025903267662751226,0.07190765696584221,-0.19093167122587806,-0.03376868842410767,0.008500143889544415,0.004057134778845795,-0.011568352599130935,0.00412033667413328,0.002623846918882479,20.0
208,0.0045839172281193705,0.1468665274692673,0.03105153366683981,0.016796557079551865,0.009640199500176838,0.030523760997014163,0.07760048955164811,-0.18298409360258164,-0.020769164373215385,-0.0023524174175799284,0.021117672978866856,0.0007579822758253324,-0.00806092169983383,0.0018495616015680083,20.0
209,-0.005848423265231903,0.1370394877901291,0.03541156901917916,0.01641126460231611,0.016859885358060503,0.03100071249700134,0.08193620685443856,-0.1772838342907925,-0.02566094835331596,0.015448828312617903,0.013846221093656533,0.002531248682690498,0.0007145449166716336,-0.007461274772814216,20.0
210,0.006490874541216007,0.14166877753932075,0.0489466270344872,0.026460708792635568,0.013723847410461317,0.017478122459916104,0.07067577157307281,-0.1797784127782505,-0.021267308435388942,0.016082537057827976,0.005730854610482653,0.006769565505660313,-0.0030893674552695594,-0.007783012827160549,20.0
211,-8.843396077957584e-05,0.22434118619719554,0.08251782446912649,-0.0551008178243408,0.034813388327290105,-0.034984292231076096,0.09829420204578539,-0.1118311872518279,0.03444685880424959,-0.00631118194568884,-0.017228517758298374,-0.0012921362209485753,-0.0035592043189338492,0.001928094195171392,21.0
212,-0.0145394175076178,0.23886410380224082,0.08133250896846049,-0.05517134185223196,0.03134861751828442,-0.033883939355091354,0.09594620947278983,-0.10565485238046136,0.024281643803512935,-0.008099636122910474,-0.007531539108821756,0.0011266998721579271,-0.0037874487446722905,0.008148516545061532,21.0
213,-0.00403167133334528,0.2348571785437845,0.07572054476181317,-0.04720724944491402,0.021299453883802246,-0.034249178138156255,0.09616289342077515,-0.11995078202652006,0.032566518189819586,-0.004743833063522315,-0.0087446956187137,0.014015197435931787,0.0037622380287289435,-0.006152261698254591,21.0
214,-0.0065624926470015475,0.23759502298849358,0.07587060162711319,-0.04846396826716976,0.03517688062513705,-0.0313571820918075,0.10249897160774295,-0.1121518893623052,0.01638302553509346,-0.0027007926887220907,0.0018932982347684773,0.001951480136739094,0.007120427519803131,-0.004867381487552378,21.0
215,0.008760078086635526,0.23758727824012144,0.07903385807199494,-0.053077384708427246,0.038206928481871426,-0.011756732790596186,0.08741136195440657,-0.1025996783497827,0.014768403793057404,-0.015029607599157438,-0.0072270552528619116,0.008171346840317097,0.0011907113133216806,0.001514980034832272,21.0
216,-0.007505642810809193,0.23326006543619515,0.08750067929082975,-0.0475401889797671,0.026346179920564653,-0.016227850514366208,0.09214684582556354,-0.10488667742576509,0.024354320035663377,-0.004222716891216553,-0.020523437206998528,0.0018359027489087448,0.008332500737734054,-0.004781133239079043,21.0
217,0.0032794264929039544,0.2354228754644464,0.08877071232291409,-0.05222167817851662,0.040114832904773585,-0.024805214209500825,0.0853901908900667,-0.10081691510161292,0.023379383383468032,-0.0013286349623243064,-0.005130690453667906,0.010141827888801604,-0.019643481091997938,0.002293864956627968,21.0
218,0.010893973176513206,0.22708434977766903,0.07434480815385443,-0.04668752978930371,0.02893128442570639,-0.024543662375514825,0.07881595491063766,-0.10396957023008689,0.02332652508387263,-0.004365490222913405,-0.0030848963964165096,-0.005769040626723216,0.007446227391095986,0.011911354186023196,21.0
219,-0.00030975072757856204,0.21999484976424027,0.08650719008110318,-0.046443335571704554,0.03801494774610778,-0.010322906430212246,0.08917227678729733,-0.11436527987287692,0.03330337840599074,-0.0009568004009636304,-0.003840888744912843,0.002426638341466895,0.0008751714550763855,0.0006043529732962101,21.0
220,0.0052092497981402665,0.22913092257690482,0.07340128347549586,-0.04363543832123529,0.03342570880069209,-0.021191314663452285,0.0927028782541071,-0.10399389186725576,0.019489554393285376,0.0026168621187679544,-0.016609870753848524,-0.005715317357342644,0.007212500837457577,0.008182878083170605,21.0
221,8.364632142834887e-05,0.14727184635595092,0.021212497018821105,0.014402349567805893,0.010211779054590317,0.020665888875943235,-0.04225590907073047,0.1112731885326772,0.033871927082507365,0.0035890915601500427,-0.004233723594452131,-0.002522553284794701,0.007990317031144806,-0.006787347852592255,22.0
222,0.011232269601273518,0.13789416918258796,0.04865485637391707,0.012117203004584194,0.013411812108122442,0.017062853206575922,-0.03916264003713676,0.10489784381408844,0.033127916180947625,0.009150806684977593,-0.012874718085154512,-0.0023974930052610573,0.009650842438024755,0.011910913133332124,22.0
223,0.006088062988254683,0.14157652709467364,0.042235230338719044,0.021887303490298295,0.007147096910413907,0.024183782311739732,-0.052640777688511685,0.11419131605116184,0.02353889635016662,0.015103441054012219,-0.005630711020945265,0.000979732251543558,-0.004947258892755165,0.004870382647981616,22.0
224,0.0030837206508582183,0.1418663924354993,0.04524289216335767,0.023049661130351957,0.0010322841941920581,0.01724102940699762,-0.045033481151729456,0.12004444512915921,0.008512785334850186,0.003201675076182167,-0.00032638876548903294,-0.0014670591923495978,-0.005957232993242958,0.0033520308448300234,22.0
225,-0.009036223755067055,0.140158920680365,0.04119186720876489,0.006704192943581598,0.00668285220110078,0.00809948265414116,-0.061670194970944135,0.10418013885284644,0.036032030433426336,0.018823975083105734,0.008081947632347227,0.001046143620619555,0.0026998545669457753,0.0004914916377546209,22.0
226,-0.012845679924236873,0.13468792709523392,0.03504506740015109,0.016446012363666197,0.00517814498276143,0.03301387131629836,-0.052071790442086874,0.10386483948571064,0.04106494635678143,0.012910535027950747,0.004205755442824169,-0.001347082325323685,0.00809048876725403,-0.004006098146034439,22.0
227,0.008216674934359236,0.13333004433970322,0.030152491913480226,0.004800231758951249,-0.009047179608378881,0.021336634913277877,-0.04680280842493133,0.11455986797373288,0.030231699567541053,0.014338287416191094,-0.003916391410842117,-0.009703322346968314,-0.011231485826151355,0.0014573724893958996,22.0
228,0.00557837721078157,0.15039772518455521,0.024380137438818048,0.00945377211118596,0.0103005302643756,0.018120549198807526,-0.057385498937474834,0.11400332679566666,0.02503710568325649,0.004593718903153442,-0.005316762208593304,0.011887124352087374,-0.013776751237056158,0.002186091731369697,22.0
229,0.0074068961798183204,0.1467941157010187,0.04817939610450281,0.02060274757935019,-0.01067604653953776,0.011890110955731533,-0.03926279255630801,0.11094678877520978,0.033825774265433484,0.010125012938429602,-0.012477769977847445,0.0025678708137588605,0.0018746140081046573,0.00982355500823683,22.0
230,-0.015099488038358724,0.14429046923586633,0.044444518399555134,0.01741099520036512,0.024645124808594987,0.02367283412137268,-0.043917036579029685,0.11229666244411124,0.04128323392544506,0.014693101070673589,-0.018097242280066993,0.002365060893387426,0.0021052565430740074,0.004669000406294446,22.0
231,-0.002570014181042786,0.3777910937483614,-0.029527724939268578,0.10074348310108712,-0.006910773287483394,0.017390336890527883,0.0013164767349423242,0.19281194783664088,0.026150962172538348,0.010407924974558759,0.007047928231900051,-0.0018902534664012934,0.004722070580023454,-0.00012516715349879083,23.0
232,0.0007021114054126776,0.3723509541231257,-0.040652561399583224,0.09790130630537543,-0.021665949021412,0.007412991886312066,-0.0199990825168091,0.1699662619938695,0.01992389287110831,-0.0026091549064586996,0.00914615673012128,-0.003377478647468001,-0.0028622684765592767,-0.00811908810259842,23.0
233,0.011005795777703019,0.372466444591199,-0.03732942922986677,0.09816686455059548,-0.010357190952292296,-0.0008863116131989369,-0.025354573165192996,0.17552173471564725,0.028702910530905575,0.003960291745962948,0.013996557706113839,0.0007265359500702137,0.0016846322548331686,0.0020419446451621723,23.0
234,-0.006603144974291651,0.37011988872786583,-0.028493568403022092,0.09904674651805878,-0.02100235555262314,-0.007304775984517654,-0.013744256980261445,0.17868728860267769,0.013435948316231872,-0.01248918762075749,0.014612583019958983,-0.0015375983792648633,-0.006801210088080832,-0.003058006276800568,23.0
235,-0.003538012748621839,0.36949623883615923,-0.051169529380703654,0.09007421883135927,-0.007859078070195466,0.0006212833004850873,-0.01861865648736419,0.17213595987276434,0.02581380101333795,0.0064649668834421544,0.01719913115622344,0.004410808502068533,-0.004178162183516067,-0.0007994202890376227,23.0
236,0.007281153060457515,0.37288983371451934,-0.03604629602827319,0.08601604764489124,-4.986478843048307e-05,0.00923822873193925,-0.008209270528388747,0.1746052314338385,0.0192746818558434,0.004506682747203962,0.022249301420450868,-0.003847487491660466,0.008922522149964824,0.002517975471534249,23.0
237,0.0025900170290005242,0.36895298823634437,-0.04577937532880318,0.09067849080971838,-0.008421618551873823,0.0016105330182913844,-0.020529970519477435,0.18028255448217356,0.03089611291934383,-0.0066960037374249135,0.013108134478789472,0.005307333539758612,-0.004322459708001222,-0.010833022684629753,23.0
238,0.0028233770891204412,0.37095017459263296,-0.02705153695739073,0.09664059129664743,-0.008356530572999076,0.01090844578053527,-0.024363133723386998,0.18107039747870984,0.01724101598774078,0.00029921421961436045,0.011396753196984914,0.007045607169929405,-0.0002686193628982845,-0.010757203102007297,23.0
239,-0.02021312669374152,0.36674064083613295,-0.045113456730402984,0.08851184268410765,-0.012445844473715066,0.0018419129713198121,-0.01280414929502214,0.174912632371844,0.02087485302114639,0.004640590494150617,0.009972543472935882,-0.0031313889756927017,0.008722104301341689,-0.0005778371680453209,23.0
240,-0.003974293321857972,0.371748007031851,-0.04578301114921403,0.09289795162244051,-0.015006819018380265,0.009041343873216156,-0.010582659393172277,0.18316461215558008,0.018043704378633743,0.008829468099025477,0.003993997598859017,-0.005250494123620551,-0.000696533950929436,0.00483665005602944,23.0
241,-0.008570474149953542,0.1553434955717533,0.04557583762614044,0.038411909820002615,0.020107390751014375,-0.00046466321376943914,0.07351451233387854,0.0815409908250493,0.028237172765365557,0.012545758315159954,0.0175404786495618,0.013071798724504142,-0.006648901182900677,0.010372314920194317,24.0
242,-0.0039848803733490215,0.15813618958027456,0.04803113250260739,0.03893780816429441,0.028785250297374415,-0.0038242554280124596,0.0697263750513525,0.07815107375546596,0.0318923216351764,0.01142488327840313,0.002474162995117968,0.0033157447439094755,0.0044239437283771,0.015773293566053025,24.0
243,0.006891413752883548,0.14929153684141463,0.028648703888363235,0.0521958180114941,0.028091619471837227,-0.0019894326474295836,0.08151945070370055,0.07623367108180551,0.029634180103602976,0.002684598437669459,0.018444792674823334,0.009570283696058014,-0.0034197381030781847,-0.011153648438641105,24.0
244,-0.01117354248081756,0.14623857308650312,0.04146940505115111,0.051938949334104374,0.016851416055570133,-0.006448982192438981,0.07457023717560848,0.07408644841148243,0.012124579365354589,0.019433375797353807,0.014257382082649948,-0.016327130649911502,-0.0022427536947499348,0.0011588293173853815,24.0
245,0.0054357585133051915,0.14408343782332914,0.04617658422440025,0.043740023257202124,0.01622560338319866,-0.0023766628940802476,0.07485840032575841,0.062397767199748023,0.03537398048212868,0.0192453843382103,0.025840669100248074,0.00614099172226164,0.004227526637796531,-0.001958473951768855,24.0
246,0.003212013408402396,0.14253664614186728,0.06064823783450694,0.03279161446901699,0.01673553507622925,0.0021239410355090122,0.08740166641102769,0.07682003375008507,0.02861744702694065,0.01242376443000634,0.014741352344086056,-0.002558739188128871,-0.01056452402903208,-0.003110689361739508,24.0
247,-0.013555166510726453,0.15357698223147495,0.039998792878763956,0.03633129936352117,0.015691426562274874,-0.005647224349286564,0.07384216805988345,0.06844481303063042,0.01681509581036119,0.0038364196313759647,0.003250922790566574,0.0035907948789967886,0.011341732232072651,0.005242518079412417,24.0
248,-0.0024666475659848018,0.14171295565050365,0.041330515572699414,0.0535613546823726,0.026522570807413503,-0.004637081364224015,0.07499426844530463,0.07738824613781281,0.021599849303040257,0.016315051528621984,0.00945164609553774,0.0034005152357372464,-0.010973457204346816,-0.0016077966781409183,24.0
249,-0.0024117438733180807,0.14854460276408932,0.03885299764061648,0.027270243795954094,0.013945159843287182,-0.008492385358834328,0.08146750988869042,0.08203658776820852,0.022266224135171465,0.01764715493526458,0.007023121775722017,0.0034704467889607564,0.007680865990002103,-0.0029290328233687623,24.0
250,0.005493379769633035,0.14948168180386565,0.036692517658488064,0.0451096813082934,0.007875938392166288,-0.005758444286694405,0.07097852301292998,0.07468929120681661,0.023604246786161177,0.009556926918710636,0.030250253481097094,0.0009731471362074068,-0.007038735376478201,-0.004484428347724885,24.0
251,0.0008356641139686192,0.131912651551112,0.043607411881972494,0.03836395162644449,-0.03198153752216882,0.007405693996326335,-0.04157185372769963,0.09252452837232601,-0.023359381358433174,0.018746173542493916,-0.0004888026251803039,0.0033787301018496016,0.005525508230419531,0.0026776987475656583,25.0
252,0.011325692438116385,0.13379607949030284,0.039394730279553536,0.032694147570068055,-0.030834809226515898,0.020622351957178424,-0.05563706224272477,0.07647559859572452,-0.012959886691891513,0.008883628115141795,0.01509258672727887,-0.0007727028203691353,0.0009008252213724505,0.0039869626905593035,25.0
253,0.002556785958811401,0.15208461055251932,0.03991931666739613,0.047607317338542406,-0.020791995380433314,0.012504233087477327,-0.046542948156257063,0.06172128152037299,-0.023474041165679735,-0.0003358013163330711,0.017609869737185656,-0.027258456037782115,0.002871895441323812,-0.0002768982608702659,25.0
254,-0.0014456975253336274,0.13298415226623095,0.03638564741725291,0.030931904363216908,-0.031212416032297036,0.009593928600119839,-0.03240863667310489,0.08050183433810894,-0.022262494832873535,0.01466372156195024,0.030926461544849286,0.011954486114469785,-0.0028295729412652244,0.001858104868521991,25.0
255,0.0019890254191939397,0.14019829417740154,0.04600371350143531,0.03611202078268716,-0.03323100148432098,0.025422821852049228,-0.06009486800008063,0.0775915405456001,-0.010897435915666775,0.014181753046567082,0.024337373188157336,0.0021403815962408915,-0.003154113829478761,0.0181628386225424,25.0
256,0.013333893107019304,0.14830166168137754,0.030000867838875216,0.041840361616209056,-0.02349545052505724,0.003191631930323594,-0.0456615058454764,0.06828865833955529,-0.021647609406450243,0.009619658912821804,0.02116078145595064,0.0011361650282793493,-0.008638261880264292,-0.010749659711740316,25.0
257,0.016247012441072173,0.13577807805076314,0.042291497461230274,0.03839906960526357,-0.03345468160540781,0.006263750021011873,-0.05618765288320925,0.054039254303708026,-0.023937047849429096,0.010575541259456842,0.018826194157673053,0.00011839039843646179,-0.005658916664394718,0.003359805041265118,25.0
258,0.0012016191617365943,0.1443271108535511,0.04115745158181945,0.03884230501657344,-0.026537144408288586,0.0022586346576679533,-0.052504045003540854,0.07761036306889292,-0.032221431933346145,0.0042888636797605165,0.007578402724441893,-0.00845468410459833,-0.014582119995002923,-0.00278843692668491,25.0
259,0.002455475521505279,0.14139657432767208,0.023332049016057586,0.031800720893706946,-0.03392495693508587,0.017831551193976496,-0.05765205506448386,0.06749166891410563,-0.020762624374381467,0.004080220580714692,0.0010773068479702698,-0.0002266854051582038,0.007425997221938906,0.007923798773235196,25.0
260,-0.0012605168059797239,0.1378822412865866,0.04818763088995062,0.05508496880946811,-0.04478610236647156,0.02091147842906689,-0.03517718737867456,0.07046653284974641,-0.02079119436864495,0.016409022964940317,0.021303239163069466,0.00634022603340586,0.0007833627813480526,-0.003587427509521806,25.0
261,-0.008052378379629082,0.23612006172382627,0.07449795658579794,0.09542991956445827,0.025876482602332263,0.00647069178893393,0.03987862483841111,0.03322240939232478,0.022658931825717692,-0.0015001040063463045,-0.014347422979642255,-0.01218061183434574,-0.0027966795968164615,0.013195732736192872,26.0
262,0.0013094672368690798,0.2315870550448642,0.07996329770894596,0.08595150429255337,0.03857633313867854,0.02317413706358164,0.04579015210790262,0.02390028163711523,0.028804719257128658,-0.004969052599816803,-0.013343978153514185,-0.011155336702425054,0.012576285932084706,0.0010239987562849445,26.0
263,0.0010706420368317695,0.23753453718253958,0.07287858372407431,0.09632116262178254,0.04236266959636413,0.011390345541045212,0.05807190002940582,0.03616457568751117,0.02513933191636231,-0.001337379136152826,0.008561899777211288,8.867153168955444e-05,-0.010971689206527793,-0.008776893274291972,26.0
264,-0.0013499895936741097,0.2322013617555342,0.08038037788743028,0.0991007755589107,0.02693587750539574,0.0031969288471993926,0.060711667925985605,0.03257028903323518,0.03386172340459973,-0.011524518537214814,-0.01169566474497297,-0.0036747884028566643,0.002470712708067651,-0.004563679451441106,26.0
265,-0.009656899833422456,0.22637618430901368,0.08052667553219735,0.10104236812379953,0.03201760402621378,0.008518372972539153,0.026172318989358043,0.011887522411201492,0.042504071780609665,-0.0061667815209813966,-0.006524751323220537,0.0012822365054974577,-0.008141672058613438,0.005753463838982642,26.0
266,-0.0030369097958576055,0.22927665984955117,0.08126000534552064,0.09039626081574591,0.048112058440797384,0.0062866490822314275,0.04001306120820814,0.032715000577350606,0.020477661909454596,-0.008849600828994667,-0.01679220073935193,0.0058804301927348765,0.009941145887157225,0.0020278562926360133,26.0
267,0.0007223962985633915,0.23723188526418829,0.08118341570654278,0.09598582911095739,0.032277072968849185,-0.0013821919491574365,0.046308449082835594,0.017465342892146053,0.013946911006295417,0.006862141921883928,-0.015773764218075307,0.006389691513927524,0.007884844989616236,0.0004596698200910748,26.0
268,0.004830693766110948,0.23033114145645536,0.07950280300197814,0.1042999521597471,0.020198991313139198,-0.0012448344240671178,0.04819993015665915,0.042193401511569494,0.02024123165926436,0.00260882050667818,-0.013094925129057279,-0.00576374024958006,-0.0006749067096106635,0.0013441734968012062,26.0
269,0.009115235698731235,0.23378232550513292,0.08284613898994658,0.09229637284405481,0.03220141055785687,0.01374071477734314,0.05109425859645674,0.02028903909809579,0.023784262216056482,0.0031373346900605103,-0.0011027343970616097,0.0043413886198145745,-0.007291996748481994,0.0033326973060134137,26.0
270,0.011290541007776954,0.23847936183146756,0.07626709413309053,0.09806328811158277,0.04553024318303432,0.014965854154962254,0.03560345313314874,0.034473494865559014,0.03218902453489194,-0.0037362787902450317,-0.014593525364074567,-0.0001334190429839921,-0.0060315331967012885,-0.002871897625216176,26.0
271,-0.009945434137039634,0.2418521055836954,0.09094205944681968,-0.014177545340432527,-0.019135438928415936,0.04479520157729709,-0.012707445856903662,0.03012551671044993,0.025577597760995944,-0.006472875359652868,-0.005458517648408509,-0.009814109908704455,0.003018959447901284,-0.0031099614358053636,27.0
272,-0.006077898051362527,0.2347347535022729,0.08640160267817658,-0.006485968553847274,-0.011387047494019443,0.0452136005398734,-0.01623025784930218,0.028706764707356235,0.019842077565819596,-0.015821172369642193,-0.026870874685687548,0.006271982680981106,0.008516629007160102,-0.008395972948637247,27.0
273,-0.003842155378673291,0.23951383270400742,0.07879278710661812,-0.03600450141297815,-0.038128355158120436,0.020611957953377637,-0.01817820404752493,0.032755545067690746,0.019198350554330623,0.0017600097959594853,-0.02506498825995936,0.004466626714368458,0.004343865542904742,-0.0012873058706163207,27.0
274,-0.002587098467583242,0.23008220786129696,0.09803614508179997,-0.026171872274789128,-0.020847834044740155,0.042606767813714856,-0.016563910904357212,0.018972983127014915,0.013099903516541741,-0.011858459431780129,-0.007570379267441867,-0.004329401375734952,-0.010011534790515628,-0.002253869384547213,27.0
275,-0.007938718021927388,0.23747116467296783,0.08572361061345922,-0.008523081056776764,-0.02031049541448828,0.03740725274490336,-0.020150696323639018,0.017891506296899527,0.02839367770450441,-0.014149084449822743,-0.008309517452993128,0.015616703724594082,0.005503477465205629,0.0037998190566969937,27.0
276,-0.0017076012576595972,0.22667810013877107,0.08283007986917945,-0.025416209886822288,-0.006880861171690174,0.030408258338627918,-0.010040093275625975,0.04190827470667312,0.013073693730974561,-0.011288243404225889,-0.012297497305833197,-0.012017906073985535,0.006770248012403632,0.0049997798752283535,27.0
277,0.003335400581589945,0.23531516337784375,0.08341625954575839,-0.021915189312546872,-0.018083896357291285,0.042989322025069755,-0.025934295977242856,0.024544557245360223,0.03379661974552604,-0.011453814234725147,-0.007411716773369998,0.0070426908978787894,-0.008173231153399187,0.006050347798323167,27.0
278,-0.005428116417645498,0.22863513189330784,0.08289866772847655,-0.02631510229162035,-0.012440441977273058,0.019442187525926996,0.0031194188743608373,0.03786055437812118,0.023178321885378564,-0.01842731395095429,-0.0071582541262276995,0.0064582237602427315,0.013521780517829773,0.009052696129107675,27.0
279,-0.004318517383411572,0.22292726361160842,0.08918081822425386,-0.03375097016839235,-0.02523963969944524,0.022290981141918458,-0.0012085784462932227,0.03456562505795975,0.019840767415895147,-0.01635629568403584,-0.0269859326129502,0.008370144744875364,0.012379439053543502,-0.00026111906857185065,27.0
280,-0.019783325159802908,0.2376025739632199,0.09170512943649625,-0.027343636715664473,-0.02565617182547482,0.0338137384849019,-0.008039130181016997,0.025137324217372015,0.019583391915700278,-0.013221295270351973,-0.02139114838499383,0.00018440570930461356,-0.013160893802784299,-0.0013728507582703993,27.0
281,0.01465531842671689,0.4331758751863577,0.037578239983670526,0.017002173367306344,-0.03906357820500569,-0.033990666897885144,0.06788852022041804,0.10016845677755792,-0.021131223090552403,-0.002063319080067748,0.00881148641687042,-0.0029175353961358786,-0.012599305245814417,-0.005449621007043157,28.0
282,0.005211195439099647,0.4356628138703581,0.033409514603902984,0.01178207664022646,-0.027942805728973934,-0.036621186438676484,0.06981191812891827,0.10405140466368837,-0.02283658544254104,-0.0014387028311104845,0.010009224031961248,-0.0004801689103190392,0.00329807255711586,-0.00139387188155726,28.0
283,-0.0007631258881957419,0.4314404607921373,0.05190204859661941,0.01156200229292027,-0.02819281597197763,-0.041122844521800456,0.07578926550099542,0.10880820702076108,-0.016732801579982793,-0.0014183708989335777,0.0225341575823854,-0.018361224569255465,0.004676815612780585,-0.0024498059439423616,28.0
284,0.002153713862776945,0.43113159839790227,0.037484008445753565,0.017084714290079454,-0.032260440823218176,-0.036082712833120166,0.07147723208533778,0.12113943952638023,-0.023019847546939583,0.007147207517165943,0.013976742950936821,0.011722974135563835,-0.0004860851374132479,0.009458361506632942,28.0
285,0.00428450663494126,0.4356858136484903,0.044256254664615156,0.021383866453631595,-0.04079813480346088,-0.047082270462493955,0.07054499684909596,0.10615789270113456,-0.022301783974068793,-0.008167665143716904,0.015268331805978752,-0.0032853639888193223,-0.005450275560978524,-0.001873533537312215,28.0
286,0.019671429375751056,0.43241610778679446,0.03970719366961323,0.024588007608941365,-0.03409059458941066,-0.03617443773422818,0.07623959287922402,0.1003332847652371,-0.02940859111735497,-0.0006800044729221162,0.018109014154542448,0.01018622468491999,-0.0007030915973334337,-0.010809989180792333,28.0
287,0.011712389096672396,0.43575505803603426,0.043956244823813,0.014634414672635286,-0.044732212326363985,-0.033614311274484734,0.08999048090213528,0.10680084386574491,-0.02306110936007636,-0.003486254459291193,0.020568929890687926,-0.0035858268316656984,0.007247295637527223,0.016005625649763128,28.0
288,0.010492592312092859,0.4399848028767613,0.03137543294845393,0.018508564576674588,-0.03624531121919065,-0.03956349218524204,0.07432647996367128,0.09375454941155696,-0.02381852906062578,-0.0066603373098992474,0.009930516124685734,0.0010635629972629505,0.011626734954815646,0.0040265821006353975,28.0
289,0.02005602587394424,0.4334673356067606,0.049684619773150515,0.021015632013396374,-0.03565990637318201,-0.029713464150658,0.0710175092522466,0.10505166665272533,-0.01887439794314282,0.01069101563286266,0.014841277029567942,-0.0065980519707774105,-0.007918706602966915,0.006171203700993138,28.0
290,0.0070541352349583735,0.43757291748247645,0.03284596068620615,0.018935467607335322,-0.04282198652821874,-0.029151497441953052,0.07202416563355962,0.1103617138336684,-0.015766583331647877,0.0011637746428098791,0.012300004628226873,0.008150886466692561,0.0032398069388525274,4.2578744058770934e-05,28.0
291,-0.005320016603097338,0.42824699010757955,-0.07365893704335091,0.046509582070470824,0.011226955845976598,0.021591897605866543,-0.04364864810170319,-0.18368442417542027,0.025307617018737735,0.011198366151861906,-0.00922765253510549,-0.010434736860165876,0.007655326584431907,0.012203706761006914,29.0
292,0.004907915792339798,0.42983022690025596,-0.08126236075116333,0.03500157526639901,0.0008339396051259879,0.011353649756255803,-0.05454710196299325,-0.1900123189335675,0.017890848950541622,-0.0012463403673279503,-0.017053242885731505,0.0085269923289427,0.0071789893069117375,0.0014751572859478164,29.0
293,0.003657079645525197,0.4395770869064596,-0.07720891852833033,0.027875010177334042,0.004474625839013217,0.014629481288185548,-0.045265344696021156,-0.17444113437346226,0.022655678401422078,0.0010746872916228543,-0.009378393300903795,-0.0008221048928798162,-0.007686143467207758,0.007656125029643604,29.0
294,0.00031029918353004136,0.43016226173994887,-0.08713308863447017,0.04194357905397351,-0.0013685100672708565,0.020148631577409433,-0.047156370837739464,-0.17613196094804717,0.01817076450902905,0.005141875646431612,0.004635958869936443,-0.007783774962397628,0.001808849063380808,-0.0002602172657170618,29.0
295,-0.006076840234904586,0.4299361109765515,-0.07469484067709226,0.04106168558561495,-0.009445463531331062,0.00982961578446818,-0.0474385776184025,-0.18184286275819986,0.02092052905761056,0.0064062522113867894,-0.011570586714378463,0.0009432910465657517,-0.0075060863299871656,-0.009857452003847182,29.0
296,-0.0009605754460966774,0.42966977082374946,-0.07971101138021212,0.051335071662573416,0.007026820446253961,0.015508244414970397,-0.04330335553213427,-0.178769582212904,0.028539912444825833,4.3343844947503113e-05,-0.012367723425788032,0.010046359538605979,0.007789283357901643,0.004331292165359232,29.0
297,0.002478493069574421,0.4304561459832685,-0.08045213374657657,0.03401565550856877,0.0036248611051720937,0.017479742555541865,-0.04605746815577839,-0.18417450151709897,0.03001164273210673,0.0026390519266006776,-0.010534785399123602,-0.0017449179403572072,0.0018802486258901606,0.011575278636737062,29.0
298,-0.004338741664329398,0.4320945062315934,-0.08010039393689448,0.0367534090132598,0.0028329951019109584,0.005405978934568005,-0.05418826472574284,-0.17765035186934386,0.021961597184098017,0.005749573153807582,-0.013573446913637717,-0.005197720504647824,0.0016354792282281835,0.0003600865304688169,29.0
299,-0.001347611922541245,0.4332921497524195,-0.07219612436957104,0.04033377955188337,0.009660830287709917,0.014239913829367935,-0.0443959478821567,-0.1792730352451654,0.020667341745144136,-0.000718835975378031,-0.006201809229442787,-0.0010129912726357592,0.001469150715572068,-0.0008870195636457499,29.0
300,0.004417232317005466,0.4355240001642355,-0.08608857899027823,0.048088755593699475,0.01048459046599241,0.01693742327800295,-0.02995486974292801,-0.17785799735510077,0.02158882175817054,0.0009296153052249913,-0.020583196685151586,-0.011958702024814244,0.0010371035154810816,-0.004176826782694562,29.0
301,0.014010998065649975,0.36865019041959074,-0.027151068970219176,-0.003652799368405294,0.03837341388250799,0.03936419586748518,-0.006273134000447432,0.019838835528792308,-0.018205395844246484,0.01013731189953977,-0.019932542697206564,0.00016446091268180097,0.0022968513309405848,0.007495442507738307,30.0
302,0.0063956850244676665,0.37580757506583284,-0.02224618322201085,-0.013501372779113873,0.03172752677316977,0.03261486749412013,0.002261349952153726,0.03277325398026506,-0.026684935778781907,-0.001392142073196513,-0.020650408048164585,-0.006812366733936943,0.0034870277763637543,0.010482068746225863,30.0
303,-0.004245775935547446,0.3779433471404295,-0.05377687419270749,-0.014259668276116851,0.03171232818786485,0.022573583211966564,-0.010597069841880693,0.0324790849038134,-0.02545100701629281,-0.005001649438949038,-0.007752798274100979,0.013555565046646345,-0.011817200389860826,0.00216223463071809,30.0
304,0.0020944796653652713,0.3806739623504452,-0.04596806105497425,-0.009350569927737692,0.013502612284250835,0.0324945697151685,-0.00953461903251908,0.02907866803193787,-0.01845027188691927,0.004511742686853729,-0.003293066907569909,0.01341476525556056,-0.005657280382830663,0.004682163260060876,30.0
305,-0.0011171238670064482,0.36319985412259764,-0.03916588347415199,-0.011572861968276607,0.03904016428923292,0.029461851046415674,0.0027675722391715656,0.035040195058801446,-0.023537725183969124,0.007110557697373525,-0.002705118622328478,0.0076075300711733514,0.004015241060443107,0.0005608254129010894,30.0
306,-0.0017423510802107235,0.3813955747181091,-0.04679839534158243,-0.008299511551612205,0.025807231498156034,0.03805362183657198,-0.012500790924460851,0.02411081555004384,-0.02544266130081585,-0.00553949301155478,-0.020614263451528395,-0.004077509054453796,-0.00019412881715946356,0.0021364531606584266,30.0
307,0.005550163112607063,0.3754477811283107,-0.044187415523690904,-0.02070557688656291,0.033287128331484804,0.047411882613097665,-0.014153349636120456,0.037965297025608566,-0.01875578610217867,0.0030485703827152753,-0.017777163312744194,0.0017036340336158908,0.005199601898817759,-0.001659120397963023,30.0
308,0.022549671680778764,0.37637482627097363,-0.037558263097045554,-0.025708057987944014,0.03751657890075901,0.0380215713273959,-0.012453653183391075,0.04260414838337446,-0.02221298789693924,-0.005022498882787145,-0.013871910337241502,-0.002928873574387301,-0.002375942774537856,0.0012753914328239337,30.0
309,0.0004958142453116775,0.3796482172019299,-0.04163368917464326,-0.020263097690290714,0.03704084041120239,0.04366502061999132,-0.02676508927938381,0.037192903920107684,-0.01531834867707542,-0.004179295664063372,-0.002354784592168197,0.008501471434040005,-0.0071513708539717525,0.00384596224726653,30.0
310,-0.0071450125141094625,0.38302551114310657,-0.05323092003587362,-0.020915280206372303,0.030397501017143922,0.0322265090550396,-0.01800505061813777,0.027958573127584586,-0.03221343512671384,0.00035094212175453335,-0.014296294248045169,-0.00869901939741224,-0.000180675389189873,0.0009904877489495373,30.0
311,-0.00951615643899346,-0.23310955979736894,0.05649932719666793,-0.09391666509027222,0.008473749220453852,0.013932262854459187,0.0672158640771144,0.10442357714334842,-0.028016621586636255,0.006744812589741448,-0.004881254499919058,-0.002040480116518989,0.006240056116988547,0.002492145293324509,31.0
312,-0.004130768348551341,-0.22609445906039632,0.05221277628693924,-0.09252881359589497,0.022222617902129458,0.010640854633975055,0.07552640442651076,0.11533376040721059,-0.02000719919405709,0.020472858690061317,0.01624042063869995,0.0020192124196887337,0.001876585445396802,-0.004895802854035798,31.0
313,-0.006375707884803685,-0.23225685250053324,0.06653547461959804,-0.1095203478245208,0.018497718939956487,0.014778836159572655,0.06439968783220577,0.12119411919467295,-0.00689124164780567,0.0007477018207626516,0.013964901203855887,-0.007639016469870064,0.012110209735764004,0.007682095221092494,31.0
314,-0.001836476488977225,-0.23742070990143177,0.075900471453122,-0.09709100287485999,0.0007102792103288006,0.013683161074824483,0.07749508447149095,0.08996005442716498,-0.027318019471277277,0.009996523397168987,0.009244294053421318,0.0020851064210436272,0.0025304714899410563,-0.00654630714651569,31.0
315,0.0005711786850524036,-0.22837424944599424,0.07276529330582347,-0.10685684765861463,0.0014332180203952664,0.008741136217361108,0.06968825632979399,0.1095534874495542,-0.02707756350429575,-0.007592469966616188,0.004678877741126312,-0.0032602039886150307,0.002463315882578986,-0.002862680225244563,31.0
316,-0.006979398937404277,-0.22485628911557823,0.04489405507568671,-0.09779738265492158,0.01640182889641531,0.026124743497662563,0.07181887800812246,0.0949600868584513,-0.025227038444552225,0.000813270878084698,0.015341555544996088,-0.0007023525792598684,0.0047255265675123954,0.0034591974062244883,31.0
317,-0.005601345009065513,-0.23200682410920292,0.06479699381168925,-0.1119063015076405,0.017493576733971884,0.020837016354678117,0.06720756480345577,0.10994772690659857,-0.023745144896636004,-0.0009310087725500856,0.010311832278515056,4.030006088283498e-05,0.004424558888415984,-0.0022330174595907117,31.0
318,-0.002441611071112904,-0.23118057139599693,0.06034151028166167,-0.10210664039433896,0.022982976160247217,0.02381769090582813,0.0850073199248249,0.10402292774904912,-0.02340984674745997,0.010391963978837479,0.025548750452994425,0.006770035145657952,0.003518341760201161,0.00776739982880084,31.0
319,-0.001320843486241951,-0.2390262468643112,0.06171057604810905,-0.09684361254270384,0.009790392765386152,0.02474761381001201,0.08512444933082765,0.1158225547616495,-0.023537375415668138,0.011721042898615685,0.02618044902313644,0.01389935844829686,-0.0013162806979047478,-0.007075016975290664,31.0
320,0.01152488655191308,-0.22659103006287432,0.04517567006023466,-0.08905007769309313,0.0247480758809073,0.015355435750700452,0.07680977355207239,0.10419966831323672,-0.02073423410251219,-0.00021905599987244616,0.012586308312394011,0.009735943096418934,-0.0006276559097777871,0.010151177073000709,31.0
321,0.0019096815747057375,0.4413295814846684,0.045806025325323685,0.012209584540674044,0.026052803879813558,0.006949335570939915,-0.05048089981400361,0.10713233544047414,-0.019876921660374046,-0.005283065772526517,0.009849152515917284,-0.0006750885627978517,0.005078413798156612,0.00023546666690187038,32.0
322,0.019663956972512213,0.43440112433757117,0.0419300990034826,0.00609903690159005,0.01760940042041334,-0.013581708795978,-0.050489833564424415,0.10170827066231204,-0.02986425048374601,0.001158569917121716,0.024157522217661286,0.005291734116940782,-0.0040548876241241595,-0.00543754650413798,32.0
323,0.012648431216877755,0.44105056986727953,0.03383238985212615,0.012630898488710445,0.01012321350571219,-0.006552777024616604,-0.04468623315245314,0.10511995174183095,-0.028228200990347018,-0.009104442784237951,0.01336929604500046,0.007377768241825878,-0.008973605847234736,0.006514522133026211,32.0
324,0.019745250844835794,0.4325940291784398,0.052564440396933206,0.011628511261364844,0.017646060975980517,-0.0073469727642359,-0.039836308780804505,0.11425026173546325,-0.024215850902393306,0.001616270307634038,0.007706018184208708,-0.004932253027991968,0.007756323787285964,0.0032166770787046338,32.0
325,0.010752917987786796,0.4402775423664143,0.03664641246448632,0.027069690370800457,0.008862044050029372,-0.003039904888135701,-0.027997936174063646,0.10302167157351556,-0.02592742353942483,0.003938800528795019,0.016420888509373215,-0.0015988962550772738,-0.007020422386858477,-0.004732482663134373,32.0
326,0.007773373306109347,0.42838037320004363,0.04053516916821453,0.013948816750110105,0.014061796786236622,-0.00807670821808466,-0.037924795905285434,0.10200161668717515,-0.028332526244813975,0.013149719480499837,0.016555070023093334,0.0004112354907157748,-0.00577959004634933,-0.000974715034536505,32.0
327,0.007021628942183895,0.4347697681535783,0.050936192664092175,0.01776423680520013,0.010403685013116996,-0.00979423531457002,-0.04862451103231465,0.1050200500997785,-0.023091217807390076,-0.008514820963481705,0.0038126094878564356,-0.002478437789485958,0.0033825329356160375,-0.00039446230935209845,32.0
328,0.01364785700551314,0.42339239398919093,0.03881234272687822,0.011462964540897456,0.010850314812822403,-0.0013977142676425683,-0.04721120430718182,0.10026190341058162,-0.034586365556827425,-0.0008096086521337309,0.011261719089059272,-0.0024257368761854987,0.012129440172258754,0.0009990945863700017,32.0
